     33 -    30 -    30 -     1 
rmse=   1.9935meV
  0.707723382271883     
 -4.207126409105082E-002
 -6.407677842682949E-002
 -0.148647228744932     
 -0.500645926364732     
  0.243462690699788     
  0.378043279422949     
  4.711510989333566E-002
 -0.294226569355989     
  8.515490533760202E-002
  7.541567188929500E-002
 -0.228609778152540     
 -0.181134663996491     
  0.260768992556056     
  0.227710988832024     
 -0.415787549818240     
  9.761351037287376E-002
  0.390363916448653     
  0.129590540839856     
 -6.001316760060607E-002
  0.143521840208480     
 -0.275238037112422     
  0.275837996521125     
 -0.115884208737623     
  0.309384707301949     
  0.184795406468073     
 -4.866553790471954E-002
 -7.740674580895553E-002
 -0.196695818394013     
 -7.072388835569421E-002
 -6.346915609972621E-002
 -7.043434848825834E-002
  9.169677532745080E-002
 -0.352971377704876     
 -0.408503102779125     
 -0.611282805219440     
 -0.334360286373697     
 -0.265202184665933     
  0.148569608678091     
  0.146648132330238     
 -0.269321176407105     
  6.064412089517803E-003
 -0.117983189390038     
 -0.214207985881607     
 -0.151237453539546     
 -0.318222494110986     
  8.914803795352005E-002
  0.166843720492146     
  5.060201707464362E-002
  2.979642565368171E-002
  7.814903434905905E-002
 -5.220223590994106E-002
  7.714149103935937E-002
 -0.124260165797772     
 -0.170270690387327     
 -0.299332819737949     
  0.137413803324010     
 -2.726799935913343E-002
 -0.104744861985200     
 -0.102438722324151     
  0.223531650933524     
 -2.636413869629128E-002
 -0.244637140237378     
 -9.438080815196193E-003
 -3.075510704135170E-002
  3.198587302772515E-002
  0.432207501391003     
 -0.790127525327839     
  0.700985528326614     
 -9.555939665842889E-002
 -0.109019987750385     
  0.322197452116211     
  0.221678038946083     
  3.883420466442247E-002
 -0.111762730046664     
  0.196991724656231     
  0.465067584559996     
 -0.336041644669364     
 -0.483284564187878     
  0.482569336574205     
  0.248506197070917     
 -4.441041444032848E-002
 -0.120738816917798     
 -0.150961133377914     
  5.450824302872680E-002
 -0.242202022337021     
  0.261273605430616     
  1.034721415714896E-002
 -0.589929104620621     
  6.995141813770990E-002
 -6.951541960903544E-002
  0.170710335055366     
 -0.180746901889356     
 -4.700679651337773E-002
 -3.661460968703791E-002
  2.035044081746677E-002
 -0.401554725772897     
 -9.471362941015554E-002
 -0.288193203274463     
  0.115921952040159     
  0.180104082972292     
  3.231326871511187E-002
  0.217052747104591     
  0.224426693964034     
 -0.194817559430181     
 -0.170972145147858     
 -0.219064718794714     
 -6.377280774162647E-002
  3.560929075273637E-002
 -2.929165345844232E-002
 -8.750250114921038E-002
 -0.439155700036881     
  0.565304453906668     
 -0.127202507859760     
  0.203542399977604     
  0.340958162083952     
  0.445418352610886     
 -0.300138563880029     
 -1.978764028268534E-002
  0.243078799548229     
 -1.795811580603930E-002
 -0.155693558342010     
 -0.195797285463252     
 -5.793424133686163E-002
 -0.608592518943893     
  0.136253233781677     
 -2.607897041265369E-002
 -6.840014853363992E-003
  0.308751488057677     
  0.130892856131456     
 -0.297654688764698     
  0.234313952365178     
 -0.226875014377561     
 -0.427812539182538     
 -0.662696046425404     
  0.129559074214960     
 -2.705677054695907E-002
 -0.176344562614702     
 -0.382643986664748     
 -7.636900188315184E-002
  5.740478592324173E-002
  0.110582135040348     
 -0.128727510045092     
 -0.134348192152269     
  0.258922321815526     
 -0.229815055539077     
  0.440201068191969     
 -0.240456924780897     
 -1.949431186439160E-002
  0.103036571244882     
  0.139927529055666     
  0.200843228229239     
  0.159088277113455     
 -0.287415114188926     
  0.225630375276370     
 -2.742616316545262E-002
  0.122174201250001     
  0.287338322988906     
 -1.466394333992506E-002
  5.853926206322403E-002
 -0.160059654248403     
  0.328006961847266     
  0.415286335631735     
  0.419233608640094     
 -0.111312949950704     
 -3.009334388638890E-003
 -0.113481090980354     
  7.896809774784296E-002
 -0.242251458938042     
  6.548764546641477E-002
 -0.273583508223509     
  9.459349134077197E-002
 -1.725475195295913E-002
 -0.130730029467203     
  0.298366486901277     
  5.207576982600654E-002
 -5.052753789770686E-002
 -0.129868629557450     
 -6.721534597673712E-002
  0.154689015742366     
 -0.190617183921215     
  0.111650726960453     
 -0.225282561464716     
  7.553755933086618E-003
 -0.142698374312238     
  8.171464989996448E-002
 -0.277864863319029     
  5.163839046515191E-002
 -0.135864251383415     
 -0.145074819612378     
  0.119058346914788     
 -7.138285546099107E-002
  3.069770197672423E-002
 -0.166256239007718     
 -5.477200183819157E-002
 -0.214294375947066     
 -0.167646946868412     
  1.515879534255850E-002
 -0.584954826991251     
  6.184974835170635E-002
 -8.787360813946878E-002
  0.205328619332755     
 -0.270611650003712     
  5.068606781705140E-002
  0.105604233528429     
 -8.617278439721648E-002
  0.264678388012709     
 -3.313186973155887E-002
 -1.764134791915626E-004
 -0.793469140562534     
 -0.330069012770096     
  0.246161589433379     
  0.164427217071456     
 -0.369840498114407     
  0.527825853794664     
  0.192227477412157     
 -7.528382838129447E-002
 -0.151396608888070     
 -0.103325980296556     
 -0.123516548843043     
 -0.114470486058593     
  0.119405960086391     
  0.123198239019483     
 -4.179431316278416E-003
 -0.117030726023448     
  6.125482022093617E-002
 -8.191883029778535E-002
  4.384439280954629E-002
 -0.101479117348277     
 -9.011412763547669E-002
  0.177605420007933     
 -0.808777291718223     
 -0.293723818993256     
  0.111184276728895     
 -0.456561125266002     
  0.222673478333495     
  8.699499442539976E-002
 -4.165334048863343E-002
  4.349401361776966E-004
 -4.472294844663383E-002
  0.141656037342096     
 -0.243957007932966     
 -0.341411861300992     
 -3.769779455532869E-002
 -0.206336504255500     
  0.102267401349977     
  0.163579829904558     
  2.602171463364704E-002
  6.261600586021569E-002
 -0.197968103173440     
 -0.137011038609223     
 -0.103597750193781     
  0.184600332560410     
  9.879590211246436E-002
 -0.645907197378114     
  0.408890091595110     
 -0.125078531435214     
 -0.221359515088422     
  7.872873283938248E-002
  6.357959015057059E-002
  4.802577854552909E-002
  9.786746474948789E-002
  3.400736436465015E-003
 -3.665305500038185E-002
 -6.279148091110665E-002
  0.137745376460733     
 -5.923082127543505E-002
 -0.137670702768752     
 -0.466097387982720     
 -0.181642504277389     
  0.187676579212331     
 -3.394144607585219E-002
 -0.182514934160661     
 -0.192811483049082     
 -0.108419960492658     
  0.207822211474726     
 -9.639981485292451E-002
 -0.123873177279244     
 -0.300493906899940     
  0.320325971554229     
  3.387156073959147E-002
 -0.127738938268240     
  0.188554238214704     
  0.375770975933392     
 -6.007320966434880E-002
 -0.332383225807349     
 -0.234111692140747     
  0.434189400647166     
 -0.481666987774179     
  0.418881231684534     
  1.042479697158662E-002
  4.465731642420843E-003
 -5.872671365699650E-002
  7.896302616175523E-002
  8.346984493375699E-002
 -7.207534424759056E-002
  0.328021702954325     
  0.595544777617097     
  3.845194949004484E-002
  0.237437111180253     
  0.301315553058754     
 -0.424235045854250     
 -7.980764440040991E-002
  0.102893413403993     
 -0.174587465714935     
 -0.195381995434975     
  0.294247341184013     
  9.103280217748696E-003
 -0.710438961465857     
  0.122207995480648     
  0.251039925584247     
 -3.887636399021487E-003
 -0.241160238335819     
  0.333416413885570     
  0.164135569946208     
  6.126590173877895E-002
 -0.208180628132802     
 -9.393534195550179E-002
 -5.781244913536202E-002
 -0.217462001126333     
  0.172741500814951     
 -0.106994751130646     
  0.117460853133871     
  3.738934521400490E-002
 -0.194299722111502     
 -0.186160927378695     
  0.374455246911846     
 -3.176358583797054E-002
 -0.110765564966251     
  0.113931793197687     
  0.649346641172080     
 -0.326599527182398     
  0.174575462973763     
 -0.431161627667562     
  0.230569200886061     
 -2.795810205186669E-003
  0.311696564095244     
  8.139071648403910E-002
 -0.121032566745670     
  9.017646529228460E-002
 -0.153650390946925     
  0.141972911463280     
 -0.365222421465176     
 -0.142239147151332     
  0.259023405754807     
 -9.494657385065615E-003
 -0.228039595748656     
  7.013003052395375E-002
 -0.129035091488491     
  8.198642245078243E-002
 -0.202885717745085     
 -4.205668833982339E-002
 -3.356491488284959E-002
 -0.178451063721075     
  0.511539361416422     
 -0.511387406483596     
  0.696759938047465     
 -7.586780803040288E-002
 -0.229115230582123     
  0.141672319996189     
  0.117344490484368     
 -4.115235786171003E-002
  0.120370832953099     
 -1.057417541302768E-002
  0.155088273459413     
  0.150557237198737     
 -0.123895275383317     
  0.121312725272013     
 -0.215170369071111     
 -0.285538464128145     
  9.052790238441409E-002
  0.153848939882152     
 -9.415592723101975E-002
 -0.123389735377769     
 -0.146074140072535     
  0.183030054993328     
  0.521286414686458     
 -0.149408133638304     
  7.059046003576866E-002
  0.167092610443909     
  0.224954953440549     
 -0.154245115086195     
  0.152132795932205     
  1.502871675207653E-002
  0.199972145821430     
  0.410400842455701     
  4.194542741811090E-002
  0.109287334114964     
 -0.331681126713747     
  0.166045012348613     
  0.329891310309519     
 -0.235670254004009     
 -0.276551076519148     
  6.231927876755163E-002
  0.150818352169511     
  1.773767891688820E-002
 -0.757698632684732     
  0.538206681673558     
 -1.535812702739790E-002
  0.162138946079474     
  7.657600741996329E-003
 -0.319017014939869     
 -0.272243883692706     
 -0.230685059028559     
 -4.766670343115293E-002
  1.174316855864570E-002
  8.928591802519416E-002
 -0.484571767878460     
 -0.316607036085257     
  0.544353712290926     
 -0.239196936594810     
  4.183480147918141E-002
 -0.293073558064495     
 -0.374785922863050     
  0.164259494800339     
  0.112205081160574     
  0.242489381027530     
 -7.490655308352827E-002
  0.214751092049627     
 -0.826061229100960     
  0.796898207124493     
  0.448768284615416     
  2.643636905637217E-002
 -5.647432441437922E-002
  6.592264789480384E-002
  0.162061160598193     
  6.510050763135632E-002
 -7.468961234735960E-002
  0.140371902905917     
  9.259812728007935E-002
  7.787775085506022E-003
  0.223886384396762     
 -0.660209739984548     
  8.315561771795671E-002
  7.745904455194841E-002
  1.378499385141089E-002
  0.167253639222830     
  0.141162692227977     
  0.437598903035615     
  2.670535759741309E-002
 -4.280597898277896E-002
 -0.234496931302820     
  6.326506039320806E-002
  0.267056214644659     
 -0.583937092328357     
 -2.868179780241266E-002
  2.922850711294945E-003
 -0.255418588639878     
  1.702580104585688E-002
 -0.253992141886191     
 -2.992067500369900E-002
  0.297851237070544     
 -0.222368490751922     
  0.536985450151412     
  0.461241039405089     
  0.284968502178367     
 -7.351232118463348E-002
 -0.246643277490467     
 -6.907132085249598E-002
  8.099936102536223E-002
 -0.334417459485836     
 -5.593509602589858E-002
  0.371993028955379     
 -0.114157465862805     
 -0.366320505015823     
 -0.274718422473965     
 -0.251166352268546     
 -9.652015221472925E-002
  0.143447453072208     
 -0.180669720945331     
  8.725129898693459E-002
  0.182711914413089     
  6.251662149130895E-002
  6.432999910904977E-002
 -0.341703827408757     
 -0.301560836151695     
  0.281898855950178     
 -0.210383788290160     
  3.903529755574176E-002
 -7.000615657217678E-002
 -0.325047198076125     
 -0.136867062331505     
  0.140842529329911     
 -7.792167752836256E-003
  0.201672801694900     
  0.218204665363097     
  3.924018820434819E-002
  0.702263034501188     
 -0.515353423401203     
 -0.179769222828973     
  0.153966853297743     
 -6.618668231129425E-002
  2.779205010498481E-002
  9.005580284908983E-003
 -4.666546520216393E-002
  6.876033335955670E-002
 -0.137902237104640     
  8.092953842613584E-002
 -7.039796776829028E-003
  0.369464318947644     
 -0.542814038878132     
 -0.237940030883162     
  0.466632002133827     
  5.974695819613428E-002
 -0.100074768685693     
 -0.226396290196084     
  0.181394086940325     
 -0.227473592661651     
  1.544846909385008E-002
  0.279365347041609     
  0.371907654817931     
 -0.540323804581756     
  0.227777447667168     
  0.107219627506998     
 -0.111785940117160     
 -0.384350520457107     
  0.184381008799403     
 -0.107832094029656     
 -0.304777806522162     
  0.353552566351218     
 -0.485512970567117     
  0.393667813433935     
  0.576872782796211     
  0.176410340109787     
 -0.347374917681368     
  4.737819686933640E-002
  0.145209012637303     
  9.904850509754498E-002
  9.275065573749153E-003
  0.243077504102123     
 -0.242188827829297     
 -0.352387525409123     
  0.100358909032522     
 -1.155179275775815E-002
 -6.336968529675600E-002
  2.828017910167751E-002
  2.720212262966703E-002
  0.194541052781484     
  0.127825175433274     
 -0.673210615633421     
 -8.062942391479926E-002
  0.243158475182852     
  1.616426573223717E-002
  0.103793881007319     
 -7.654145385780006E-002
 -0.170353834461147     
 -0.248882962604355     
 -0.165746459859796     
 -8.345520210936153E-002
 -0.158853802382087     
  9.142079275895672E-002
 -0.255047730804304     
 -0.124758493879330     
 -9.578307882981170E-002
 -0.157655504085568     
  6.660897218168819E-002
  0.193033579447708     
  0.166668063196283     
  0.297249506277524     
 -0.123094944937702     
 -5.169716735342755E-002
 -0.119256880750026     
 -4.070084011056038E-002
  4.711806398374908E-003
  1.482867093379614E-002
  2.867873330910280E-002
  5.992599111568802E-002
 -0.161290471782862     
 -0.454502047747626     
 -0.219706458978246     
 -0.307053938450793     
  9.853896245315601E-002
  0.824566145810111     
 -0.144878905807026     
 -6.651901006754507E-002
  0.496481027963798     
  3.639808673515210E-002
  0.295096509589934     
  0.279478679158865     
  9.573387094908324E-002
  3.990623349319813E-002
  0.153128750062103     
 -0.213206031308040     
  0.520086590799755     
 -0.325973584563182     
 -5.857837291315375E-002
 -0.183345235235520     
 -0.116326515042717     
  5.613053974953837E-002
  7.374667704531707E-002
  0.272343094418195     
 -2.032714422434383E-002
  7.205156751950195E-002
  7.994272805790979E-002
 -0.172293680796393     
  0.523063334741025     
  0.718471199565215     
 -0.120395536681787     
 -0.129501234935554     
 -0.290670353845223     
 -0.155821119499857     
  0.200364472930715     
  0.303716290209540     
  0.141820756345295     
 -0.172593013712009     
 -0.247077766221088     
 -0.187988376614755     
 -7.605307026683394E-002
  0.375320234966837     
 -7.756661588955752E-003
 -0.182752623036757     
 -0.121711591168041     
 -0.202734591818192     
 -0.151290572773367     
  7.349174500689191E-002
 -0.239198986947198     
  0.227523483525381     
 -0.371704702028352     
  0.456158856567125     
  0.287526700224926     
 -0.318793989332232     
 -0.297917104052150     
 -8.821713338724400E-002
  0.192273954332931     
  6.515715192593734E-002
 -0.126845515406496     
 -0.199219973174681     
 -0.593418850560879     
  0.204214918548788     
 -0.249436893124123     
  5.330747082703424E-002
 -0.334562995817202     
 -2.422769627797194E-002
  0.337431946943582     
 -1.783176489807580E-002
  0.213460465875865     
  0.108244808945967     
 -0.119699124338976     
  0.293062519264247     
 -0.570768113281470     
  0.477761449415404     
  0.141110647535498     
 -0.346068515492539     
  0.160191685465144     
 -0.330919653190125     
 -0.125589462669479     
 -0.267840104480146     
  2.548596207350435E-002
 -3.521214471481431E-002
  0.264666998268767     
  0.207988414742784     
  7.788203970428191E-002
 -0.131911756255390     
  0.126253813023815     
  2.103833629399201E-002
 -0.183923429742103     
 -5.075237065047140E-002
  0.189184716321902     
 -0.177876654828457     
  0.118575470510475     
 -0.203850808716800     
  0.137573111426195     
 -0.108397712024459     
  0.306117806174043     
 -9.160325041106780E-002
 -0.193783671146582     
 -9.200789648531793E-002
 -0.217786901860678     
  0.203984304898191     
 -5.765388573376076E-003
  8.950133341054184E-002
 -0.138792115345515     
 -4.375540661399813E-002
  6.474409391481650E-002
 -8.088789312045754E-002
 -0.118252177477396     
  0.109545794864171     
  4.612965398228873E-002
 -0.232894054059886     
 -0.186936338409534     
 -5.028855235913091E-002
  0.134570521432135     
 -1.733681046022256E-002
 -0.378484118747136     
  7.568924803833454E-002
  3.381370365441712E-002
 -4.286323782532746E-002
 -7.885161555085193E-002
 -3.972059611617383E-002
 -0.135579085667009     
 -0.224166726255343     
  0.215181397484985     
  7.353525907671700E-002
 -0.944130597094563     
  0.307482571517022     
 -1.565573642513110E-002
 -7.310754641433143E-002
 -0.128519799235974     
 -0.224784529035793     
  0.190430210286216     
 -0.101694020101826     
  0.216780608925460     
 -5.972503165504989E-002
  4.757597464501882E-002
  7.641816559751168E-002
 -0.140546215529043     
 -6.089055721826864E-002
 -0.246110805054058     
  4.228886309664327E-003
  5.637995182180303E-002
 -0.429026448470833     
 -0.285505702512815     
 -0.231971912779698     
 -5.220411824122455E-002
 -6.013817583066674E-002
  0.183662109956628     
 -0.257443284318383     
  0.196573721182476     
  0.212267398689407     
 -4.418255423635858E-002
  0.100304670251246     
 -7.978738411704211E-002
  0.250608791514367     
  0.116167339244691     
  6.707710681256451E-002
 -0.136739774620248     
 -0.221334264827988     
  7.835579000183820E-002
 -0.484998619449366     
 -0.141101426341445     
  0.382352076988626     
  0.295588932867385     
 -0.127431004076566     
 -0.154606477851587     
  0.118541854591473     
  0.212507622708296     
 -4.561075449080469E-002
 -0.319182846548393     
  3.890184867257763E-002
  7.087901912077851E-002
 -0.584908808487945     
  8.293541473280854E-002
  1.667783611382126E-002
  0.106788887435247     
  0.276673231054508     
 -4.661145333505202E-003
  0.167760856967050     
  0.140515520792981     
  9.541706691487474E-002
  0.270949744364144     
  0.208623571522220     
 -0.504205228700091     
  0.459198923835282     
 -0.291370222817260     
 -0.543254844173982     
 -0.278280227885287     
  0.120789969872019     
 -2.500064767438590E-002
 -1.338621544477503E-002
 -4.161355699514534E-002
  0.112247909760981     
 -0.640560870210916     
 -0.263285096752682     
 -7.993800017966263E-002
 -0.460871950763460     
  2.390195896065889E-002
  0.349271224532183     
  0.289211672969442     
  0.217297921494441     
  7.333608805604969E-002
  0.104183354031143     
 -7.795660328217477E-002
 -0.221722351972418     
  0.415454685713495     
 -0.637251046444730     
  0.186900842496746     
  9.000384288092428E-002
 -0.281194827537245     
 -0.146435504781679     
  3.742130762355603E-002
  0.234989782419954     
  0.141002693199234     
 -3.282587360186438E-002
  0.923349196563182     
 -0.336993567384499     
  0.364486894040152     
  0.325732346914038     
 -0.218731122522641     
  3.892254277417802E-002
 -9.946212962751169E-002
 -0.317632374445534     
 -0.248482155601787     
  -1.06883777788020     
  0.143419959043550     
  2.763975815341938E-002
 -0.223191565805779     
  0.448457131759983     
  0.139818076744253     
  0.256577385283673     
 -4.655547043636586E-002
  0.192397428266937     
 -0.119198549821207     
  0.252360247774682     
 -0.307683072252037     
  0.243381198959343     
 -0.165958236022900     
  0.224294743749300     
  0.199525805906661     
 -5.501817639872288E-002
 -0.132056165700596     
 -0.372775957956407     
 -0.243255188346376     
  0.437876836352165     
  0.205034766981491     
 -0.200815885387548     
 -1.065588602221736E-002
  1.911479633965863E-002
 -0.105018078101170     
 -7.990212584558755E-002
 -9.177717493044384E-002
 -5.695984394608545E-002
  0.126919576750731     
 -0.114193304255986     
 -0.388490439813666     
  0.160021002582281     
  0.333162612068520     
 -0.163779548456484     
  0.156762304356047     
  0.934050100426515     
  0.139724638971470     
 -0.301251473033598     
 -0.340813965025405     
 -0.270145081065578     
  0.150544197210633     
  0.251827584438528     
 -0.185809902474685     
  6.218977330311248E-002
 -0.224854273957349     
 -7.482572596822937E-002
 -0.326344741589909     
  0.683008911057603     
 -0.140988296004605     
 -2.426863030109910E-002
  4.345976278171185E-002
 -4.736126739496607E-002
 -0.113726657869774     
  9.099354918557849E-002
  0.254063159323533     
 -0.429245350107396     
 -0.698756213762811     
 -6.460508551029320E-002
  0.561520523880633     
  1.079624734670714E-002
  1.143779276081647E-002
  5.508049875990715E-002
  0.331600009838569     
 -5.848396187662651E-002
 -0.175096311861438     
   1.32388727798274     
 -0.257930508063392     
  5.311327746911251E-002
 -0.374055276078899     
 -0.172464110210039     
  0.184958392449895     
 -1.911207668512019E-002
 -2.686636199333943E-002
 -0.196445727609526     
  0.236877778598670     
 -0.297874666710640     
  4.156527550880001E-002
  0.107242379070126     
 -0.320972683345208     
 -0.180224481354479     
  8.998979944064341E-002
  0.201333653079316     
 -1.046650531462074E-002
 -0.346265591768372     
 -5.835749776725882E-002
 -0.271740796442044     
  0.204150697794494     
  3.547760966906749E-002
 -0.512442761585177     
  0.174818409965611     
  0.218844976255406     
 -0.113691386192478     
 -0.341147600939196     
  0.145369073330795     
  0.217674234177569     
  0.178673118545109     
 -2.059270124046193E-002
  3.360663059011286E-002
 -0.812610099658701     
 -0.162188274315069     
  1.900639958563341E-002
 -0.409431252345951     
  0.115200474514872     
  0.415051110552528     
 -4.899096398329862E-002
 -0.272303676812883     
 -0.173876298743883     
 -0.176728539471972     
 -0.187264198113750     
  0.545361599574477     
 -7.752453075312315E-003
  0.730962806385133     
 -0.251575157933437     
 -8.588466766304023E-002
 -6.084897889824655E-003
  0.220572947558098     
  5.239920263701975E-002
  0.233088704299470     
 -0.116067792449808     
 -0.185445129700450     
 -0.126615221335626     
  0.166421840269754     
 -5.905305359086691E-004
 -0.350564697074579     
  0.224768342188732     
  0.225832275202224     
  5.920203121033241E-002
  0.167714739264639     
  2.833085046389438E-002
  6.265040286299423E-002
  0.457064174996441     
  0.244105416298037     
 -0.151788664274011     
 -0.308812501434824     
  0.151823143273828     
 -0.113529451208415     
 -0.302488513196028     
 -7.209683227024974E-002
  0.223939804527186     
  0.261717489572078     
 -3.783982649477458E-002
  9.368116978569214E-002
  1.278642807527115E-002
  0.147400234363884     
 -0.228595686739786     
  0.493593597080939     
 -0.543674962785172     
  0.300209253881973     
  0.239829290729004     
  0.233776767398354     
  5.270500509636638E-002
 -0.103513288221560     
 -3.597748042432609E-002
 -0.138325192949049     
  0.190405516398757     
 -0.111654451736088     
  0.175063350845094     
  0.156299461732470     
  7.318880687081741E-002
 -0.277403043744102     
 -8.789963734537955E-002
 -9.781679607692270E-002
 -4.840467909199039E-002
  9.119867245308366E-002
  0.647868125716347     
 -0.306913121228086     
  0.310675197963020     
 -0.110260357935396     
 -3.809438215535076E-002
  0.221031481676671     
 -6.433465808533363E-002
 -0.149106579885014     
 -0.185438223891923     
  0.399478566426601     
 -0.192419944957398     
 -0.916498122549561     
  0.781421469783580     
 -0.120618953788707     
 -0.209829789726577     
 -7.062804721872645E-002
  0.304510195804605     
  0.281155236712776     
 -9.768019971388078E-002
 -6.236387846300523E-002
  6.596694691697563E-002
  0.273692379990829     
  7.936922782302885E-002
 -0.175107486634088     
  0.161832252750748     
 -0.229202510650271     
  0.104054456617488     
 -0.184111323185888     
  7.019147423708813E-002
  3.633154793000851E-002
  0.174884385471598     
 -0.211409348910847     
 -0.245891372898077     
 
 -0.227320920103745     
 -0.242505912347593     
  3.741417168288803E-002
 -0.271898160319613     
 -0.222136817132844     
 -0.336547449582965     
  0.242924178553349     
  4.773681133748786E-003
  0.365593219609358     
 -0.696638703134248     
  6.920279686768976E-003
 -7.473390113708091E-003
  0.260238998044253     
 -0.159789582329736     
  0.107836547997184     
 -0.712947809861536     
 -0.162755708131768     
  2.179291026132991E-002
 -0.542755380882947     
  1.017892737654641E-002
 -0.386355120515584     
 -2.893225856791585E-002
 -0.216584507479859     
  0.617053258297799     
 -0.610063893048033     
 -0.523724845766368     
  0.161540962796539     
  0.175750033107221     
  0.502547488597630     
 -0.152568380336244     
 
 -0.308320758588626     
  0.517657600211517     
  0.136407244170904     
  0.141911863991913     
 -0.139139681038375     
  0.104710282670566     
  1.919048681308200E-002
  0.335544232325448     
 -6.569649617255983E-002
 -0.358597916627506     
 -0.441408504349201     
  1.610559359068418E-003
 -0.202600555303948     
  0.395113636544175     
 -0.123447534359809     
 -0.495309484836988     
  0.673756860853978     
 -2.328238404578015E-002
 -0.323863665928307     
 -0.171859960660356     
  0.196211292648038     
 -6.843413196722618E-002
 -0.114055579682906     
 -1.300429404857599E-002
  0.134207799616317     
 -0.330675536026967     
  0.228416243612873     
  0.239216853433986     
 -0.396806278756653     
  4.990790454979169E-002
 -0.683502356899538     
 -0.189968423886344     
 -0.178993683338198     
 -0.160913967557492     
 -0.116967984845300     
 -5.751787523736623E-002
  0.360404144599095     
  5.523676540582620E-004
 -2.701876839753180E-002
  0.126166793565714     
  9.669420969188192E-002
 -1.151449287663236E-002
 -0.336206780864624     
  0.404972061457140     
  0.500817207881855     
 -0.851505914344223     
 -0.295976198307021     
 -0.287462382291564     
  0.199323502379590     
  6.326076363180060E-003
 -0.362882942239271     
  0.114322628627387     
 -0.287843973460017     
  0.376750249301466     
  0.152210260992006     
 -0.349366066970821     
 -0.109692978812901     
 -0.340508470040742     
  0.470443132845723     
  0.403487885692600     
  3.047312506257812E-002
 -0.204034880773865     
  0.419711594897945     
 -9.876638148501818E-002
  0.250509967557808     
  0.146047017753865     
 -0.288985024237593     
 -0.168138942279007     
 -0.508391353218726     
 -9.289221920810813E-002
 -8.911768298447134E-002
 -0.368403750453317     
  0.204524614999302     
  3.985659634050593E-002
  0.353682946491783     
 -0.419980875144176     
  0.266723984811037     
 -0.168545049492744     
  0.325368506168417     
 -0.411797190628992     
  1.884226654182259E-004
 -5.371107556440421E-003
  0.181539396610835     
  0.108239719366664     
  0.263249449223391     
 -0.483104136829472     
 -0.154759368728384     
 -4.222096439628644E-002
 -7.279472691543601E-002
  9.244991414648214E-002
 -7.231361709465725E-002
 -3.638075048571191E-002
 -0.387453069295218     
  0.177579664602730     
  0.221403924670752     
  0.352356621690002     
  8.485262223682248E-002
 -0.334440616906852     
  0.164958874294665     
 -0.137728405756999     
  0.223446308371475     
 -0.384638704323264     
 -0.408211323019651     
 -0.161711049828447     
  8.567809900713669E-002
  9.827072324599546E-002
  0.326238847705709     
  0.300172737679490     
 -0.134702573408745     
  3.904873739584876E-002
  6.575883536358493E-002
 -0.688272268944621     
  0.531205208924068     
 -0.962033080637577     
 -2.656086400370534E-002
 -0.313722672457809     
  0.445169942292376     
 -0.530398134403541     
 -0.348895827803246     
  0.778792826916121     
  0.283357839296289     
 -3.621484962734433E-002
 -8.852138641380687E-002
  9.705410009539157E-002
 -7.612350069321080E-002
 -0.209881619077676     
 -3.649581046681794E-002
 -0.196367888345688     
  0.123231500451606     
 -0.160262587860228     
  8.814858140125842E-002
 -0.103568586152746     
 -0.422539810252413     
 -0.411812373342096     
  8.476899692867225E-002
  0.103291010380558     
  6.303820806235802E-002
 -0.330611196224490     
 -0.198599633332193     
 -0.239451403895421     
  0.187133440484568     
 -0.125847793194144     
 -0.144814566130678     
 -0.156628776016251     
 -0.549097606090214     
 -0.172289854723082     
  0.375336495144014     
  9.468760670319853E-002
 -0.594262463815694     
  2.016176629741488E-002
  4.385280342944100E-002
 -4.944465544384633E-002
 -0.106945586621919     
 -0.271078014685903     
  0.381173859121606     
 -0.116680465928677     
 -0.149450386826229     
  0.322054137832568     
 -0.305585250501883     
  0.209501585939990     
  0.209268970181642     
  0.289191067237800     
  7.999189567392005E-002
 -0.200229029900149     
  0.243127581106201     
  0.287983535570551     
 -0.102034322458011     
 -0.227396981846065     
  0.246704659749395     
  8.902366888077363E-002
 -3.836706330352406E-002
 -0.262028284354975     
 -0.142499410865807     
 -0.145494651023682     
  3.989880655795457E-002
  0.218409652091363     
 -0.322973610915569     
 -0.625401135762704     
 -0.171837252298640     
  0.391472702321274     
 -0.137852365308784     
 -3.203838329910254E-002
 -0.268915658381817     
 -0.104443876048418     
  3.079360553860162E-002
  0.212338084411410     
  0.168089365551752     
 -0.152547436870110     
  6.672436242309641E-002
 -3.077766861808016E-002
 -7.665794408935372E-002
  0.147133885625949     
  6.460134995836249E-002
  6.993028350645890E-002
  0.136054557198328     
 -0.257663595661446     
 -9.452003142684262E-002
  2.646452231296528E-002
 -1.998538337178665E-002
  0.381556777520184     
 -3.632061258577787E-002
 -0.341012321678180     
  0.251758958616243     
  0.137911561897421     
  6.029742904317134E-002
  5.607110956582834E-002
  9.732976719758045E-002
  0.173478085281635     
 -8.678967970259704E-002
 -0.139768910126395     
 -0.139309180648480     
 -0.129350244426915     
 -8.723884416332385E-002
 -4.397903329853048E-002
  1.245089497435716E-002
  6.383646699200696E-002
 -0.201351408231194     
  6.131099136391399E-002
  7.332646339328348E-002
 -2.721553573491673E-002
 -8.785606424361306E-002
 -2.446989698678373E-002
 -0.342491917063376     
 -0.177601421727790     
 -4.206874212182908E-002
  0.260157413827010     
 -0.147694908229102     
 -0.406191064917059     
 -0.221082582835435     
  0.108542434116317     
 -0.217237213376928     
 -0.261691433902517     
  0.256361060818979     
 -0.310602203776709     
  0.147507544066975     
 -1.565192633206577E-002
  0.367158741416631     
  2.102811810445675E-002
  9.425218360827327E-002
  0.234840910274189     
  1.244443025585425E-002
  7.000137515125920E-002
  0.235138323990200     
 -0.285904734149836     
  7.984815381257170E-002
 -0.153383454404135     
  0.242082055370289     
  0.217829418828346     
 -0.382372664822296     
 -0.156076256370788     
 -0.367547481394424     
  5.104122247343463E-002
  0.332505568785196     
  5.807575877553507E-002
  0.535299816518140     
 -0.801251849088336     
  0.301269382721421     
  0.270975769667838     
 -0.229088133862430     
  9.653142718853328E-002
 -0.464113692117135     
  0.295752097070471     
  0.411631435223600     
  7.957066135809281E-002
  0.206018165718113     
 -0.678741003169595     
  0.473593810897654     
 -0.623656044046735     
  0.340044468530134     
  0.315806736511411     
  0.149859031664257     
 -3.009320157791604E-002
  0.341734018238267     
  9.724708496406177E-002
  0.195872190546488     
  0.175958664986564     
 -0.419468673475653     
 -8.508106517436795E-002
 -0.577098151803144     
  0.134123339868660     
  0.138450875581147     
  5.003577452626797E-002
 -0.290754957070313     
  0.152602327804667     
 -0.210627429587517     
 -0.133461494248032     
  5.908221720530050E-002
  5.591173402755990E-002
  0.120304055030165     
  2.806533070860178E-002
 -0.239518002083887     
 -0.287032571231819     
  0.176970610241347     
 -0.231212399167543     
 -4.731224560294038E-002
  0.422648504308003     
 -0.385386239843477     
  0.509097965161907     
  0.118944091615212     
  0.317188753209201     
 -0.553275375589383     
 -9.039166937456296E-002
 -0.487667874426416     
 -0.328109370062509     
 -3.018635694160286E-002
  0.173709888576274     
  0.118677928650819     
 -6.049669687091299E-002
  9.628597615708812E-002
  2.537849394679857E-002
 -0.894906051654463     
 -0.686137858611922     
  0.267236964296625     
  0.362362357690349     
  0.767874980647531     
  0.259780717650271     
 -0.269848884399547     
 -0.342461915771394     
  0.226899080766726     
  0.358615620129692     
  0.195951805689791     
 -8.933064960900430E-003
 -0.932762382252357     
 -0.315678216993321     
  3.190504847638887E-002
  0.586133974655118     
 -0.287772244243241     
 -3.870536692714247E-002
  0.222376601612323     
 -0.177146768858524     
  0.585987081789419     
 -0.407512303463341     
 -0.525425482288746     
  0.133678355235507     
  0.447475889844735     
 -0.116078687001193     
 -0.104452480105960     
  9.967800950835319E-003
  6.518175788260508E-002
  8.191771285633806E-002
  0.185324982275869     
 -0.203093612334452     
 -0.149307083893162     
 -0.365875113764573     
  1.073979755960043E-002
 -0.212959867057866     
  0.261903340260907     
  0.164906872790315     
  0.299138795033192     
  0.194205863795113     
 -0.239124973022274     
 -0.301543179597357     
 -0.155153125728382     
  9.688100633147662E-002
  8.644324973232115E-002
 -0.284384748171193     
  0.350496864447958     
 -0.166489785251521     
 -1.839136967943576E-002
 -0.443921132761382     
 -6.632909873981266E-002
 -4.773668328287947E-002
 -7.646729491161183E-002
  0.546648218626444     
 -4.519678766797642E-003
 -0.327543420225131     
  0.189309910662891     
 -9.119365315283814E-002
 -0.371366933068557     
  4.647444386875826E-002
  0.112282052856002     
 -0.250527933090137     
  0.210662462545234     
  0.335514705138344     
  0.274833295438593     
  0.456305225833407     
  0.105754998023305     
 -4.533598399208371E-002
 -8.921828040483257E-003
  8.788847786700762E-002
 -6.284883207186209E-003
 -5.515357724861795E-002
 -3.230716761795379E-002
  0.584531878317418     
 -0.575233249947277     
 -0.298156259587388     
 -0.359352648092860     
 -0.259610555658686     
 -0.446704982113758     
  0.293119190146894     
 -0.150077973448270     
  9.174729320491207E-002
 -0.398116637414400     
 -5.015849830848931E-002
  0.129477203297893     
 -0.132188517309863     
 -0.168559400267035     
  0.110260788366517     
 -3.228694752668525E-002
  0.292615943524074     
  0.769846251791860     
  3.877776423817567E-002
  0.258691700020482     
  0.485488470028167     
  0.110222679011277     
  0.234479746052114     
  0.215086020738064     
  2.168911441403925E-003
 -0.123174088865994     
 -0.121197724761823     
 -6.107621050860761E-002
  0.251241206357539     
  8.472338420003886E-002
 -0.337646931957667     
 -7.556837105508452E-002
  0.307814456935936     
 -0.354968896920022     
 -0.507985666475680     
 -0.489035603300731     
  0.121097100423133     
 -8.527652317802556E-002
  3.982575083516380E-003
 -0.122321721121270     
 -0.438534831743833     
  0.268589356462919     
 -0.123810283899097     
 -3.822007337712037E-002
  0.918017112703958     
  0.227671799087397     
  0.174448462687642     
 -0.294138603103830     
 -0.215160340589724     
 -1.696722490482091E-002
  0.193453090643903     
 -0.511409121989804     
  9.861104007985487E-002
  0.395784741396707     
  0.436383613292351     
 -0.223517145647275     
 -0.531376802153556     
 -0.167944004298650     
  0.985472861175200     
  0.241890649053141     
  0.504653790564323     
  0.923563225695632     
 -0.227959871257724     
 -0.358867445121916     
  0.472585173278369     
 -9.917143455903815E-002
 -0.419774456616665     
 -0.202448881743516     
  0.130161664140480     
  4.175205833477330E-002
 -0.504924389828310     
 -0.100200187257185     
  0.237900115246353     
 -0.188203389038634     
 -0.320357419600684     
  0.488274954668086     
 -0.279670466464793     
 -0.363798079590405     
  3.689734524852971E-002
 -0.253077135351539     
 -0.326400439275684     
  0.348936760829095     
 -6.184495732604135E-002
  0.180396908257399     
 -0.445160427774211     
  0.620928577380043     
  0.262431780620186     
  1.758077504528326E-002
  0.309815361057465     
  7.688242083174213E-002
 -0.577581585986722     
  0.245499438574554     
 -9.316127815977063E-002
  0.180968722902535     
  4.871119541955059E-002
  0.174431535797224     
  0.101550156850676     
  2.256461374496255E-002
 -7.457998870519247E-002
  0.302849358677902     
  8.338325150521045E-002
 -0.402463639623434     
  0.216001381091912     
  9.222241316464855E-002
 -0.454159301447620     
 -0.346028588253969     
 -0.703834795206758     
 -0.210837161147648     
 -7.938806720772924E-002
 -0.140776905359369     
 -0.327084920851138     
 -8.296904096697555E-002
  0.107385747085677     
  9.561021378636161E-002
  0.111944106816599     
  0.182701204521154     
 -9.942430419933189E-002
 -2.929721704809846E-002
 -0.393793988318423     
 -0.376962106990429     
  4.735566600649054E-002
 -6.925583384572263E-002
 -0.272050561845734     
  5.462776862461478E-002
  0.332115448937374     
  0.321304702866916     
 -0.385133822920493     
 -0.420916382996926     
  0.245376676122282     
 -0.556940817059960     
 -0.260722728115416     
 -1.630434264826792E-002
  0.175274488457344     
  0.412065740111295     
 -0.224191467754054     
 -0.134649749542708     
 -0.335558306072185     
 -0.346695497137616     
  0.175976857010056     
  0.182272711651131     
 -3.376108115225208E-003
 -0.144968947066762     
  0.140436504809170     
 -0.269833274481880     
  0.180867861176253     
  0.296810921294170     
 -0.114591929304407     
 -0.236759394273088     
  3.550666844983209E-003
 -9.921316442845948E-002
  0.649372664302433     
  0.133356714128379     
  0.429787782064980     
  0.227094208699012     
  7.137801978281523E-002
 -8.863090042579513E-002
 -0.828582022241498     
 -0.259237312291170     
  1.922598660151414E-002
  0.132852270605185     
 -9.306853082853052E-002
  0.157069553190022     
  0.124108499905318     
 -4.675017413603712E-002
 -0.235882785728894     
 -0.212681283560919     
 -9.679465276510810E-002
  0.109605938938650     
  4.002230611281174E-002
 -0.381281314921645     
 -5.322994342404763E-002
 -0.313298052872429     
  0.517001631094550     
 -0.532920139011012     
  0.140968303800603     
 -0.374456035821174     
  0.156083001102390     
  0.170371488059900     
 -0.181528321887472     
  0.190657144609664     
  0.414509209199398     
 -0.175720923154269     
  0.135382917145633     
 -4.003209915758054E-002
  0.159668140350409     
  0.530631720467003     
 -5.168570088244455E-002
  0.453739643811096     
 -2.130628885118992E-003
  0.724246270815101     
 -0.251191724879766     
  0.411185622399557     
 -0.183407261591777     
 -0.789397673491780     
 -7.022474363517017E-002
 -0.250124297116648     
  0.142060073287224     
 -0.900403018809819     
 -0.187720016740607     
  0.210867976426292     
  0.435701964849617     
  0.147980560539877     
  0.297433732060304     
 -5.720731758022966E-002
 -0.341781654491462     
  0.351856304263172     
 -0.358876154106829     
 -0.291665857129611     
  6.362527202173987E-002
 -0.264911211983864     
  0.137523354691990     
  0.121514865382317     
 -3.490154503715946E-002
  0.462399129832150     
  0.337608420763801     
 -9.081247458189262E-002
 -0.197421956509279     
 -7.037773240498051E-002
  0.309607042401002     
  0.594438171766586     
 -0.303928172590266     
 -9.861560820726364E-002
  0.351578041441154     
 -5.521215411692849E-002
 -0.261579468069235     
  5.003452857954668E-004
 -0.368294720691173     
 -0.782681484229955     
 -0.149119471333037     
 -0.216994494689576     
  0.249048525473154     
  0.161386557923714     
 -0.260080572048538     
 -8.509132440025440E-002
 -0.381408467833409     
  6.200692010270466E-002
 -0.568405426530905     
  0.158609954564501     
 -7.667229103317130E-002
 -8.978999383586657E-002
 -0.487123109872522     
  7.880519196697656E-002
  4.730757397509241E-002
  0.351092864447818     
  0.272449016367107     
  4.475464835817656E-002
  0.115524290308981     
 -0.263953642773332     
  0.264185760677669     
  0.139736603077999     
  0.411977163475640     
 -0.327408658965964     
 -0.173153969099248     
 -6.561289701846226E-002
  2.652269890953158E-002
 -0.722105601019780     
 -9.762230680747674E-002
  0.407878351008433     
 -0.184859057289218     
  0.234160912035337     
  0.869920244151048     
  7.879043726425006E-002
  0.709279362141185     
 -0.359718087609564     
  0.210128961137804     
 -0.373100264282465     
 -0.320408655827578     
  0.146727372221808     
 -0.699343444698937     
  0.411190256790393     
  0.149249593150876     
 -0.360766499714015     
  0.416001243492134     
  0.570621875348988     
  0.161692017649032     
  0.263003566599768     
 -0.231887038145603     
 -0.396843653639420     
  0.484873573266917     
  3.506233618507832E-002
 -1.814521431509309E-002
  6.412421465307504E-002
 -1.483720932484749E-002
  6.651009987527201E-002
  0.625258831228065     
  6.065107011667886E-002
 -0.114757922713577     
 -0.581838453475522     
 -0.127016769697784     
 -6.532193768532593E-002
  0.167664943301810     
 -0.359140000983091     
 -0.327165162890909     
 -7.188747458909604E-002
  0.154207576787119     
  0.128867416074208     
  0.686972743598896     
 -0.235738667131154     
 -6.471517321632550E-002
 -0.293349718341735     
  0.265256247340083     
  0.739912790532651     
  0.284526481974981     
 -0.341762603982985     
  4.519821594524762E-002
  0.245228356315993     
 -0.472742940833485     
 -4.177475424082453E-002
 -0.284580095184414     
  0.298790038731270     
  0.218296921191513     
  0.517422243085474     
 -0.290588462196264     
  0.313391832718988     
 -0.211160758456025     
 -0.243282609711361     
  0.225352144776389     
 -0.287776568499877     
  0.351238160762766     
  0.365613509041207     
  0.244828394142004     
 -0.114900810751088     
 -0.582079142935746     
 -4.270531272960641E-003
  0.210712353366378     
 -0.493525891592504     
  8.471867735131028E-002
  0.218482669082610     
  7.004769541840665E-002
  0.158151317975432     
 -8.613741394850701E-002
  0.348077083294779     
  0.396169967229189     
 -6.642747716335957E-002
  0.243972493106701     
 -0.249825565574496     
 -0.296910485185285     
 -0.116499200555684     
 -5.392196447572474E-002
 -0.562909514960784     
  9.379606470004372E-002
 -0.292991860338553     
  5.282756896034429E-002
  6.862355480685549E-002
  0.446601592699569     
  0.297083215931949     
  0.332577746358368     
 -0.300749101602538     
 -2.453937387052102E-002
 -0.153838251443468     
  0.159480215598668     
  0.390568101578424     
 -2.332133132022194E-002
 -4.992163900630840E-002
 -0.414045761347051     
  0.670778813250368     
 -0.422162675903367     
  0.200644941248763     
  0.260713769459708     
  0.151667747458639     
 -0.172788088939549     
  0.789097329548541     
  0.256298656737302     
 -3.776652454541315E-002
  0.607555549285161     
 -5.083876571393989E-002
  0.338192690984908     
 -0.127054799035310     
  0.171403850159930     
  0.201285589041050     
  0.414115235429500     
 -0.165334649363846     
  0.262365123043782     
 -0.346421372811937     
 -1.549393815251530E-002
 -0.319645889748531     
 -0.151419345893480     
  0.495596052197775     
 -0.372410226641918     
  0.243261032142080     
  0.142981001832745     
  0.463836598031239     
  0.279902079774134     
  6.421130145862777E-002
  0.551767481900088     
  0.272926712656420     
 -0.605879645395884     
 -0.114207665784131     
 -0.344170751715249     
  0.155564880798985     
 -0.528760725094315     
 -0.325564999377869     
 -0.372131720893698     
  0.716691536611587     
  0.129025015692153     
 -9.610401866308436E-002
  0.475883149232863     
 -0.428393146698581     
  0.169276831264578     
  0.241636278395157     
  0.186617573146075     
  0.319609786966142     
  0.181282006754861     
  0.142064880490510     
  0.279407977265723     
  0.187758975901045     
  0.537576550886614     
  4.425581829993328E-002
  0.146892414205563     
  0.239629783780104     
  0.240623792916284     
  7.520423903856356E-002
  0.188628048607205     
  0.247914590554614     
 -6.940303469486260E-002
 -0.114923570417888     
  0.263053698733284     
  0.199909194278651     
  0.106982688647945     
  6.411097642761175E-002
  0.155473506876972     
  4.803135222280360E-002
  0.151604388096955     
 -8.338852580363076E-003
 -8.707394191788488E-003
  0.202025106559411     
  4.733454941144519E-002
 -9.149745162658390E-002
  2.083661278012520E-002
  0.610556388996888     
 -0.666332406596579     
 -9.098807754719072E-002
  0.114147077646500     
  0.123222877069257     
 -0.168229475483078     
 -0.126748287507104     
  0.254960970155346     
  0.170854258974384     
 -5.415684837618017E-002
 -0.368498016628997     
 -0.209664314257835     
 -8.383376445945813E-002
 -0.125490106632827     
  4.339876626239864E-002
 -0.169754408805973     
  0.413704586208161     
 -0.309765279645849     
  0.188533976536392     
 -3.353231429121043E-002
 -1.943116465658256E-002
  5.630428189853427E-002
 -0.244290422286506     
  0.177432916820841     
  0.332388565673745     
 -2.204901175679669E-003
 -0.628124948962782     
 -0.165752087956027     
  7.099698419677081E-002
  0.161631147174317     
 -0.424432167839673     
  0.130037124629841     
 -0.120345595444607     
  0.158956137353776     
  0.397020422184534     
  0.290949260425044     
 -0.373932388511496     
 -6.466115110731416E-002
  8.742893922789914E-002
 -0.148609950114386     
 -0.400250788332115     
 -0.381514630123194     
 -0.355967838929664     
  0.132754980258215     
  0.314885363296303     
  0.132853594488753     
  0.132491365836332     
 -0.388040400994749     
  3.717856817018553E-002
 -0.404387011871060     
 -0.323803385855703     
 -0.155421529833306     
  0.595535497966561     
 -0.274881069547196     
 -0.295661194180166     
 -0.480775941401071     
  0.225403224747896     
  0.154432672846564     
 -7.364828642857717E-002
 -0.157303675757915     
 -0.217290043758514     
  5.778167016881446E-002
 -0.237352283419417     
  0.229622045267786     
  0.330355686064016     
  0.123109864993384     
 -3.126143521956552E-002
 -0.583844559558610     
 -0.261962835950689     
  5.429331550709652E-003
 -0.631994117428078     
 -0.438606861610021     
  0.213792695974202     
  1.682462994760784E-002
  0.269717739478768     
  0.519242493624712     
 -0.383300770477199     
  0.828251507530815     
 -0.325039399587259     
 -0.140844105827052     
  0.163698153995548     
 -0.331841920169024     
 -0.176798894277503     
  7.548190590127987E-002
 -0.183076232287705     
  0.106593990778961     
 -0.385395801957730     
 -0.568048847039032     
 
 -0.595963652994001     
  0.149977773200985     
 -0.186685433405038     
 -0.194179584521228     
  0.104555627774539     
 -0.304987801333349     
 -0.114070096480435     
  7.546810073253685E-002
  0.488070187819332     
 -4.621085795007188E-002
 -0.260731847142322     
  0.391089412573494     
 -0.139886585541448     
  0.115789550625649     
 -0.161241055122435     
 -2.008567190275501E-002
  0.186556643556768     
  1.300859619112933E-002
  0.236790600558592     
  7.453882405723849E-003
 -3.552419447431884E-003
 -0.130490305501968     
 -0.104196042791171     
  8.226153947062524E-002
 -8.148394941460177E-003
 -0.180059948170778     
 -0.415851246009143     
  1.297816459028752E-002
 -8.801826319008789E-002
  0.358992524355112     
 
  -6.91199591443505     
   3.71561883566809     
   1.93084029595426     
   4.01964767886333     
   4.93306376299281     
  -1.97174164072463     
  0.155013137542894     
 -0.236963861800937     
   2.11138046869119     
 -0.361250007291856     
   4.50049063809278     
  -3.62317184300605     
  -2.89950369662577     
  -1.52091604800274     
   3.59046022468120     
  -3.61820243818466     
   1.70171501189292     
  -2.95184329895976     
  -2.68988869302588     
   2.61849644593063     
  -5.64784958782020     
  -4.00849959860597     
   6.59550280915272     
   1.29051192307363     
   1.22915339154672     
  -1.88137221357618     
 -0.439606918743552     
   2.24354094359546     
  -2.54030097221951     
   1.94458956238046     
 
 -3.536416285714286E-003
 
  tansig  tansig 
