     33 -    30 -    30 -     1 
rmse=   1.9935meV
 -0.733706240999024     
  0.242104201557868     
 -0.188104432024624     
 -0.133904928169395     
  9.253075440423465E-003
  0.126923760753907     
 -8.052595479164525E-002
 -8.098643659895986E-002
 -0.305604750677666     
  0.104403603088456     
  2.070203483882875E-002
  0.141147072225999     
  0.301695344671267     
 -4.797185765398852E-002
 -0.129756372118073     
 -1.711417614461709E-002
  0.246219127811484     
 -9.003851489648304E-002
 -7.588439863547358E-002
  5.151625837087782E-002
 -4.551179018337188E-002
 -7.076257937059015E-002
 -0.338871357933383     
  0.805026891026337     
 -5.916304535053400E-003
 -0.233108064398664     
  0.212828518770922     
  0.105362887095786     
  0.112851151550904     
 -0.152639657804585     
 -1.450429035626858E-003
  0.178843092455029     
 -0.257837103811063     
  0.544075026850406     
  0.595643866756663     
 -0.526817247642775     
 -8.744976456809207E-002
  0.198402013069891     
 -1.237145576240195E-002
  0.112496897990188     
 -0.133894568903669     
 -0.107305860820671     
 -0.136271056491373     
  4.897643276765178E-002
 -0.134777247435172     
 -0.188244609872024     
  0.284765295234017     
  0.205287142752586     
 -0.301031804127429     
  0.275040470102858     
 -3.457968480719604E-002
  5.099961113684600E-004
 -0.119651955261852     
  0.159139946997783     
  1.836190748683639E-002
 -8.612022835038978E-002
 -1.574343042688450E-002
 -0.483670766221875     
  5.000954304487362E-002
 -0.293327745263292     
 -0.166318499284834     
  0.176068659390599     
 -0.130785984023862     
  0.201026421373113     
 -4.896351836769645E-002
  0.198289992096350     
  1.827486031849315E-002
 -0.507299768927342     
  -1.21054653543244     
 -5.779700843779097E-002
  0.314935548247556     
  0.164473245543192     
 -0.117267132220679     
 -0.213056546295290     
 -6.319662109805869E-004
 -0.125172350439777     
  1.678826525389647E-002
 -2.737826955691773E-002
 -0.517478372595664     
 -0.182876145077365     
  0.167848338618313     
  1.987421922395087E-002
  2.326486660551834E-002
  0.251589444755748     
  7.787128031360242E-002
  0.126628095496533     
  3.843925414097966E-002
  4.537313992210172E-002
 -6.288137803427850E-002
  0.165949532916305     
  0.309036541463486     
 -0.187952697611077     
 -0.233600193746593     
 -0.393676652247723     
  1.417180782295791E-002
  0.145592889529946     
  0.146214983970651     
 -0.263837065234690     
 -1.038341899892928E-002
 -0.804065098989044     
 -5.254891229270503E-002
  0.358284783093318     
 -1.746134214596133E-002
  0.198709918810652     
 -0.256039794512982     
 -0.198069371244336     
  0.140295853934102     
 -0.127577406273943     
  8.182189652714149E-002
  0.112306089001741     
  6.496262663253220E-002
  7.834844493552921E-003
  0.541276206969776     
  2.425064196173118E-002
  0.429642956176264     
  4.300780475091975E-002
 -6.407358149324729E-002
  3.205624161695751E-002
  7.870641555111693E-002
 -0.138554485700262     
  7.982550484891665E-002
  4.463414000394395E-002
 -0.427290527955136     
 -0.458711731254277     
  0.275110632086743     
 -0.213649066897662     
 -0.136560176812489     
  7.277450936683576E-002
  0.213412464760473     
  0.116136266283219     
 -0.173003759071127     
 -0.192654053091702     
  0.331993800489208     
 -0.472671236850971     
  0.301270738524687     
  0.487831588715811     
 -0.154937021530414     
 -0.284298344775798     
  0.344705327882213     
  8.437182146238367E-002
 -0.159229609867643     
 -0.334928502702271     
 -0.163155806731898     
 -5.073853034384621E-002
  0.200227626315497     
  0.151687930859113     
  0.489589384599387     
  0.149452704584073     
 -2.847688561184700E-002
 -5.872432354384478E-002
 -3.047626670968818E-002
 -6.063297505723261E-002
  1.457989453902814E-003
 -0.147808544209178     
  0.325277825916946     
 -0.454245211792802     
  0.398306342436701     
  0.326922300799402     
 -0.178119900301996     
 -0.222526764355247     
  0.118584837023982     
  2.364740543610049E-002
  0.246551642698179     
  0.120413208474126     
  0.109278885647790     
 -0.389875874963274     
  0.163910298421350     
  0.191724518151883     
 -0.341742815726041     
 -6.755130904984186E-003
  0.377530436499411     
 -0.282384136470190     
 -6.229321529277915E-002
 -0.122960305828974     
  3.343007042421453E-002
 -0.264477417069822     
  0.646824353462926     
 -8.973293130794815E-002
 -0.252807087339538     
 -9.128527501294889E-002
  0.114818070517743     
 -0.255483880894070     
 -0.261467551538633     
  5.052906216598638E-002
 -0.275819064924437     
 -9.850568443054863E-002
  0.196342065568001     
  7.486918149306607E-002
  4.903376111353519E-003
 -0.860542709113165     
 -2.020890320018029E-002
  0.358788005358981     
  0.118609558745819     
 -0.100314792354728     
  0.287479275488593     
 -3.129935867874386E-002
  0.287636493339332     
 -3.843829371064268E-002
 -0.364224696208862     
  0.239008332962214     
  0.337144834832078     
 -0.285380171324492     
 -0.453076795381154     
 -0.105374470246769     
  0.494555299621589     
  0.466785505977267     
  0.226592232191984     
  0.119895092495117     
  0.133310827434896     
 -9.063974900429615E-002
  0.403866872772833     
  0.384079951809059     
  0.239140385545788     
 -0.454448321034636     
 -0.143826792377869     
 -0.192640187210624     
 -0.125230966999842     
 -3.931186326571338E-002
  4.975112822292289E-002
  5.690000367453939E-002
 -0.145041632095387     
  0.150342575528852     
  0.330165814281281     
  0.287256824456478     
 -0.690211675442349     
  0.295184599937861     
 -0.438651499894230     
 -4.942024210252179E-002
 -0.238820843526446     
 -0.147530980431455     
 -1.377483042051623E-002
  -1.05001320725346     
  0.772077380937508     
 -0.445796501171600     
 -0.425408679295077     
 -0.291071477971551     
  0.255127718759978     
 -6.665669622734531E-002
 -0.292192836998896     
 -0.179523502583004     
 -0.272695962498776     
 -3.127728268818512E-002
 -0.164643375841858     
 -9.250464378785257E-002
  9.312626594528811E-002
  0.166458673551704     
 -0.103682750172028     
  0.335892513100623     
  4.904950027188309E-002
  6.267313895123404E-002
 -5.030112283738458E-002
 -2.953248270860625E-002
 -6.952800502753133E-002
  0.492082460261515     
 -0.396127044142512     
 -0.454193235988034     
  8.496087528901955E-002
 -0.180430521647754     
 -0.270681013067826     
  0.202481342280050     
  0.200901303013181     
  0.136891840164518     
  0.400319510479089     
 -7.700705490988173E-002
 -0.243267996261348     
  0.850058172171473     
 -0.634617541162306     
 -0.176646805733790     
 -8.894038081474588E-002
  0.470859261659259     
 -5.789437156421198E-002
 -9.258143520172185E-002
 -0.385469704299301     
  8.993556401344717E-002
 -0.200689132668842     
  3.316255504877715E-002
  7.117773558923246E-002
 -0.456020094745749     
 -0.414687919166610     
  0.236203556803210     
  0.141912473194310     
  0.135378200522385     
  0.165427198763948     
  4.166590661994505E-004
  6.787192313026572E-003
 -5.779560121290628E-002
  0.166347825964085     
 -4.828175117927996E-002
  0.795739018225261     
 -5.095777957271928E-002
  0.103453165355598     
  0.110951147467192     
 -0.302780621941334     
 -1.360241932899236E-002
  0.351168077550285     
  0.108916801813550     
 -0.194921541857624     
  0.786732821332496     
 -0.208923640070734     
  0.194285389086600     
  2.896989765230974E-002
  0.226097986789262     
 -0.455713511036135     
  4.605572087853744E-002
  6.846700329723386E-002
  0.161084026413642     
  2.309553531177423E-002
 -0.112115644533820     
  3.090031323634805E-002
 -7.661355042686221E-003
 -0.265973638376571     
 -0.313545431036934     
  0.301165947792173     
  3.972279136024857E-002
  0.115744501506596     
 -0.124206514449654     
  0.194169530170621     
 -5.744459144238850E-002
 -0.352671998059690     
 -0.259547443397393     
  0.234680274887904     
  0.198574825410035     
 -0.172238613759046     
  3.291596438304509E-002
  3.771433340597562E-002
 -5.526233086788884E-002
 -2.822600864255384E-002
  5.018943935356015E-003
 -2.415654136664927E-002
  0.142306502908849     
 -0.397012620342444     
  0.615648591121961     
 -9.446462508781379E-002
 -6.905431488384162E-002
 -0.890697190267547     
  0.103384397250733     
  0.255602351669537     
 -0.133139298677015     
 -0.101351820094731     
 -0.114922025859876     
  0.309209712846447     
  0.422901379009021     
 -0.332219170226953     
 -0.754048184432480     
 -7.645080502104475E-002
  0.354085452872647     
  0.368880835713473     
 -0.161021135260840     
 -0.369629009758173     
  0.169562510248171     
  0.281453980034008     
 -0.171425338972633     
  1.673058160406566E-002
  0.228923489041899     
 -0.859998033128894     
  0.173329723647793     
 -0.261369404239610     
  0.553399421059851     
  0.408374845672614     
 -0.113061163357826     
  0.179794042583475     
 -0.246534688505893     
  7.083156523219801E-002
 -7.580362778204172E-002
 -0.214028753768269     
  0.607291365240805     
 -0.157044626270157     
 -0.184562100716362     
  0.178024686694054     
  0.267359459424728     
 -1.842054954484217E-002
  0.191421726481873     
 -1.092053673781302E-002
 -0.201353326995917     
  1.967891807541584E-002
  0.141773926537709     
 -0.607265546659880     
  0.276194146923864     
  0.395457027664578     
 -0.450556750651755     
 -0.193573288883539     
  0.115123696811714     
  0.121739492902959     
 -0.176015021796013     
 -0.118550251657988     
  0.488594557568260     
 -0.462548915083385     
 -0.432848402042888     
  0.185234319375401     
  0.147039608086061     
  0.193459452207676     
 -0.240561432497492     
 -0.308980954566706     
  1.596449937487997E-002
  4.975164025362844E-002
 -0.323464182498109     
 -0.241637493750923     
 -1.269935833623191E-002
 -0.295958964547001     
  0.168998652846054     
 -9.103368087639557E-002
 -0.150586110978664     
 -0.306563435768059     
 -5.472688278764862E-002
 -0.188940097253369     
  5.151724651802989E-003
  2.835088697242660E-002
 -0.945411117837892     
  0.223344304495702     
 -2.133560564089176E-002
  9.359172358201902E-002
  0.149897216211792     
  0.354339482646073     
  0.140796381198159     
  0.125268570923439     
 -0.219551555808989     
 -0.184635477594487     
 -2.315062594230469E-002
 -0.202316409738016     
  0.255325841951274     
 -0.162829449556630     
 -0.142488163720854     
 -0.105144772598110     
  2.369033351672356E-002
  0.233186087563101     
  0.102159183564858     
  0.195662571653926     
 -0.185951617527142     
 -0.280387734014208     
  0.119650870932328     
  9.022486430133497E-002
 -0.708511994203407     
 -0.301151177878242     
 -0.167254083280544     
 -0.191327955093660     
 -0.293207286978997     
 -0.158381399324036     
 -4.762669613315953E-002
 -6.786045061793919E-002
 -0.235465931362352     
  0.144262862483053     
  0.176329900698314     
 -0.485386281945718     
  2.862815016834871E-002
 -0.160877666101851     
 -0.272278092802407     
 -3.469322858655976E-002
 -7.541045043501733E-002
  9.012225263800551E-002
 -4.015346530264530E-002
  8.785894256448863E-003
 -0.672756999916479     
 -0.476422556026883     
 -0.532056106327031     
  0.112863006469448     
 -2.566284176372080E-002
 -0.151388143056086     
 -8.464904529914037E-002
 -2.979862639528573E-002
  2.112831122885568E-002
  4.595479690860040E-002
  0.155077642911823     
 -0.104692274764873     
  0.542268988356560     
 -0.844954506995714     
 -0.477429903381321     
  4.779864518434083E-002
  0.382261365364507     
  9.327213955952394E-002
  0.163706543995310     
  1.900046224233751E-002
 -3.279709979578121E-002
  0.163775019565851     
  0.199911395641941     
 -0.147852765376089     
  0.809212876156225     
  0.428748298541780     
 -0.343876362410225     
  0.157513714819131     
  0.322752890007335     
  4.556703333712882E-002
  3.500123875915111E-002
  0.328584692154160     
 -5.117090760988513E-002
  0.242102202626702     
 -0.326162692692666     
  9.671460000800819E-002
  0.305093004530461     
  0.412010045567492     
 -0.133439140939159     
 -0.371614524284206     
 -9.904841014156691E-002
 -0.116951744622819     
 -0.154815766711350     
 -0.240237645406852     
 -0.347722021617909     
  0.186746972586118     
  0.529146785145551     
 -0.478017590339407     
  6.135947370013066E-002
 -2.916000128722589E-002
 -6.501418208085007E-002
 -0.159613894459450     
 -0.206823605989443     
 -0.339324882879737     
  6.022715697586226E-002
  0.280702803993564     
 -8.867465797815076E-002
  6.732658915389561E-002
 -9.303540461220426E-002
  0.288666017730223     
  3.114621241677250E-002
 -0.262112528927770     
 -4.041870295958402E-002
 -3.652639429842340E-002
  2.009951862669266E-002
 -0.136044232762586     
  0.349329575029792     
 -0.442410362802347     
  0.401264636146674     
 -0.300719728212602     
  0.307013479185623     
  0.171228961191063     
  0.226603441525511     
  0.121967601497503     
  2.316833230413664E-002
  0.296253494136633     
 -4.517820546738167E-002
  0.492462253635499     
 -0.634280396711170     
  0.351018175159685     
 -4.204670985147181E-002
 -0.311412400149447     
  0.177110192496967     
  0.196954919222841     
 -8.240431724077868E-002
 -0.140244340249656     
  0.143155717052923     
  0.395226008391871     
  0.387984112481004     
 -0.112746601483281     
  9.146437541361158E-002
  0.483551919087466     
 -4.192904483323111E-002
 -0.212416624592263     
 -0.294658701818358     
 -9.908726293400717E-002
  4.205378727026004E-002
 -0.108879139471008     
 -3.820156422898217E-002
 -0.379429738415355     
  0.378728217045325     
 -0.217636018772107     
 -3.600876988853442E-002
  0.574497124251513     
 -4.219440293977210E-002
  0.123824889536542     
 -0.500829528576074     
  1.341758238114293E-002
 -0.295640729289420     
 -4.029206760485187E-003
 -0.223799924296202     
  0.406756895969084     
 -0.329370540135359     
 -6.472057133513989E-002
 -0.465390725839884     
 -0.264121210812343     
 -0.181933558754824     
 -3.306213613427778E-002
  6.735939547443484E-003
  5.157475129373985E-002
  2.046007940990270E-002
  0.357695908855988     
 -0.203520791869086     
  0.539539143043975     
  0.161623245667017     
  5.567190458359546E-002
 -0.147182145529184     
  0.340127258420589     
  0.131030750758457     
  7.147411193730210E-002
  3.939749332052141E-002
 -0.189869136370169     
  0.241605577476134     
 -2.850623711145320E-002
  0.191492049744113     
 -7.453262960295083E-002
 -0.393383976679928     
 -0.373251670083469     
 -9.567237360405881E-002
  0.117910958555728     
 -0.191922868901050     
  0.176725725486671     
 -0.200131096485298     
 -6.948144217465693E-002
  0.460747635133075     
  0.108106246540669     
 -3.600702393603190E-002
 -0.232622706755505     
 -0.178533986419461     
  0.112727608545974     
  0.260053732430572     
  3.434967029330201E-002
 -4.183160982820502E-002
  0.239839967987204     
  0.338120392139861     
  0.270494152629963     
 -9.471771637026926E-003
 -0.352171383338291     
 -0.126172235656181     
  0.154414623984711     
 -0.183550579663049     
  8.646707705298772E-004
  7.859816699142694E-003
 -0.118243449025134     
  0.104822177119560     
  0.613281346392569     
 -0.329223870173072     
 -4.005399235026726E-002
  0.360686335364046     
  0.208888821958083     
 -5.508448036751052E-002
 -0.155489726591701     
 -0.110961730725046     
  0.227710263273730     
  8.409817428158833E-002
  4.870429402032582E-002
  0.765120630176872     
 -0.436025237578297     
 -0.604812827579722     
  0.202185610977741     
  0.382815288565473     
 -0.313802703151548     
  0.122354884684649     
  6.818383428615861E-002
 -6.548217965790006E-002
 -6.010407025958858E-002
  0.234995391997123     
  7.531010537784355E-002
 -0.200653877784605     
  0.246184159781730     
  0.182801465128667     
 -0.244951857109754     
 -7.236646777478896E-002
 -0.135034732799042     
 -9.265347987877538E-002
  0.158337665817463     
  0.105538785897992     
  0.231067081603319     
  7.088684287547001E-002
 -9.310004161944303E-002
 -0.751263863775455     
  0.406400608492683     
 -0.389062440303712     
  6.071827498075920E-002
 -9.811730291942692E-003
  9.646134511872943E-002
 -1.960414687666904E-002
 -0.178344839720757     
 -1.239031761614230E-002
 -6.987842871349227E-002
  0.501448148213817     
 -0.155125944335643     
 -6.131259828393611E-002
 -0.287737094845529     
  0.170454806659827     
  9.446261224678677E-002
  0.107707130476156     
  5.607858311878522E-002
  0.214878230630192     
  0.180637564052435     
  0.327157224141490     
 -0.149178208027261     
  0.260634639159026     
  0.522223550018074     
 -8.989285058523781E-002
 -0.228308223892322     
 -0.373419884105524     
 -0.269148379723799     
  0.141156470072679     
 -0.150269567897987     
 -3.308655630564060E-002
 -0.290385439983385     
  0.171624825705034     
 -8.095181670744545E-002
  0.207602004597035     
 -0.167235520300740     
  4.304039839785982E-002
 -0.198809638533470     
  0.252425210968186     
 -0.430124878515433     
 -0.178929516283322     
  8.087905496803249E-002
 -1.803588431853558E-002
  0.246880650071907     
 -6.871148280420007E-002
  0.674304781382616     
  0.116268553474052     
  0.212422097151905     
 -0.458598281799250     
 -0.135799131441098     
  0.143711820177518     
 -9.156928514094485E-002
 -0.284898358966335     
 -0.479462142221282     
  0.857319708622116     
  0.699195427338675     
 -8.628107421394562E-002
 -0.189495061023066     
  5.809644843891567E-002
  0.153645929969853     
 -0.140297013055953     
  2.627343789084752E-002
 -0.134493980818098     
 -0.130721566316035     
 -9.853496245933197E-002
 -0.165404505378652     
  0.419362524681871     
 -7.905830295717775E-002
 -4.867264605662693E-002
 -0.270436903464918     
  0.203885232040396     
 -0.105828285109917     
  2.271560355694121E-002
  0.139449101786560     
 -0.128219972053636     
 -0.509716387748960     
 -0.361388530082608     
 -0.254900020783468     
  0.323342027765877     
  0.483352295485855     
  8.362084703234360E-003
 -3.725086192986429E-002
 -0.338021759261244     
  0.235520956177015     
  0.224104912583598     
 -0.141911141706451     
 -0.207778108614874     
  0.194514630332314     
  7.719432568506358E-002
 -0.444489744722586     
  7.599343530459546E-002
 -0.168544214329121     
  1.302018417756326E-002
 -4.566543273848185E-002
 -0.142846502243577     
  0.103884312558261     
 -1.446364044897215E-002
  0.278709505383883     
 -0.398748667135284     
  0.349581396240293     
 -0.182344493010920     
  0.254769412587490     
 -0.221096931181898     
  2.107149352244971E-002
 -0.111252560935876     
  6.773109338844779E-002
  2.850905209073740E-002
 -4.457698993042978E-002
 -0.353073915646344     
 -0.366296689822957     
  2.377392150347463E-002
 -0.183244778569602     
 -5.689375725387296E-002
  8.830877039808421E-002
  2.446162877761344E-002
  0.313812189097448     
  0.149086760145932     
  3.700756693301641E-002
  0.124995756993983     
 -0.141247547743834     
 -1.918817749809560E-002
 -3.166092565213917E-002
  0.349166078458850     
 -0.201624108444244     
 -7.420983380280637E-002
  0.102134837567159     
  5.453649136420847E-003
 -0.103565923053929     
  0.155111346519301     
 -0.138627664048278     
 -0.866599732905951     
 -0.109820110738684     
 -0.120375414040643     
 -0.410780038298654     
 -0.302038299310298     
 -0.216223756374500     
 -0.238741889745574     
 -2.127158816011966E-002
  0.227125430769515     
 -7.603311582002974E-002
 -0.126732844968933     
  4.548773528870206E-002
  0.214061639655471     
  3.284573991324604E-002
 -0.144865725582730     
  0.162198927283874     
  0.210711478596359     
 -5.320086518452732E-002
 -0.126178562428242     
  3.456887929557246E-002
 -0.236192629389408     
  9.870568482176895E-002
  0.150068156645644     
 -7.273364579588788E-002
  0.361692807151749     
  0.347432635139674     
 -0.539669056468361     
  0.251205456014278     
  0.134288154047411     
  0.226284482135976     
  0.174044566995616     
  1.532276223292164E-002
  0.230419171380211     
 -1.369602940001150E-004
 -5.258194015576462E-002
  1.857362912911158E-002
  0.312873267623933     
 -4.039613673013127E-002
  0.143162152143695     
  5.199452262813122E-002
  2.848253984978205E-002
 -0.141117669416231     
  4.171939624024830E-002
  0.213391676353771     
 -0.640688935041926     
 -0.188091101052733     
  0.529568569168328     
  0.406207252254189     
 -0.227523460371026     
 -6.175594569367082E-002
 -2.778407483530402E-002
 -0.118773106432890     
  0.150882434951329     
 -9.095564924238027E-002
 -2.536652663529896E-002
 -0.197312226771063     
  0.496463431732275     
  0.148711883630826     
 -0.640850064945816     
 -0.341248775727299     
 -0.233514530518685     
  0.219422437344993     
  5.823877893718616E-002
 -1.095372975394960E-002
  0.157354940754612     
 -0.320244021407159     
 -0.379578567204832     
  0.302232412919247     
  0.416847766185605     
  0.196337727210857     
 -0.421057948615732     
  8.241765822063155E-002
 -3.008042739977384E-002
 -0.132186325446120     
  0.101497791620757     
  2.885832156724137E-003
  0.157695053017345     
 -0.486748876339120     
  3.607147904613833E-002
  0.123687728912266     
 -4.206747348828671E-003
 -0.361193709931029     
  3.418861692571987E-002
  0.276350798315138     
 -0.178037980669141     
  3.703389662273997E-002
  0.139417669360944     
 -0.225585854878500     
 -0.684866589147746     
  4.582662046593726E-002
  0.115753803058182     
  0.245038072587474     
 -0.162258554786243     
  0.331953565707175     
  0.426525332504149     
 -0.108200905443671     
 -1.124610231763866E-002
  0.206857452083030     
 -0.177229042720966     
  0.511162046130822     
 -0.414167177312780     
 -0.164995987830679     
  0.313176366376494     
 -0.359226719932343     
  0.492307036271538     
 -0.294315532145248     
 -7.077798063808258E-002
  7.846661599239600E-002
  0.111922430726167     
  6.291632310311256E-002
  0.497181170995060     
 -0.218360214802038     
  7.954198741945222E-002
 -2.682325038566036E-002
 -7.580969098482412E-002
 -0.140876898903156     
  1.786445581800387E-002
  0.166242758688837     
 -0.116666148662834     
  0.164956311319592     
  5.257742184840039E-002
 -0.177783053749697     
  0.405343035943058     
 -7.648263158386817E-003
  0.308773475198153     
 -0.351427302493723     
  7.109410749871947E-004
  5.529891945317685E-002
 -0.202867541008799     
 -6.745950606864332E-002
 -0.279537241295130     
  7.559629238508998E-002
  0.138687953671624     
  0.194760408109031     
  0.611853652419453     
  0.244297626246982     
  0.126450318041000     
  0.141944134863693     
  0.153323533961073     
 -2.080611731895227E-002
  9.904304007598359E-003
  9.514809600791849E-002
  0.309770910271174     
 -0.279985503922973     
 -0.524095167807312     
 -4.853820547460811E-002
 -0.265636635080032     
 -0.136066804331382     
 -0.309578186700411     
 -9.648333729387269E-002
 -2.563231682247868E-002
  0.219378224104005     
 -0.170653919403452     
  7.713357821721868E-002
 -5.109625397619701E-002
 -0.141799018657909     
 -0.382834286431248     
  0.251670424092664     
 -0.150898275455293     
 -0.231508875765314     
 -0.172023601568886     
 -9.625491099006264E-002
 -3.986331523780415E-002
 -6.147771280539024E-002
  0.134702340786506     
 -0.207259425089556     
  0.384852618411241     
 -0.902203656612723     
  8.096315813957011E-002
  0.342326814060741     
  0.367112795739568     
  0.356909744376176     
  6.809198338157921E-002
  2.119514892875458E-002
  0.103010516658158     
  0.105950665080061     
 -0.353645919984215     
  6.494150728381315E-002
 -0.543001355811777     
 -0.184008723607538     
  0.309905339105501     
 -0.201453176622640     
 -0.205336844127049     
  0.232993993213962     
  0.255700861550622     
 -5.787182746584835E-002
  2.810713692183138E-002
  0.167375647600776     
  0.483707052245745     
 -0.529985945424295     
 -0.264302451220265     
 -2.822403299023269E-002
 -0.293375966539402     
 -3.541368971514785E-002
 -0.133746924747401     
 -0.124300328099598     
  6.085762656164906E-002
  0.103770190449541     
 -0.295587216267611     
  0.591071811658741     
  0.613402903523605     
 -0.103937015772059     
  0.505682905752525     
 -3.841231895665921E-002
  0.222738921466301     
 -9.661319418717824E-002
  0.120586987771944     
 -5.152634117846829E-003
  0.167421510469518     
 
  7.221886017860378E-002
  0.327555627336329     
 -0.239311016738766     
 -0.337704541303830     
  0.264994772271508     
 -6.213163417675936E-002
 -1.185265683532687E-002
  0.272504308208280     
 -4.466201816964492E-002
 -5.465870541869092E-002
  0.235999021820283     
  0.544395264855024     
  0.457620438111227     
 -0.211196387699888     
 -0.911602210274696     
 -0.458562886434479     
 -3.053748441760109E-002
 -0.426655818457950     
  5.958103519116740E-002
  0.752096468076892     
 -0.148813889394075     
 -0.333514440137020     
 -0.259459041490150     
 -1.541627663890028E-002
 -0.220236824337403     
 -0.422925744635933     
  0.161495651175929     
  0.189896656949936     
  0.389849240930594     
  8.025184138680357E-002
 
 -0.214336316506964     
 -4.569046759231769E-002
  0.272235349793564     
  0.173867405622958     
  3.424143972298376E-002
  0.775868308974591     
  0.147179397592628     
  8.222788755105806E-002
  0.467425718180818     
  0.137888359688558     
 -0.189159091983700     
 -0.290461497114589     
 -0.312026072834463     
 -0.153487034977623     
  0.428316490238087     
  0.407784591106574     
  0.438500576314629     
  1.316064896566709E-002
 -0.243569298944019     
  -1.13560280805867     
  0.245338649500028     
 -0.488114797744404     
  0.482840505429165     
  0.156504176895215     
 -0.129265748643242     
  0.552962934604044     
 -0.110740233819793     
  0.160616668997170     
 -0.106518064920325     
  0.241566142166067     
 -0.402382704905515     
  2.362345198480005E-002
  0.100166730282734     
 -9.310624905257610E-002
 -0.118662300882719     
  0.163602288008612     
  0.133533040980134     
 -0.535092413587807     
  0.152709948623922     
  0.248768193041225     
 -5.138258949347831E-002
 -0.166674198854162     
 -0.191880220125484     
  0.495616494626389     
 -0.274257081338381     
 -0.139681010518827     
  7.875421238749561E-002
 -0.142148697296661     
  0.152091443522247     
 -7.381316656399588E-002
 -0.315543432299768     
  0.287179194388409     
 -8.759388853890437E-002
  0.379283565813491     
 -0.154916742134956     
 -0.285226059461591     
 -0.255119267174933     
 -0.318505762037292     
 -0.265074964446850     
 -6.566421708847263E-002
  0.353133411841016     
 -0.292041426019328     
  0.236889746406257     
 -0.126085431065295     
 -0.221742336818958     
  0.300853294417395     
  0.584316634669815     
 -8.203171230854250E-002
  0.112284426690534     
  0.623771740132510     
 -0.169687011013938     
  2.661081636266174E-002
  0.407547829350553     
 -0.574096456568368     
 -0.106700420719403     
  0.134043407723595     
 -0.204280377146349     
 -9.474070482325317E-002
 -0.113580738227858     
 -2.219240729675302E-003
  0.498580201218913     
 -5.208842836930744E-002
  0.295556066256022     
  0.127653669973689     
  0.135652561554874     
 -0.392348313694098     
  0.354530767952564     
  0.323908153206256     
  0.105822133975552     
 -0.114539106609603     
 -0.342710110919248     
  0.378762389322978     
  6.477064631632132E-002
  2.548029724007300E-002
 -7.199023128470608E-002
 -0.417693455015609     
  3.763846088145937E-002
 -0.517845127819296     
 -0.320017883158852     
  0.504070070350873     
 -0.489022929911767     
 -7.117669845454798E-002
 -0.117727905486564     
 -0.485354573499627     
 -0.214907515780835     
  0.277486772153627     
 -6.035876767211217E-002
 -0.129529428498285     
  0.171468039018997     
 -0.695907057304345     
 -0.654199663063579     
 -0.408180437432994     
  0.421568766824705     
 -6.746872103016807E-002
 -0.371286580483279     
 -0.382326767001351     
 -0.407149846434645     
  7.358505785496913E-002
  0.144029383587522     
  0.178126401172861     
  9.956381678996964E-002
  0.379604211624046     
 -4.684338585993311E-003
 -0.268334519108529     
  0.278031282537171     
 -0.445995993119487     
 -0.948303436869300     
  0.284226308127604     
 -0.419410930956743     
  0.262274649147619     
 -0.325832161480051     
 -8.325074735752255E-002
  1.976489185724235E-002
  0.133663024777433     
  0.601554912348233     
  0.688178078324630     
 -0.205264559582107     
  0.144246447544531     
  9.441387258227711E-002
  2.250905930786468E-002
  0.282490805904670     
 -0.363117134855758     
 -0.323858849984588     
 -0.196428399317245     
 -0.478459101091038     
  0.176468645918348     
 -0.255483269344270     
  0.178165030341906     
 -5.850892885413420E-002
 -4.792982623900426E-002
 -1.130453888405515E-002
  0.661981907226449     
  3.986425559708069E-002
 -9.732446565010196E-002
 -0.180195752051359     
  0.216545794494140     
  4.137330813863143E-003
 -0.184537978487915     
  0.380380985917455     
  2.737190246210877E-002
  0.171105522550462     
  0.333899955260992     
  0.140240604159482     
  7.144587247254247E-002
 -0.188610035305081     
 -8.000134249615430E-002
 -0.307816386956874     
  4.412897150809784E-002
 -4.410127484645870E-002
 -3.000776759577855E-002
  0.222365605445181     
  0.277632184327602     
 -0.229421675331769     
  0.117974027797274     
  4.263832874543875E-002
  0.366198727056547     
  1.989011852956764E-002
 -0.203830725626615     
  9.767867921887485E-002
 -0.127515413667539     
 -0.402195693110983     
  0.233335976991229     
 -0.149025325412583     
 -0.491043573323648     
 -1.386088333978756E-002
  0.133323191356630     
 -0.552668194871651     
 -0.191729386515197     
  0.212958075020191     
  0.457735038715299     
 -3.885109138886892E-002
 -0.176998259268279     
 -0.335771151734204     
  1.265054091611643E-002
  0.341195415784909     
  7.988979642785189E-002
 -0.729994733964507     
  0.268228352120817     
 -3.462661695650675E-002
 -5.295634296462687E-002
  0.126156239390333     
  0.459101600658247     
 -0.186206949980437     
 -0.119439523602264     
 -0.166104850176320     
  0.335281638730959     
 -0.252329025140175     
 -0.163571198168209     
  0.308598111372595     
 -0.120705654823917     
 -0.288193296691407     
  0.528055310190674     
 -0.252296873555567     
 -0.468632975532127     
  0.178184261277879     
  5.103960991014359E-002
  0.220790964918000     
  0.321479469736088     
 -0.282158974647098     
  0.810303270043753     
 -0.247828107763011     
  8.267742830451973E-002
 -2.966400653035449E-003
  0.159582684513663     
  0.397473822520474     
  0.541598968406322     
  0.439895931888575     
  1.156337915990611E-002
 -0.239723778764880     
  6.569291443499525E-002
 -0.571054723320700     
 -0.225718262436223     
  0.587957401467470     
 -9.412766960487048E-002
 -5.685963308800970E-002
  0.163858588451995     
 -0.324935858722866     
 -0.330065076257941     
  0.220617073875469     
  0.719231753460821     
  0.192306945957412     
 -0.416906770075429     
  0.449259394527130     
  0.750407772384311     
 -6.881474078310620E-002
  0.597628831565910     
  4.946862351804497E-002
  0.393749428757979     
 -0.269391033249567     
 -0.625247604209795     
  0.612008331194566     
  0.255546719301905     
 -4.707560347667195E-002
  5.699420891896367E-002
 -0.325861609870728     
  5.214008148520714E-002
  0.153346894256309     
  0.239802590679145     
 -4.029408305333923E-002
 -0.344103091533325     
 -0.182990877479506     
  0.114672614913853     
 -0.200202011016897     
 -8.627974023405160E-003
  0.361121768337943     
  0.955530317823880     
 -1.906932547861996E-002
  3.820117532281328E-002
 -1.857235139374247E-002
 -5.965145632410684E-002
  0.460890269511261     
  0.238650530021540     
  0.149136395550071     
 -0.446758846816576     
  0.357510250318241     
  0.384201780275675     
 -4.766656118279869E-002
 -0.248402779682367     
  0.110731563627336     
 -6.671368167243652E-002
  0.259109425612580     
  0.361043325718677     
  0.190794421610859     
 -0.343121292832635     
  0.213967134629349     
 -9.805784845616787E-002
 -0.339025469448981     
  9.256486561883942E-003
  0.367190017210595     
  0.553531682789448     
 -0.124467110780584     
 -0.439432028889175     
 -8.294309836210668E-002
 -9.680495458938837E-002
  0.152274097195313     
 -0.418946237883242     
  0.517880230072808     
  3.649436075888685E-002
  6.576618054839801E-002
 -0.432506729661424     
  0.120970236785379     
  8.370713671463868E-002
 -0.286698705097736     
  0.276897678070359     
 -0.180313782092972     
 -5.951269290517016E-002
  0.264115713679959     
  0.310494037937298     
  0.194846830023268     
 -0.388276454324983     
 -5.510720537842826E-002
 -0.228688950514671     
 -0.481421383827748     
 -0.159101837738373     
  4.837953274633418E-002
 -0.231822036260482     
  0.176925881052215     
 -0.352671256900431     
 -0.168489246196849     
  0.319127319345656     
 -4.618180358659373E-002
  0.148618576151583     
  0.114456230482462     
 -0.230389285656857     
 -8.805096039933874E-002
 -0.335855146241464     
 -9.970085601135921E-002
  0.217865924504271     
 -0.135447854112347     
  0.106172846624277     
  0.106114153698255     
  0.100286021277446     
  2.606097473492586E-002
  0.297955884794509     
  3.111935166588392E-002
 -0.508267711634230     
  1.793607230229157E-002
 -0.311995997657505     
 -4.123813821710923E-002
  0.223346120332544     
 -0.949908312506806     
 -0.151375319342006     
  8.327214976889509E-002
  0.236024615937830     
 -2.676313407378591E-002
  9.271110327381762E-002
 -0.138493801015625     
  0.128887540179291     
  7.224644610481108E-002
  0.266270608007645     
  9.246631257985741E-002
  0.296434116262017     
  0.102710854265196     
  9.973558329739697E-002
 -2.509878377349179E-002
  0.379987763340884     
 -0.495766539599895     
 -3.763413682617130E-002
  0.265924959282402     
 -0.159829774871045     
 -0.219048367984412     
 -0.358162988449345     
 -0.471039849372893     
  7.645425636366952E-002
  0.207434778012000     
 -0.129700157635445     
  8.632254183573726E-003
  0.315683738921811     
  0.776457604111888     
 -0.566796257722266     
 -0.378954946905031     
 -0.207139407958090     
  0.140738383825534     
  0.318722556051046     
  0.232891631818518     
  0.375169430864989     
  5.416538805576457E-004
  0.341571706255858     
 -0.214776815636073     
 -0.553334144341868     
  0.115595154787060     
  0.471505354785553     
 -0.119238459985557     
  6.575884602717236E-002
 -6.309609227321439E-002
 -0.317707437860484     
 -0.192493540140546     
  0.160412621008353     
  0.185435212740821     
 -0.385289684406924     
  9.871070659592979E-002
  0.300396112897658     
 -0.365134921552446     
  0.454431721835452     
 -0.146188072450062     
  0.465882286578572     
  1.909895112437728E-002
  0.432407488027790     
  1.517165263803137E-002
  0.272955336331617     
  0.763044767521264     
 -8.986642483416472E-002
  0.281096436842240     
  0.111901111754396     
  0.169897765535592     
  0.386993148798826     
  0.422570081554486     
  0.195002192443588     
  0.354110389723566     
 -0.841563752494247     
  0.215316744638340     
  0.209071469569041     
 -0.144497801002146     
  8.493452596725069E-002
 -0.121101761798440     
 -5.625276772019351E-002
 -7.306998896979655E-002
  7.451957873323319E-002
 -0.247642846004395     
 -8.713207423087140E-002
  0.376338994236757     
 -0.117485943180568     
  0.230319457988744     
  9.393930646971493E-002
 -0.283978449437762     
 -0.351338423454819     
 -0.181885858379147     
  8.136551205772645E-002
  0.189827839333818     
 -9.633486193083426E-002
 -0.200670509974093     
 -6.295673579206643E-002
  8.281334185571979E-002
  6.603660612324760E-002
  0.730785860201751     
 -0.159997441169708     
  0.181569125153680     
  0.478103800439996     
 -0.210786301494126     
  0.201770067985322     
  0.234478262482394     
  5.977076562739369E-002
  8.652983903512927E-002
 -6.704049563922886E-002
 -0.110692956999172     
 -0.271473317314981     
  0.481722289116314     
 -9.286652712257554E-002
  0.124232355513340     
 -0.247264371279506     
 -2.725736490627426E-002
 -0.120726705012341     
 -5.596078797618339E-002
  3.142026556315830E-002
  0.385791115241251     
 -0.735835237940729     
  0.349560678986826     
 -0.382883890568131     
  7.529614902695904E-002
  0.624929144699444     
 -0.288555725095755     
 -2.974859035513350E-002
 -0.152552956857068     
  0.197193764085674     
  0.221464977884756     
  1.415567695937232E-003
 -0.115405586058680     
 -0.108980959369473     
  0.343818676752764     
 -1.918417875014453E-002
 -0.202408573887012     
  1.765172340115218E-002
 -0.116773464395042     
  0.246677516410301     
  0.219521963966680     
 -0.129032259155754     
  0.157510913098182     
  0.107620092469334     
  4.085092701252303E-002
  0.217831325612700     
  0.551315417167536     
 -7.570700092387329E-002
 -0.253532820358975     
 -0.303857498909936     
 -0.224389036946798     
  0.357239843552316     
 -0.242231034269240     
  2.498362933648750E-002
  0.316781368534991     
  0.358777934740506     
  0.551161050037870     
  0.705224448302375     
  0.295106156871575     
 -0.166668985264071     
 -0.963553145365401     
 -0.491990848354663     
  4.159172537356397E-002
 -0.400314372495731     
 -1.968333036397569E-002
  0.540729775397755     
 -3.420142049640439E-002
 -0.481281322807545     
 -0.453007159378676     
 -0.100110970304930     
 -3.863812167792123E-002
 -0.290691115178529     
  0.679418603205352     
  0.273897637715006     
  0.493367616144741     
  0.335611996300557     
 -0.601653034107433     
  0.174693656191720     
  1.974628151268478E-002
 -0.182711396080658     
  1.370355392334336E-002
  0.361149510978276     
  9.585591533747273E-002
  2.496368189418793E-002
  0.230338616716082     
 -6.664949430444082E-003
 -0.923657779372200     
 -0.126696647411077     
 -6.218135369482860E-002
  0.267988690588769     
  0.805188210056637     
  0.150577550238407     
  0.142891354125004     
  0.374386462525603     
 -0.208028169176164     
  0.313545654830094     
  0.505223597920362     
 -0.123403916530384     
  0.167369745967451     
 -0.407916888657735     
 -0.245124388303860     
 -0.256169551374630     
 -0.651697857443587     
  0.128020403376441     
  0.237035005675375     
 -0.314082923458532     
  7.259870315179605E-002
 -0.821649186374850     
 -0.263095466111244     
 -0.125321140295004     
 -0.321256516006451     
 -0.477126452706664     
  0.476330052101244     
  0.458219179276708     
   1.00860738469697     
 -7.363221003398632E-002
 -0.265303340988263     
 -0.100526134630435     
  0.278147192697875     
  0.237054737822976     
 -2.450640264241526E-002
  0.401473253884232     
 -0.694612408121654     
 -0.112400189284187     
  0.394410422974174     
 -0.430151656856143     
  0.445666837948124     
 -0.451262657313847     
 -2.322832124998812E-002
 -0.444801193300269     
  0.791951680660563     
 -0.184254455995474     
 -0.593196142641127     
  2.464706098111884E-003
  0.695375561650520     
 -4.696395951409987E-002
  0.162271306009556     
 -7.550085241846781E-002
  0.250278833972724     
 -0.213246196977807     
  0.277251683472142     
 -0.381501296297588     
 -0.451140565693533     
 -3.478449178639310E-002
  0.719225883356998     
  0.297560799689931     
  0.975962190375833     
  0.105986636426807     
 -0.151969531807403     
  1.475100807056900E-002
 -0.892720819903529     
 -0.282232599989042     
  0.579817336653602     
  0.274824762367142     
  0.178757213226713     
  0.103271287120434     
  0.525249971334959     
  0.595031048318464     
  0.291707169164224     
 -0.102787594926867     
  0.210194515264520     
  0.164196375715567     
 -0.191424339885455     
 -7.269448533399772E-002
 -3.677689082317906E-003
 -0.282956518408766     
  0.475452964996513     
 -0.173622567527756     
  0.266812380354404     
 -3.423669457168520E-002
 -9.840473810124697E-002
 -0.327086635127790     
  0.109210150354224     
 -0.157823255629794     
  0.135695467783401     
 -0.113105175407729     
  1.045331450006785E-002
 -6.189810739475458E-002
  0.228288134359654     
 -2.008610612374089E-002
 -0.187537452988483     
  1.168493770505685E-002
 -2.888160924069542E-002
  0.315819793148946     
 -0.322793772295806     
 -9.666492714011274E-002
 -0.280391800406960     
 -0.252367761003617     
 -8.678564795473043E-002
 -0.189723233982656     
 -0.173261415420712     
 -0.254177339014287     
  0.301992709650284     
  4.852472754028996E-002
 -0.196380403150025     
 -5.904087193128473E-002
 -0.308550532549004     
 -0.109377070932712     
 -7.599060928987177E-002
 -0.190771915672496     
 -0.308240176882292     
 -1.627036694093558E-004
  5.097807319401729E-002
  0.445378523934582     
 -0.402485726896447     
  6.158339248551876E-002
 -0.549223957688700     
 -0.148494945679879     
  0.322535361310582     
 -1.366253035045289E-002
  0.658345437976717     
  0.461989101934230     
 -0.562354696989651     
  9.166252389267911E-002
  0.299155174864714     
 -9.182786577158734E-002
 -0.318084596865953     
 -0.493579930349233     
 -3.164423433001206E-003
 -0.551412801551073     
  0.189813016163575     
 -5.320096256103979E-002
 -0.272778270652500     
  9.209015650887584E-002
 -0.258675901611451     
 -0.203155819831477     
  0.137782725659315     
 -0.380820293870827     
 -8.130602194950616E-002
  4.520507189870395E-002
  1.207764002694155E-002
  0.435612439390703     
  0.167209619533773     
  9.514731826024284E-003
 -2.749451670876735E-002
  4.070366842049891E-002
  5.207641631373007E-003
  0.133894244423095     
  5.022153358475783E-002
 -0.375588946537740     
  0.367961587312281     
  0.378005562060941     
 -0.312160670475170     
 -8.743540421389970E-002
  0.179143266166987     
  0.250946870876262     
  0.131271839850524     
  0.613066667970710     
 -9.480299209423126E-002
  6.973749078354334E-002
  0.158091448590600     
 -6.907033057276839E-002
 -6.069501382152689E-002
  0.128517226335254     
  0.190766379664360     
 -0.148661786976178     
  6.909887404579303E-003
 -0.821676015031076     
  0.261414512117003     
  0.170218201502986     
 -6.491503544263366E-002
  3.393483479233218E-002
  0.132456797272863     
 -0.638179790396918     
  0.393916085349185     
  4.647975916632902E-002
  5.013511352269235E-002
 -0.362762858029982     
 -0.237334799573207     
  0.580269346260671     
 -0.273080299049796     
 -0.101405520619310     
  0.128341432530189     
  0.193647305601244     
  4.028074965256574E-002
 -0.192148780676385     
 -0.404226820511312     
 -0.119889707339703     
 -5.385505344344814E-002
  5.672145635378559E-002
  0.338248178468336     
 -0.223459750931035     
 -2.112679501894377E-002
  0.158166237692626     
  0.253839237175321     
 -8.769629532777773E-002
 -0.213954618526991     
  0.278536926770148     
 -4.530669631178309E-002
  0.122183606148766     
 -0.543410139703116     
  0.207022173058260     
   1.07485380055576     
 -8.705251569910868E-002
  0.511968722940542     
  3.788148936044896E-002
 -0.159504790087462     
  0.293619168331421     
  6.683876068124406E-002
 -0.172861786772523     
 -0.429066164169197     
 -0.289934542958186     
  0.825371183345638     
  5.859782521558923E-002
 -2.952617685970942E-002
 -0.486015840628662     
 -0.546524347031271     
 -0.120442493128423     
  0.330277070331199     
 -0.391318850102335     
 -0.229750004219293     
 -0.232688927732488     
  0.139346320048378     
  0.131365599258400     
  0.323942316105811     
  3.650872369204752E-002
 -5.742589179116624E-002
  0.244907542695574     
  0.211843122258763     
  0.265141743848191     
  0.284432769454809     
 -0.870071034463164     
  0.195072705883649     
 -9.704664529342809E-002
  0.117563948954046     
  6.123908864519157E-002
 -0.719255320660562     
 -6.679453631947992E-002
  0.136400105639577     
  0.317173828021419     
  0.104380472323012     
 -0.405434764582477     
  0.107322478068040     
 -0.148737872827468     
  0.278763242659271     
 -0.710448108942049     
  1.774270392289236E-002
 -0.335072188694310     
 -3.546522915729008E-002
  6.016161478062698E-002
  0.258076288954288     
 -0.316443880797646     
  0.328950824570801     
 -1.273059514513951E-002
 -0.246607283305764     
 -7.823587967484920E-002
 -6.195654920630840E-002
 -0.328709326064799     
 -0.140669427156586     
  0.309819062660573     
  0.340917430689488     
  0.158317095220794     
 -0.458704347872101     
 -7.185151752864860E-002
 -0.292786913449220     
  9.892479118183575E-002
 -0.537449514101087     
  9.088563379581135E-002
  0.282498927018342     
  0.308085211198295     
  0.613315349102777     
  0.765461968724574     
  0.145922271619953     
 -0.213128298356562     
  0.111670619258963     
  0.731689230072420     
  0.995574339066179     
 -0.231447155328063     
  0.351316820354183     
  0.375562338531839     
 -0.208635224465862     
 -0.234280179498932     
  0.287643748471060     
 -8.361430196142337E-002
  8.331685997756386E-002
 -6.522659082076126E-003
  0.405194153596578     
  0.166396125442205     
 -0.133918901531944     
  0.380137645371268     
 -0.556146305638710     
 -0.133221101105221     
 -0.181269598959943     
 -0.365101196308535     
 -0.139399047171099     
  0.711672555000964     
  0.357715674013066     
 -1.945698372260592E-002
  0.131925874315215     
  6.765944916680889E-003
  4.722654986219844E-002
 -0.221176444881537     
  0.127319503620052     
 -0.361926436462598     
 -4.800713049313937E-002
 -0.157237318476858     
  0.206481222782489     
 -0.365045992851304     
 -0.196007365046480     
  0.172043464087343     
  4.656800453576835E-002
  0.254034896859880     
  0.743585295883106     
 -0.189069949488433     
  0.443741353897429     
 -0.213237546296562     
 -4.557630920084065E-002
  0.141607409640806     
  4.063390450879738E-002
 -0.102786174887946     
  0.254987567889165     
 -9.883571157576139E-002
 -0.131460279195028     
 -0.398210998650973     
 -0.482368104012319     
 -0.364208096576068     
  0.259245937124348     
  2.669308467862591E-003
 -7.849495087380223E-002
  0.169327929857888     
 -0.223157854714021     
 -5.055959290610128E-002
  0.193448376645008     
 -0.517705045004065     
 -5.295045704272109E-002
  0.154000096981240     
 -0.868881327819877     
 -0.309260441864496     
 -0.212780380599038     
  0.142869538572893     
 -0.575676481625066     
  0.108509668875379     
 -0.420227662843882     
  0.217815837984423     
  0.261383108445004     
  0.128435324408237     
 -0.272835284243100     
  0.480314255691319     
  0.535643490317470     
  0.128754518503801     
  0.414130090289364     
  0.258589293664300     
 -0.242886468650187     
 -0.226900801944254     
  0.254131919568104     
  0.299281199334900     
 -0.144480257350146     
  0.252898576383731     
 -9.118023245540213E-003
  0.314727739596411     
  0.227436175918615     
 -5.073799591511556E-002
  0.426517897331983     
  4.179874776193625E-002
  5.916842548257141E-003
 -0.123564913496591     
  0.232340177843113     
 -0.185096546204198     
  8.202201491477779E-002
 -0.106869402895934     
 -8.230041768669184E-002
 -0.223527918752457     
  8.410474215510602E-002
 -6.256049015916097E-002
 -0.253462170319414     
  3.404696464345022E-002
 
 -9.651039347145764E-002
  0.291881761686140     
  0.218481602814372     
  0.289947801933902     
  0.215123000627502     
  0.242492933151020     
 -0.136630627868927     
 -0.257595034891686     
  4.206442611933668E-002
 -4.736656738232934E-002
  0.141518090888868     
 -0.426374849585878     
 -8.442852752658724E-002
 -0.193457229571867     
  4.325381524372137E-003
  0.194225105226551     
  0.436053052858421     
 -0.290994711487301     
  0.829872816421296     
 -0.380689905267021     
 -0.181089337469337     
 -0.222793224304185     
 -1.634979034389714E-002
 -0.307812936217735     
 -4.606055976899435E-003
 -0.116283703807626     
 -1.191596019833092E-002
  0.413227012718003     
  0.309972281238043     
  0.169375543925885     
 
   1.50183080096244     
  -1.39496141336924     
  -1.71918256424941     
  0.618364456305099     
   1.03426596028869     
   1.23197131361292     
  0.532796270187813     
  -2.50328685412670     
 -0.828085464083207     
 -0.469475990040907     
  0.102924140503648     
 -0.361334726228991     
  0.748573955036868     
  0.418877373502124     
 -0.518013096817574     
  0.391248056636465     
 -0.402801075414037     
  0.517614090347162     
  -2.96538661925316     
 -0.753791620174239     
 -7.163835719403711E-002
  -1.16493015477671     
  0.108222739760113     
   1.42827140224338     
   1.08789820044116     
  0.298076017661141     
 -0.724786807385044     
 -0.718167862820527     
   1.58795507497596     
 -2.204475358715732E-002
 
 -3.536416285714286E-003
 
  tansig  tansig 
