     33 -    30 -    30 -     1 
rmse=   1.9935meV
  0.302250900008841     
 -0.130043829493952     
 -0.589596207353018     
  5.815581358818166E-002
 -0.249769981908803     
  0.679198170824018     
  0.505274515806235     
 -0.436751601059467     
  0.162443564402045     
 -0.255613456823409     
  0.224718664266900     
  0.224853801773678     
  0.510176487413723     
  2.844333176132814E-004
 -0.132593340145095     
  0.498913712963109     
 -2.846010716752385E-002
 -1.381874355278314E-002
 -0.268873047593346     
  0.253533590556080     
  2.490361504404308E-002
 -0.128280374607586     
  0.191940490091652     
 -0.286610111768350     
  0.121712736993951     
 -0.220964313067636     
  0.167610291612655     
 -0.158313121725744     
  0.128432797018843     
 -0.306664163707411     
  0.778136890184453     
 -0.487908823066781     
  0.130519588647793     
   1.03809991135039     
 -0.133499516897933     
 -0.237091541492204     
  0.222498609437089     
  1.926560334554708E-003
  3.965540080212991E-002
 -0.238908726376532     
  0.457164813856465     
  5.631950107026459E-002
  0.118779201451850     
  0.230268614794286     
 -0.261245196352551     
 -0.269084512537801     
  0.424138291344499     
 -0.312283707030566     
  5.844055347928521E-002
  0.104241021909066     
  0.166585831151736     
 -0.268840772747135     
  6.689333581370770E-002
  1.354908191888482E-002
 -0.164953421887331     
 -0.145820748348362     
 -0.146544438724308     
  2.928818061507975E-002
  0.190624854589795     
 -0.341266720180267     
  7.049489948591976E-002
 -0.106168446777996     
 -0.120216422444514     
 -0.163126668769465     
 -0.136783766929164     
 -0.162073973883204     
 -0.250457364460947     
  4.707067780505361E-002
 -0.531148721588406     
  9.355318336709117E-003
 -4.276657328483082E-002
 -0.112465071518072     
  7.857550250347800E-002
  6.785456255863838E-002
 -0.440134953159471     
  0.129579554479811     
  9.413550360750204E-002
  0.556918168796281     
 -0.355464807441592     
 -0.697283867771095     
  0.374487392762290     
  0.436940944633963     
 -0.224835479741313     
 -0.137576843443128     
 -0.169781943837548     
  0.113556877049214     
  1.522618564726837E-003
 -1.196168981780504E-002
 -0.242524013857440     
  8.849142211615892E-002
  0.204715988294528     
 -0.180252386861595     
  0.124538885255117     
 -8.858143012270535E-002
  0.323890046200905     
 -5.429894031567168E-004
  2.867547215851193E-002
 -8.071112809716877E-002
  5.476037551043206E-002
  1.655550280889717E-002
  0.399275433833710     
  0.345942517077060     
  0.103109135210867     
  0.151275582099104     
  0.131586925896213     
 -0.325053573262048     
 -0.517638417683700     
  0.197798783728414     
 -0.196508017812688     
 -0.350687038609837     
 -0.242134778301981     
 -0.272666766321853     
 -0.353998979790523     
 -0.246009948617576     
  0.191977310411915     
 -0.301235558412721     
  9.004803394560281E-003
  0.422867682581822     
 -0.398453313261039     
  0.145306815830588     
 -5.297879699033267E-002
 -0.246772868464889     
  0.151549668322401     
 -0.194471979126329     
 -5.635989131684799E-002
 -0.128708795809179     
  0.298460532361848     
  0.363491279116932     
 -0.149936309990739     
  8.483635316620393E-003
  0.303891728523998     
  0.102130325574071     
  0.353034959836218     
  0.254163093521159     
 -0.198206516827655     
  0.318871989335094     
 -2.758262407215772E-002
 -0.635339527166835     
 -3.565837066013588E-002
 -9.376158530555383E-002
  0.332795928223823     
  0.925604702212239     
 -0.256058442323535     
 -0.298064708641559     
 -0.651923668210838     
  0.688487541910879     
 -0.293189281482236     
 -0.380666445192449     
 -4.282030479668506E-002
  8.956022391466119E-002
  0.298273958511032     
 -0.181859299331985     
 -0.352481082746263     
  0.120819966215120     
  0.480626139958028     
 -0.525924378939078     
 -0.184882825429900     
 -0.252269643638071     
  0.343405373808583     
  0.373006325733039     
  -1.01683914551795     
 -0.103924463287854     
 -0.380203294313349     
 -7.269939788263763E-002
  0.211606170456603     
  0.413243308730388     
  4.751552621370359E-003
 -0.129650159141207     
 -4.954588538086664E-002
  1.491102930710929E-002
 -0.328591461214898     
  0.296942845855000     
  5.251990781088035E-002
  4.370921238264493E-002
  0.177705322806411     
 -0.376028237786662     
  0.372380333872408     
 -4.539592404411052E-002
  0.162446565233975     
 -0.537166573368322     
  0.305879824053715     
 -0.270709466559455     
  0.475667599349220     
 -0.204981720295123     
 -0.194129001820222     
  0.111036272862224     
 -6.797679202776843E-002
  0.208414992218196     
 -3.240331461367239E-002
  0.213625184784776     
  0.135726605730513     
 -0.718050877023694     
  0.404447910485155     
 -0.152376394793349     
 -0.164167626768748     
 -9.495211705657773E-002
  0.239851217822173     
  0.205024373174846     
  0.171251088485884     
  0.343984758666004     
  0.349390485216691     
 -0.790965964767720     
 -0.358392225723857     
 -0.247789481682681     
  0.119538485496908     
 -0.207228451366474     
 -0.231671986194090     
 -0.110261126357385     
 -0.100089638326321     
  0.151521091974126     
  0.603378605887309     
 -0.300434047003389     
  0.220842574255615     
  0.551130791570505     
  0.114011161057150     
  0.258373374678672     
 -1.972270776555687E-002
  0.152449387362794     
 -0.196845248271728     
  0.124447816716548     
 -0.288464090035323     
  0.274882138371992     
 -4.576133779681874E-002
  5.357124907167830E-002
  0.593708682939068     
 -0.318164205730848     
  0.430947093925197     
  0.192471966023271     
 -9.072708717357145E-002
  6.706835056558011E-002
  4.258288081949983E-002
 -0.731096137780601     
  0.225945011014346     
 -0.733763689911778     
  0.120846975183392     
  0.717675717496952     
 -6.140128287882250E-002
  9.558834774090236E-002
 -0.351081393987181     
 -0.133949170387369     
  5.803598087336668E-002
  0.168010442038252     
  0.720387446163120     
  0.346831954442456     
 -9.873371168201991E-002
 -6.217825076904708E-002
  0.933799133622962     
 -9.397913028617408E-003
 -0.228121887428252     
  5.811002596261666E-002
 -0.307487044914168     
  0.556507657374151     
 -0.348803673100449     
 -0.566189136562367     
  0.118681384413872     
 -0.206720410246339     
  0.157053054555269     
 -0.461266992636491     
  5.912015704583042E-002
 -0.136647048539668     
  0.622764309337172     
 -3.284137331555390E-002
 -0.491061158585516     
  0.150620136683794     
 -0.645237344177316     
 -0.102748280266737     
  0.970070954471988     
  0.472744099952588     
 -0.170338200831902     
 -0.695365432706909     
  0.683113987451159     
  0.126787712239849     
 -0.252617946566530     
 -0.281280964757200     
  8.622213828247473E-002
  0.678031487913556     
   1.39768343424872     
 -0.737771613488685     
 -0.160377161950513     
  0.143842470996063     
  0.112126442721563     
  0.181883104697963     
  6.488593579099489E-003
  3.509438290837198E-002
  3.880016427227027E-002
  1.904638164735981E-003
 -0.100356025542153     
 -0.393828935496422     
  8.257164005671204E-002
  2.348318683651581E-002
 -0.463681092110886     
  0.262258315458553     
  7.326681206966526E-002
 -0.166449847667514     
  0.157178746987356     
  0.116044603066179     
 -0.208743828402784     
 -0.396395747763317     
  0.643408780381519     
 -0.704371280370631     
  3.876325761961368E-002
 -0.994710382095327     
  -1.18982174362600     
 -0.521886496095564     
 -0.307491630847851     
  0.238291151492357     
  0.198996966087296     
  0.343896910390687     
  0.638536517994769     
 -0.648619716677073     
  0.491780817933363     
 -8.033130235023364E-002
  0.132943316740964     
  0.497845517907776     
  1.856865614808225E-002
  0.120334452720676     
  2.463965804229934E-002
 -0.319425494990214     
  0.121240830559036     
  -1.53119606860054     
   1.43573474645746     
  0.522704968046984     
 -0.953238194348461     
  0.717573517180874     
  0.466279463494337     
 -0.389825615212449     
 -1.497764949035539E-002
 -0.185071265163769     
 -0.245832277311854     
 -6.494142118607821E-002
  6.000956138009073E-002
  0.248373035581633     
  0.241290575536840     
  6.840877200226128E-002
  0.249820546839301     
  0.215502471193689     
 -2.571461063628750E-002
 -0.245155660025728     
  0.136202774303073     
  0.214675932278718     
 -0.163474623413450     
 -0.462239933692436     
  -1.09582836971341     
 -0.364206064657490     
  6.815267563563877E-002
  0.102401937175557     
  0.348696473267316     
 -0.172831674175147     
  0.208933181722328     
 -0.187035122072813     
 -6.053701616404536E-002
  0.123887068877605     
 -0.121284498156511     
  0.542953533434578     
  0.172212659256734     
  0.140069350596033     
  0.392805651850155     
  0.248787210992889     
 -0.118518249467911     
 -0.209618164708189     
  9.238917257414017E-002
 -0.103180723137045     
  6.944567744108868E-002
  0.520620338532121     
  3.810696534752003E-002
 -0.345075269927514     
 -5.253452685692597E-002
 -0.322057837484026     
 -1.025429014790455E-002
  0.103582237487328     
 -8.915099505641302E-002
 -0.172976244769303     
  0.673975311402308     
 -0.107826131332530     
 -0.440434137876272     
 -0.419260312754656     
  0.168322789530240     
  0.166717059074586     
 -0.558844946176784     
  0.204608176988405     
 -6.864862983505604E-002
  0.283414230589217     
 -3.937769219054413E-002
 -0.176637343484878     
  6.552285018113234E-002
  0.182540623859386     
  1.973486959120698E-002
 -9.645162879021089E-002
 -5.831894979433314E-002
  0.156072004826618     
  0.174475963619068     
 -0.485541008300101     
  0.182413072751224     
 -0.504679291838302     
  0.120092889956168     
  1.606321537983546E-002
  6.789149336721739E-002
  4.307355722078412E-003
  0.309816620852859     
 -0.254441689296827     
 -0.677724462650680     
  0.280449976855543     
 -0.421055411423716     
  0.168813053007694     
  2.203856687216791E-002
  0.317325595882137     
 -3.894495444317832E-002
 -0.143824259406590     
 -0.414419949173579     
   1.23120857818903     
 -0.256604203529306     
  6.535184931255515E-002
  0.273225302682221     
  0.250567095658797     
  0.149736908187365     
  9.819021391835641E-003
 -0.168137658423413     
  7.312047890436627E-002
  0.360511661243681     
  0.122834953428287     
 -0.151519200416495     
  0.358760442839719     
 -8.945418258434829E-003
 -6.593778986865168E-002
  0.274810177022597     
 -0.351185224891802     
  2.649965369231348E-004
 -4.881930796113139E-002
 -2.889954980638564E-002
 -0.141673005886022     
  0.466154405922948     
 -0.185113073197213     
  3.182167960251556E-002
  0.220941770482655     
  0.215036653432523     
 -0.233795309832767     
 -0.241424675848671     
  0.122228110407249     
 -0.334458555884677     
 -3.418298874353490E-002
 -7.481107353703184E-002
  0.341406646349596     
  7.115497589030195E-002
 -0.511698078637972     
  0.360419256458112     
 -0.206106246656625     
 -0.233706983461247     
 -0.199692198501128     
  0.252367431297029     
 -0.237126242617365     
 -1.131092207232980E-002
  0.248119141187794     
 -1.700229786210787E-002
 -0.108821031678837     
 -0.225683007741682     
  0.242811921542987     
  0.137235541276598     
 -0.304248125864537     
  5.502377743932062E-002
  0.404898391467580     
  0.112204689195762     
 -0.280685722218992     
  0.489641405840378     
 -0.161471855088679     
  9.610599921255288E-002
 -0.225409883171168     
 -0.658290672979201     
 -4.973080922833908E-002
  7.627655968682960E-002
 -0.102259010209224     
 -0.126696176139430     
  1.144485936173453E-002
  0.264168182744025     
  0.218247156117568     
  9.984684226939311E-002
  0.231166322351630     
  0.533424265385508     
  0.313318054895562     
  0.413545041524986     
  1.462182784325000E-002
  0.273205002253291     
  1.622994472845893E-002
 -1.080022727064099E-003
  1.345176901851843E-002
  0.449855333174613     
  0.396713058418846     
  3.180976556057358E-002
  0.302758367457491     
 -0.113477731016963     
 -9.874312010135669E-002
  0.415681660030289     
 -1.099021492065547E-002
 -0.172724925792008     
  4.573285354116772E-002
 -0.311739008132419     
 -0.582994786985233     
 -2.082363604648406E-002
  0.601546573842709     
  0.174897101780543     
  0.189230801446166     
 -0.252124934956633     
  0.363836121377085     
 -7.774736208977474E-002
  0.357799385089944     
 -0.392543615018457     
 -0.135631205127625     
  0.507974156529146     
 -0.964367956671725     
  0.196002484109990     
 -0.130279982198731     
 -0.257783395539613     
  0.289071245193264     
 -0.553548652878743     
  0.229314419804043     
 -4.035353332101776E-002
 -0.107491943328800     
  0.151498115840155     
 -0.106340982735615     
 -2.981902421517195E-003
 -7.940498910198855E-002
 -0.125757190549529     
  6.525098422017166E-002
 -7.056255207699924E-002
 -3.219326705409150E-002
  3.180736842266275E-002
  0.132742047994059     
  0.105800055465479     
 -5.256260554425893E-002
  0.218458378656897     
  8.546600968695013E-002
  0.146797313343026     
 -8.489676739581775E-002
 -0.182020711751203     
  5.939878450964511E-002
  0.476248369927036     
 -0.326946952373091     
  0.313924823229853     
 -0.975636175453026     
  0.183418101730632     
 -0.603071462166709     
 -0.523801328616952     
 -0.410543755234124     
  0.356062765009991     
 -0.388162727701060     
 -0.189777843448296     
  3.298470007492520E-002
  0.195270148231310     
 -2.745137162603143E-002
  0.220684541909338     
 -5.265639027938853E-002
  0.109659704145367     
 -0.361314578954968     
 -0.344878840917393     
  1.338661761761918E-002
  0.502624293414388     
 -6.784277458473499E-002
 -2.249870486820502E-002
 -0.494407373055383     
  0.845558008573753     
  1.086850646325581E-002
 -7.524655277071589E-002
  0.219274345231478     
  0.104769915959612     
  0.146068484977712     
 -0.699971611545868     
 -0.155704559273385     
  0.234832332795180     
 -0.335693380563484     
 -0.511922810784006     
  0.188054429818740     
  4.516246059185029E-002
 -0.368647265911954     
 -8.974985782128717E-004
 -0.150454527477785     
 -0.511511667078471     
  0.734565964316325     
 -0.597385291857411     
 -0.174310827285693     
 -0.307206529392054     
  0.149743891326792     
  4.335591981947836E-002
 -5.212861590712259E-002
  0.128377485241165     
  0.780894585898288     
 -0.507228109022137     
 -3.986301684353846E-003
  6.081333699448473E-002
  0.339937606399744     
 -3.394038728366644E-002
 -8.277828446082833E-002
  0.167319377023126     
 -7.542539364296146E-002
  0.228146467861218     
  0.223293018195769     
  0.172222842235337     
  0.158535980941589     
 -5.940812845658184E-002
 -0.272744653012703     
  0.163187635517764     
 -0.198004396451043     
 -0.316437534967404     
  0.162266979578362     
  6.564468664307738E-003
  0.133166813894474     
 -0.164353298815785     
 -0.208669235288797     
 -5.001062732854811E-004
 -4.357465397808499E-002
  0.127873241706512     
 -0.217422523540603     
  0.104302545551103     
  0.257537971739626     
  0.355741728647189     
 -2.020239394542048E-002
 -3.162614699548758E-002
 -3.175670753707819E-002
 -3.481092756085101E-003
 -0.244976568986152     
  3.700219992835248E-003
  0.107329606487534     
 -0.119336993643413     
 -0.263207001354188     
 -0.182618750933999     
  0.185482124891175     
 -7.977504959810364E-002
 -0.148364739073559     
  9.246383733091833E-002
  0.463112535495465     
 -0.161920807167077     
 -0.593765479085941     
  0.223008224663100     
  1.759945222966254E-002
 -0.435242323353451     
 -0.112217137107919     
 -0.442950428379932     
 -0.269462116695356     
  0.362006729125877     
 -8.641835689949771E-002
  9.927526133003375E-003
  0.295279481182846     
 -0.111062402227284     
  0.123238227739910     
  0.246079543430864     
  2.737252079919779E-002
 -1.538723995867946E-002
  0.259521347525415     
 -0.188945419420715     
 -0.155415826218696     
  0.135835342184557     
  0.237674859449095     
  6.318069430274824E-002
 -0.177185146689915     
  4.999918136512026E-002
  0.214868254663361     
 -4.567415248721056E-002
 -2.771754880691063E-002
  0.412900097035628     
 -0.483839319828780     
  0.224590385449422     
 -0.162721548056712     
  6.499268676293649E-002
  0.270006683108694     
 -0.127138701888502     
 -0.289810212558409     
  0.370870523214953     
  0.242274868477646     
  0.297753403199606     
 -0.504745917539079     
  9.859093775048179E-002
  0.291188928830035     
 -3.150609075284005E-002
 -3.832428976533435E-002
  0.244986436542955     
  0.445408262007325     
 -7.853315762604904E-003
  3.936294901974625E-002
 -0.119633069702901     
  9.095722702332454E-002
  0.106509648233952     
 -0.586757638089376     
 -4.456239628233977E-002
  0.451933679012452     
 -0.245368862341055     
  9.061241111137935E-002
 -0.328794035250367     
  0.246333836871948     
 -0.205183055645335     
  4.071709166848327E-002
  0.573475801086651     
 -0.747277449503535     
 -0.156493014764386     
  0.410375197962503     
 -0.646906702775035     
  0.283075611241187     
  0.150746334875354     
 -0.199250147789360     
 -0.142532151797841     
 -0.124981795543048     
  0.727050718420521     
  0.577517578169035     
 -0.300055903764028     
 -0.162434456175852     
  0.113333517628345     
 -0.662940978268783     
 -0.235859192621171     
 -1.172369809367397E-002
  0.463366000736825     
 -0.271439081830300     
  0.127008916923337     
 -0.943511857734710     
  0.284705023963258     
  0.124624300674980     
 -0.148095618596526     
 -0.199471509877172     
  0.324957843164526     
  0.220395323422564     
 -6.949851320530873E-002
 -0.225035193133110     
  6.200402881595648E-002
  0.108409490739886     
 -0.129793097648068     
  0.308681828382173     
 -0.236498090299217     
  0.109027103452995     
  0.186918749735388     
  0.429984994698136     
 -0.464352977464616     
  0.172427848485186     
  0.385656045839878     
 -0.380581364290251     
  0.108930473096271     
  0.327040769545334     
 -7.108459110624371E-002
  0.198596414321048     
 -0.156756922720438     
  0.193725286516876     
  0.263444639152353     
 -4.703941655616243E-002
 -0.674199844742097     
 -0.283622095993986     
  0.298933490367919     
  0.104383473017152     
 -0.346301294952994     
 -4.572974684988533E-002
 -0.116086168130907     
 -0.135974721466493     
  1.765213223349043E-003
 -0.108935617382703     
 -0.281316622632589     
  6.955491588577903E-002
 -0.165209936466847     
  0.274313648045418     
  0.124252548824110     
 -0.152726745483532     
  1.803761399150531E-002
 -5.242316895650572E-002
 -0.244586767214485     
 -8.643915989681004E-002
 -0.128226697084418     
  0.791348149143790     
 -9.150138784866134E-002
  0.512374332672903     
  0.119028080771641     
 -0.171330361213725     
  0.123786657488445     
  0.160781586951924     
 -0.313298636108959     
  0.743022750497606     
 -0.290858303701791     
 -0.181784205769323     
 -0.100663004765732     
  0.471653407401500     
  0.318849008275371     
 -0.381228356105670     
  5.416162312707553E-002
  0.384103747272385     
 -0.123622459891310     
  0.189734592707141     
 -9.815998576772446E-002
 -7.273497359353824E-002
  9.996575595050847E-002
 -0.335592248018342     
  0.595240009241198     
  4.450361873167283E-002
 -0.485516931155018     
  0.343844967361394     
 -6.351259644051445E-002
 -0.186716555929506     
  0.119095396018995     
  0.162556119944745     
 -5.979602371644309E-002
  0.152584048830477     
 -0.337214793404024     
  6.127817639908640E-002
  0.356635450694519     
 -0.485422155183374     
  0.703447920227219     
 -0.472835785349062     
 -0.594961841502029     
 -0.105148611754295     
  0.219022718048054     
  0.525969111633201     
 -0.336133064833257     
  3.152866614823191E-002
  0.397664763840701     
 -0.723592807538623     
  0.528465055998927     
 -0.222880247314275     
  1.962741704923128E-002
  0.190729559831187     
 -0.259015306711518     
  0.115738680658305     
  2.042601056021163E-002
 -3.325566615996587E-002
 -0.139214920937484     
 -0.215530760457566     
  0.226381697654276     
 -0.108043802181311     
  0.278578923810775     
 -1.769313830514772E-002
 -9.007838212288279E-002
  0.310484712510225     
 -0.380881810797712     
 -2.446947617617880E-002
  0.271302165620052     
 -0.200820063037665     
  6.731100733978528E-002
 -0.196242701268022     
 -0.284860599260310     
  0.373138197787053     
  0.108053952207398     
  0.209723379115647     
 -0.153237906653133     
 -0.183106713434808     
 -9.349060206906412E-002
  5.666151434817011E-002
 -0.236951332603705     
 -0.150055808430094     
 -0.114823774826800     
  0.205347391363525     
 -1.618442624790178E-002
 -0.204737436282880     
  0.111002465119586     
  3.856471029686172E-004
 -8.560307107760119E-004
  0.113184548155948     
 -3.066538845848394E-002
  0.202001942515457     
  6.537025364794476E-002
 -9.978264267649155E-002
  0.154005232859807     
 -8.332284405632360E-003
 -5.504768358866273E-002
  3.294480261090107E-002
  3.207555281761984E-002
  0.115524271972425     
 -1.066160980625533E-002
  5.253471625878694E-002
 -0.287951893981444     
  0.324879888239055     
 -0.194219021135283     
 -0.535577760683969     
 -0.438277207491890     
 -2.075523262328829E-002
 -0.168868408407475     
  5.978693856536605E-002
  0.286143366145352     
 -0.178960659214713     
 -8.692401274513584E-002
 -0.499417877686139     
  9.077510950978536E-002
 -0.403006495158805     
  0.339541795582482     
  0.215207656642068     
 -0.215141763070803     
 -3.713356678745225E-002
  5.016490335844313E-002
 -0.157339018438628     
 -7.114824470283244E-002
  4.800303936980127E-002
  0.204502693610649     
  0.195719797235152     
 -0.462462073078478     
  0.661726332668830     
 -4.088928347948280E-002
 -4.921802134202448E-003
  0.181426291717217     
 -0.400578123713908     
 -6.373114554726986E-002
  0.227669666624436     
 -9.240515131358235E-002
 -0.781024573118415     
  0.868578059942397     
  -1.20509896320242     
 -0.261871169004652     
 -0.213874292522499     
 -0.203404999486474     
 -0.717168211361027     
  0.648643728595873     
 -0.190248610802472     
  0.275121643344510     
  0.289252234414586     
  0.568401092625037     
  8.095584986639442E-002
  0.360927459896379     
 -0.478399940364931     
  0.582349087023342     
 -0.289917638907091     
  0.518259216323508     
  5.219867587037321E-002
 -0.143470300081414     
 -0.228439507314655     
 -3.470283670919412E-002
  1.459477415014902E-003
 -0.150561958300951     
 -0.234073145881071     
  0.485627151384077     
 -0.438105098816006     
  0.472077160865142     
 -0.225130418959745     
 -0.763770668664798     
  3.396452888552651E-002
 -7.417091479956868E-002
 -0.236348767402718     
 -0.328700370898521     
 -0.166239613001744     
  9.928545232450213E-002
  0.247238651819469     
  0.174712816845319     
 -0.344217353856439     
  0.753640031365617     
 -0.264258475797421     
  1.393528805249927E-002
 -3.032828450727025E-002
  -1.46193677868329     
 -0.241999718485736     
  0.368555494714433     
 -0.189133396209709     
  0.405142416470354     
  0.127538182108688     
 -0.224576996583369     
 -0.385012995133258     
 -0.368384661972344     
  0.126217856053941     
  0.500479247523386     
  0.146855671237062     
  0.750653089397804     
 -0.773799571827405     
 -0.428934407639529     
  0.362889473771702     
  0.534639973225233     
 -0.688694435047376     
  0.101233278945739     
  0.640338910875306     
 -5.440835647535273E-002
  0.447811673850714     
   1.06148516974075     
 -0.256181325111795     
 -0.226776884415735     
 -0.798317350423672     
  0.385999488455685     
  0.273075524101165     
 -7.614668074231444E-002
  7.649832597480027E-002
 -0.291942039286556     
 -0.716378058576777     
  0.503610281125744     
  2.647864238244940E-002
  0.404571341882237     
  0.198998786365845     
 -0.305233936711108     
  0.180434175166806     
 -0.419062122660244     
 -5.712422184272896E-002
  0.365421555898472     
 -0.343512393921925     
  0.301010885556125     
  8.071341562443023E-002
 -7.863939173930097E-002
 -0.129531461642749     
 -0.150273332737424     
  0.102399778498114     
  3.642745183483546E-002
 -0.146451938948025     
  1.083109842893167E-002
  6.089722178678473E-003
  0.386649000959494     
 -5.116798634339240E-002
 -0.137950491168938     
  2.977783863794908E-002
 
 -0.740795445337355     
  0.503642818500152     
 -0.570070863875201     
  0.287309613170070     
  0.281843976980804     
  0.727330764074711     
 -0.677904164809535     
  0.191681348954341     
  0.853964017641369     
  0.889658997419266     
  0.146268189766792     
  0.109978542857756     
 -0.392374847965799     
  0.345855048883695     
 -0.233990521986242     
  0.608258179240519     
  3.882260368259775E-002
 -0.340320830223332     
  0.138075039703778     
 -0.644479014543299     
 -0.501080361612426     
 -9.990389387054724E-002
 -0.354422839837114     
  0.669430099591227     
   1.09390154332241     
  0.859479707644985     
  3.079933311600509E-002
  0.794454788336367     
 -1.407727610417401E-002
  0.155516728121791     
 
 -0.203833386916390     
  0.137332718768898     
 -0.169439183250285     
 -1.349737500294675E-002
  2.484132954824883E-002
 -0.230680847334110     
  0.206701329347335     
 -0.424425538159606     
  0.249443285093580     
  0.282812549007036     
 -0.280521074567986     
 -6.493795577607130E-002
 -4.619570524968471E-002
  0.266283225524210     
  0.111488401904756     
 -0.423104558655909     
 -0.185121299929469     
  0.153859785484802     
 -2.904907154743088E-002
  0.461953866798061     
 -0.403830114915293     
  0.243253077664555     
 -4.512394602124874E-002
  0.134663794833355     
 -7.908434079579252E-003
 -0.875334843165883     
  0.491515256346685     
  0.363451575530767     
 -0.156999938098186     
 -1.554263691221129E-002
 -0.607555772263309     
  0.616284420384864     
  0.519212665080504     
 -0.464091583581967     
 -0.285420898038987     
  0.300817223814839     
 -7.274233304243938E-002
 -0.421745553099046     
  0.370140910448314     
  0.611880864510577     
  1.586863782932795E-002
 -0.180214502049615     
  0.139527517062931     
 -0.280437436790977     
 -0.277938395524282     
  0.269824926311178     
 -0.229319563282909     
  0.166586373330408     
  0.249287279737729     
  0.354313429332266     
 -0.216398681862652     
 -9.510086030358750E-002
  0.118037771545034     
  0.107607258920382     
  0.330862722235358     
 -2.335770564456170E-002
 -0.235045369643516     
 -0.118231989584957     
  0.564464095923136     
  8.245176219662520E-002
  0.694493210337340     
 -0.161654905629394     
 -0.353392708427854     
  0.417504877110755     
 -0.164811228547467     
  4.659636397372484E-002
 -0.113138600091005     
 -1.107768072875934E-002
 -0.525764433422143     
 -0.160864406469725     
 -0.136542152585589     
  0.185969913694452     
 -2.591695248739967E-002
 -5.456877922808909E-002
  0.121440037557225     
  0.198855155382696     
  0.269813237517383     
  3.926717545586708E-002
  0.217620035322540     
 -0.552714054495296     
  0.237892141892783     
  0.250205845286115     
  3.325191806830047E-002
 -9.765648556854922E-003
 -0.482855211219191     
  0.202544735396651     
  0.155817627710218     
  0.532306949099096     
 -0.718433038995472     
  0.317031755388322     
  0.180287091302650     
 -0.492330967736908     
  -1.24744982239940     
  0.106043604111794     
 -0.136877894124373     
  0.355188877898419     
 -0.472977736595594     
 -0.613210862985488     
  0.364582711393207     
  0.508695254635413     
 -0.211331739288633     
  0.135127915691147     
  0.384861866277257     
 -0.229012845521109     
 -0.219735515356706     
 -0.931890882574024     
  0.324876249175980     
  0.369046435579067     
 -0.225278205515032     
  0.209514361068401     
  0.297646346646093     
  0.135842345760159     
  0.297987485612864     
  0.363796979174834     
  0.368595608645160     
  0.421241216096738     
 -0.689690017300346     
 -0.114842113063908     
  0.728174032720857     
  0.157631236038128     
  0.122360566035328     
 -0.456363991284665     
 -0.718841058937823     
  0.178054464016641     
  0.600425012943854     
 -0.390172453802504     
  0.813091697195652     
 -0.142533170477829     
 -0.516087289693529     
  0.348426310886159     
  0.287129595733143     
  0.321397899370178     
  0.265933386485250     
  0.113834251988395     
 -6.322380876157434E-003
 -0.343741011046145     
 -5.858101516541645E-002
  0.199989978639698     
 -0.155018424779185     
  5.178926926518337E-002
  0.437306026309758     
 -0.195386366069162     
 -9.441682904582631E-002
  0.256895910332896     
 -1.592155603855662E-002
  0.567117562945175     
 -0.328697937388642     
 -7.877043123208936E-002
  0.282123654084357     
 -0.291411820825705     
 -0.230002686494299     
  0.532797858197956     
  8.501722311840442E-003
  0.120013819664388     
  7.535305318125143E-002
 -0.213454290313797     
 -0.248032250553174     
  0.139481532447656     
 -0.261158645211447     
  0.402172310210251     
  0.126621388945633     
 -0.754322629986673     
  0.156884170709694     
  0.261549346787770     
  0.187785916330879     
  0.272423298583725     
  0.178091858096126     
  0.432265440031168     
 -1.142649875288685E-002
  8.864146507173913E-002
  0.301344983142260     
  0.402582019896960     
  0.206587876319723     
 -0.698864971154850     
 -0.325120722837850     
  0.117680550580186     
 -2.899960131164636E-003
 -0.304398918679470     
 -0.486309695227213     
  0.224787239641677     
  0.232908441372088     
  0.699859444637148     
  0.228080559747735     
  0.405697590600051     
 -0.556745984778364     
  0.102000465535695     
 -0.146154349456197     
  -1.16656864537139     
 -0.372074933583413     
  0.773817339045976     
 -0.146538010224551     
  3.028937370350000E-002
  0.433547643289908     
  0.131066084511951     
 -0.243804510498519     
 -0.167824287619400     
  0.439224798642754     
 -0.334296192454859     
 -5.479664722662636E-002
 -0.451460253990569     
  0.151893184976871     
  0.305469303754153     
  0.134330141941228     
  0.181099251513561     
 -0.814216074656004     
 -0.583660598722853     
 -0.100700964662296     
  0.366861433598830     
 -0.486135495348466     
  0.204748047467734     
  0.100717116698443     
 -2.536468695770131E-002
  0.264790446311519     
 -0.503555643526316     
 -0.241365643582049     
 -2.925568617966366E-002
  0.387401281481640     
  0.376545793912239     
 -0.144358544032719     
  0.240329439789533     
 -4.334430658115829E-002
 -0.157380571146137     
  0.327681523490082     
  8.435111750771089E-002
 -0.224641293651943     
  0.411343129938818     
  1.450492221583245E-002
 -0.313571033036895     
 -0.340089230878783     
 -8.329738392342732E-002
  0.375165391894075     
 -0.104455038529064     
 -0.402489922586469     
 -8.494324512573696E-002
 -6.847316324345278E-002
  0.348147779011097     
  8.368670722805255E-002
  4.857408576478044E-002
 -0.690940407782617     
 -0.480850797563817     
 -8.871654801855015E-002
  0.446788985630534     
  0.119016351523045     
  3.994444225896736E-002
 -3.180442019477873E-002
  0.122519159272043     
  8.029433331189997E-002
  2.856025835787257E-003
 -8.161844605708458E-002
  2.196275658226090E-002
 -1.189705566596709E-002
  0.413330652600404     
 -0.193422485860691     
  0.103879397378114     
  8.063018319319133E-002
 -7.296888929675184E-002
  0.165668120818165     
  0.726599426963577     
 -0.124873992560656     
 -0.413060504893545     
  0.213127332302556     
 -0.600058942720478     
 -0.395162202727829     
 -0.309711389904841     
  0.348492426236052     
 -9.087385513372805E-002
  2.904561030224944E-002
  0.747628001356771     
 -7.169522623452659E-002
 -0.435937938741219     
 -0.249560452283369     
  0.308324690050072     
 -8.376106853936495E-002
  6.918983383251746E-002
 -0.485667769119522     
 -0.245650600167766     
 -0.259925109612066     
  0.196475512159530     
  0.677481988500945     
  0.372543729186579     
 -0.143831798772385     
  0.365045852643496     
  3.608318675119428E-002
 -0.137072577314747     
 -0.146599701924941     
 -0.644195521697473     
  0.229689006465766     
 -0.137992863735195     
  5.381288125207696E-002
  0.425586402522898     
  3.440360170780141E-002
 -0.543454956017006     
 -0.106332885203658     
 -4.694172301264821E-002
  0.213433048519365     
 -0.603019761705262     
 -0.102128389607122     
 -0.383961067870914     
 -0.267079649586415     
 -0.751236434900624     
 -0.654785397944427     
 -0.121616256356203     
  0.455468729558366     
 -0.389096214334961     
  0.487222397393685     
 -0.168082533344331     
  0.426337747945055     
  0.109561843931210     
 -0.358706172391021     
 -0.134175790760501     
 -4.550266469775545E-002
 -0.408629176731697     
 -7.234043292637653E-002
  0.323394541974650     
 -0.121151164848979     
  0.442244742082064     
 -0.345280353490567     
 -0.567049356868113     
 -0.730420599533002     
 -0.107853726647362     
 -0.424205900206311     
  0.145634189701185     
 -0.373271393738470     
 -0.281574742632481     
 -0.233482977817323     
  0.266080185944361     
  0.515759206151949     
  4.107745425792030E-002
  0.156806066377867     
  0.304675654921125     
  0.318066879265618     
  9.208876129472976E-002
  8.833480609500959E-002
 -2.960222707088293E-002
  1.307595089345157E-002
  0.475811816618498     
  0.103695539342690     
 -5.313846481846403E-002
  0.410262538386919     
  0.332067789233046     
 -0.269081894697249     
  0.619092501767411     
  2.694913727542639E-002
 -0.512156570458639     
 -0.312372545526266     
 -4.281619163874009E-002
 -0.395117786579430     
 -2.742401304876441E-002
  2.476704316639387E-002
  0.115273714468599     
  0.289544736584169     
  0.753782810552302     
 -0.149179003322579     
  0.175355558784029     
   1.05632274515505     
 -0.190828069211521     
  0.132623599657390     
  0.823737792617890     
  0.502672312658688     
 -0.464007087985137     
  5.067298182466071E-002
  9.468324798144809E-003
  6.624804401945113E-002
  0.340877593455550     
 -0.254204523125034     
 -0.249946310805062     
  0.388534732947965     
  0.164537128236073     
  0.659723363520110     
  0.149922248536427     
 -0.219694117874364     
 -0.470612997358107     
 -0.692750722134224     
  3.625466650249703E-002
  0.301363865355332     
 -0.161150843998688     
  0.200232800538175     
 -0.289774385360427     
 -2.265053781899959E-002
  0.719149875298350     
 -0.145498163923721     
 -0.431315660177036     
  0.216791143234124     
 -0.243012382212234     
  0.133624370634961     
 -0.285143022898841     
  0.154004126431577     
  1.507420599085527E-003
  0.128614578184562     
 -0.542120070420118     
 -0.370933798026373     
 -0.487791728689096     
 -0.153922715464585     
  0.336033542844235     
  0.137161076316982     
  0.117381727999347     
 -8.062688178927611E-002
  0.552719565886651     
 -0.355258895706735     
  0.150466698092769     
 -5.586823192709397E-002
 -0.753340648713920     
  0.109140482986231     
 -0.112528305261050     
  0.166266534763066     
 -0.631163387201625     
  3.828902013236486E-003
 -0.309158628795864     
 -0.203979077900268     
 -3.230085345032149E-002
  0.349575050014809     
 -0.454294650886122     
 -0.679095910781661     
  0.942696245518203     
  0.364708203886088     
  0.496922310333361     
  0.331682140008851     
 -0.551197217080846     
  0.454846860711401     
  0.516480270839229     
  0.430189433030208     
 -0.185721621920809     
  5.074579810222642E-002
  0.157958514579387     
  0.803397979110176     
  8.772377375985431E-002
  0.176229875706395     
  0.409860875859550     
 -0.214048796423131     
 -0.111318071026499     
  9.298668295089883E-002
 -5.594956099731447E-002
  0.175109914227552     
  6.174401593966033E-002
  0.224816479852275     
  4.612320505672753E-002
  0.241322017756034     
 -0.111232069829862     
 -0.409963387446615     
  0.864998010769068     
 -3.152852558042321E-002
  0.110750010034733     
  0.182336642592752     
  0.815463695016313     
  0.760533578866106     
 -0.107394815553935     
 -0.155693562040961     
  2.974719978532106E-002
 -6.893746495455504E-002
  0.213873065079499     
 -0.459063193899702     
 -0.528367514091143     
  4.664298176092700E-002
  0.231338080179940     
 -0.444523525754698     
 -4.144887178690715E-002
 -0.765717885969373     
   1.21672136311534     
  0.489514329841505     
 -0.339754286365294     
 -0.328912426395028     
  0.194255253023220     
 -0.129647256022698     
 -0.328491783213219     
  0.555809069721507     
 -0.869093151285660     
  0.199391826690179     
  0.670578855104207     
  0.264132294308740     
  0.381661436977377     
 -0.393676529899614     
 -0.479389879814001     
  0.294159913850794     
  0.850853459428932     
 -0.270283720533786     
 -0.381730472313725     
  0.430451623881813     
  0.738576194636677     
  0.486507318407336     
  7.462531261579411E-003
 -0.193246176270135     
 -0.583581589334250     
  0.495566984690491     
 -0.170892410132111     
   1.11592347476167     
  0.232350522264640     
  0.260208861368373     
 -3.226635397413203E-002
  3.744096131056281E-003
  0.312901985369162     
 -4.057461100910091E-002
 -0.946642348431571     
  0.477005972006769     
  3.948622375252100E-002
  0.340297509905462     
  0.278572027634194     
  6.894447182302395E-002
 -0.474374595475859     
  0.468415065486588     
  6.338677002356034E-002
  0.248696079223832     
 -9.150078798777785E-002
  0.151512424708551     
  0.800214999003724     
  0.557266783287673     
 -1.059510784065506E-002
  0.596004612650299     
 -0.739496154749992     
 -0.964298284669998     
  0.790181776439959     
  0.300268111539966     
 -0.315842365957675     
  0.363043996912424     
 -0.648375381482848     
 -0.239340598375102     
 -0.215324951215694     
 -9.513775313217006E-002
  0.190134476583378     
  0.948324770150805     
  -1.00551592091680     
 -0.222975034062260     
 -0.176381076171316     
 -0.126793114055508     
 -6.199965844442167E-002
 -5.572863138591952E-002
  0.463610304485997     
 -0.549134718717791     
 -0.454898957013587     
 -9.135871953803520E-002
 -0.574236254556852     
  7.513578255946779E-002
 -0.351067453286222     
 -6.882550520946445E-003
 -7.753917162167830E-002
  0.828929159289615     
 -0.142609461651723     
  0.303367720749652     
 -0.205487681473541     
 -0.325964556954722     
 -0.769421593321077     
  0.452905366440470     
 -0.410622741179842     
 -0.234379113290886     
  0.182875062377069     
  0.454848680474656     
 -2.773122328218230E-002
  0.315448437065713     
 -0.969388101708406     
  0.188188775788626     
 -0.596532774140163     
  7.677201980026455E-002
 -0.515144396935429     
  0.324673955913507     
  0.212330609876171     
  0.204266759882264     
 -0.164659147194232     
 -0.179834423664485     
  0.410814958705363     
  5.515469074376384E-003
  0.469290671880552     
  0.190429339050296     
 -0.199102952674626     
 -0.103801582928777     
 -7.077762487151705E-002
  0.715285754342398     
  0.550417635906802     
  0.241575817299905     
 -0.584019603494773     
 -4.833207397111841E-002
 -0.348215863224223     
  5.719156262349148E-002
  0.144944592251710     
  0.114680061112460     
 -0.855086738766882     
 -0.512462920900712     
  0.641640014261106     
  3.942486563158798E-002
 -0.574779755048161     
  0.168452681712164     
  0.437005178036646     
  2.230263682227549E-003
  8.561788772281378E-002
  0.283043766226516     
  2.800599744671098E-002
 -0.399120802379470     
  7.091302688824259E-002
  0.165227938901549     
 -0.203824844281217     
 -0.149718694062468     
  6.827637083741024E-002
  0.292873812987061     
  0.222064898014121     
  6.639567051712759E-002
  0.424593473040527     
  0.352461629068509     
 -6.165565274497652E-004
 -0.284171987482535     
 -0.727915867054456     
  0.204095597455063     
 -0.395662546841321     
  0.328729498643997     
  0.761826229179202     
 -4.242575806565413E-002
  2.323641434687970E-002
  0.195882752796781     
 -0.195060471184335     
 -0.152783299961275     
 -0.130138691467549     
 -0.233720056203267     
  0.348599032409795     
  0.194143362060322     
 -5.627647558379244E-002
 -0.248166999331321     
 -0.318978651887577     
  3.214978322171155E-002
 -0.449517970393624     
  4.267436207815168E-002
  4.557588105440829E-002
  2.513545476627852E-002
 -0.260253585675540     
 -0.515941307949984     
 -0.190925560636514     
  0.214694817710326     
 -0.440677314495386     
 -0.996739595763842     
 -2.163975546421573E-002
 -0.151129490066021     
 -0.343339089827375     
 -0.358609018566146     
  6.171298153355340E-002
 -0.108904854975661     
 -0.372915617895534     
  5.854496710382823E-002
 -7.953317464833791E-002
 -1.078125236945171E-002
 -0.588499612841610     
  0.120941064389059     
  0.389975056600600     
  0.550232510466234     
 -0.541497175962476     
  4.086192221117381E-003
  0.369228471068560     
  0.100644957893206     
  0.340070240771848     
 -0.158356042197438     
  0.358352729052497     
 -0.317515056680351     
  0.294443149857028     
  0.220351331853889     
  0.109361223175283     
 -0.146244735867889     
  0.557241037099131     
  0.251073860670819     
 -6.063601906456239E-002
 -0.154488400958557     
 -0.166916161640987     
 -0.156493894047128     
 -0.478876520491997     
 -0.280026596459907     
  0.179473526589804     
  0.353195567665730     
  0.127418174042685     
  5.550187656074135E-002
  0.108832283919323     
  0.308093994175231     
  0.167397418076765     
  4.847337055471650E-002
  3.217278814189786E-002
 -0.147537761996509     
 -8.844858105009615E-002
  0.156959288315812     
  0.143035629239155     
  0.200370359200389     
  0.150522493376877     
 -0.116466577871846     
 -0.350011077188272     
 -9.253578826964022E-002
  0.297788853711030     
 -0.108639195640381     
  0.143631776814626     
 -0.394691747398450     
 -4.142354082664781E-002
 -0.112868196473863     
  6.649515657387069E-002
  0.164265501965989     
 -0.249646888436326     
 -1.179820721037463E-002
 -0.171486904083487     
  5.514841655692626E-002
 -7.683492418697604E-002
 -0.983780355231892     
 -7.815002990989374E-002
 -0.227251066114789     
 -0.589026084319082     
  0.367607783326357     
 -0.313787357811189     
 -8.629624237141547E-003
  1.744675525561325E-002
  0.226410092901474     
  2.590655573925804E-002
 -0.448948923783201     
 -0.106783280899228     
 -0.308740754848551     
  0.195833087553048     
  8.230944339282151E-003
  0.125365801299116     
 -0.607681812429945     
  0.443014354936856     
  0.351307114609163     
 -0.255776319730986     
 -0.104273739795385     
  0.338862484890623     
  0.297954287932790     
 -9.109773984981687E-002
 -0.497855680617291     
 -0.369346671038864     
  0.141709272136666     
 -0.466496728524552     
 -0.638976298754380     
  0.375835717610589     
  0.235844754957933     
 -5.726908838965541E-002
  0.145745837433005     
  0.296914486731930     
  0.707346538492275     
 -0.134086532222336     
  0.907687175401794     
 -0.254985175502681     
 -5.995688853190052E-002
   1.25192225220777     
 -5.105772451540665E-002
  0.900727958469714     
  0.384704600536062     
 -0.488354264533504     
  0.394220000114063     
 -0.423675190427391     
 -0.156420458583433     
 -0.126086180232049     
 -0.192620228906034     
  0.811431500914466     
 -0.352042939807977     
 -0.425475565332899     
 -0.260099456982531     
  0.161629098313028     
 -0.634284909541085     
  0.385987505737591     
 -2.692383951725088E-002
 -8.719688643656164E-002
  0.461584651921818     
  0.148086805362486     
 -0.126104843548909     
 -0.432498086874930     
 -0.180708074990535     
 -2.301739255119791E-003
  0.452639351603832     
 -0.290196907297910     
  0.788442647571158     
  0.238007852473762     
  0.633705877046861     
  0.337924251402688     
 -0.113082698026614     
 -3.894092840233918E-002
  0.253993430717050     
  0.319457628613588     
  8.313912267995389E-002
 -0.237743900579662     
  3.532610150138429E-002
 -8.752026406307035E-002
  2.710434629114385E-002
 -0.490015431273622     
  2.994879637817376E-002
 -0.427284121803198     
  0.305553306073736     
 -0.290347918734349     
 -0.468117200089889     
  0.687542381045536     
 -0.416882034983978     
 -0.128913822228656     
  0.894280698746884     
 -0.467356731777624     
 -0.211371230930619     
  0.414740867343163     
  4.061796277967986E-002
 -5.804714300523046E-002
  0.265372239740306     
 -0.527886780038229     
 -0.360633755366614     
  0.129061454978227     
  0.638221111116986     
 -6.190540430956319E-002
 -0.542981867406829     
 -0.132549970724063     
 -0.285213578177258     
 -0.120758748873723     
  8.165131785227668E-002
 -0.349076671344259     
 -0.312056182878318     
  0.186713683822186     
  3.132665007678732E-002
  0.339428953372888     
 -0.383157618373822     
 -0.291833618271546     
  0.224472800211684     
 -0.280960456589316     
 -8.628524294240025E-002
 -9.055927641597387E-002
  0.128170397172012     
  0.184333945560347     
 -0.788245560893704     
 -9.778538903643490E-002
  0.110678304840736     
 -0.618872255874427     
 -0.199689376892264     
  1.195712492391359E-002
 -0.384803760787485     
 -0.325065208278509     
  3.742183783538258E-002
  0.253634692295885     
 -0.153225033011808     
 -0.759704699506141     
  1.404960551187870E-002
  0.174030308640635     
  7.152515711119474E-002
 -2.411080976867392E-002
 -0.262000459020124     
  0.221251437124374     
 -0.247764489486935     
  0.117260093044759     
 -0.146112803513450     
  0.469703114682724     
 -0.103486484631915     
  0.303591554246732     
  0.450624246591824     
  0.111344953793823     
 -0.603101908053825     
 -0.244440124035715     
 -0.109180791973956     
 -0.249473906259044     
 -0.293424569677114     
  3.870282461757124E-002
  9.210152406214242E-003
 -0.245264450857967     
 -0.150698556201021     
 -3.512631456568591E-002
  0.341655068270330     
 -5.176264911056840E-002
 -0.136757120479196     
 -0.442096549717639     
  0.307861801987040     
 -7.379472808105832E-002
  0.235966220611691     
 -0.319802059880607     
 -5.777444377505606E-002
 -3.695306624287137E-002
  2.014092781396385E-002
  0.116935555289364     
 -0.114780620382296     
 -0.176072693985094     
 -0.167047538918847     
 -0.179665190279901     
 -0.218204260345678     
 -0.463338442137021     
 -6.165180925231976E-002
 -0.410778901508433     
 -0.661850929356159     
 -0.219185193985106     
  8.362798739279578E-002
  1.077015467879443E-002
  0.235066737745065     
  2.336906113386115E-003
 -0.299000058680510     
 -0.144307512420476     
 -0.160683568860191     
  0.449777792822610     
 -0.423347145946485     
  0.331942665708726     
 -0.270926419675956     
 -0.285644832332470     
 -7.455708317567566E-002
  0.113319332431159     
  0.118847519896813     
 -0.400322755184105     
 -0.176960440508903     
  0.123369606376330     
 -8.946357494923637E-002
  0.200309692767253     
 -0.108891814987633     
 -0.117409775210946     
 -0.180932943396695     
 -0.350945748673213     
 -0.330895358372453     
 -0.502551493680853     
  9.550881432166841E-002
 -0.114867805162975     
  0.364019831720064     
  0.368604299316071     
 -1.207585281465190E-002
 -0.133794715325150     
  7.183133925741415E-002
 -1.998723475973361E-002
 
  8.277576650525510E-003
 -0.434560677056993     
 -8.307617548795815E-002
  5.104715582528120E-002
  0.206573642317409     
  0.308596578550673     
 -1.238149756354398E-002
  0.102944216651277     
  4.177995240572831E-002
 -0.434861947303422     
  0.426780713973753     
 -0.187536377148859     
 -0.370820733432447     
  0.207722166904362     
  0.180216991046565     
 -0.399511649513363     
 -0.242092839588325     
 -2.958112597042057E-002
  0.247123487037068     
 -5.136182590571518E-002
  0.244237399444330     
 -0.125194312017604     
 -0.100323792921682     
 -0.344850021394233     
  0.206780730999298     
  0.205459051898060     
 -0.431701678644783     
  2.419168579739727E-002
  0.367971044755511     
  0.147869963008523     
 
   1.40603792992846     
  -1.60693020450953     
  -3.09745329754522     
   1.13191662690818     
  0.809721829149902     
 -0.341702908468141     
  -1.08859510970310     
  0.565099786286942     
  0.207074096049665     
  -1.48771650511106     
  -4.45545980437290     
 -0.266820608810061     
   1.28925085522069     
 -0.639972817414632     
  -1.44237650162186     
  -1.66739912668603     
  0.900447647670734     
  0.437475089377141     
  -1.19498121799027     
 -0.914629702371197     
  0.675090451471872     
 -0.431429128434494     
 -3.939639895122191E-002
  -1.26980963092648     
 -0.239346613047186     
  -1.26695279806551     
  -1.17229617307403     
 -0.281378490638658     
  0.864848937368838     
  0.273597372234137     
 
 -3.536416285714286E-003
 
  tansig  tansig 
