     33 -    30 -    30 -     1 
rmse=   7.9618meV
 -0.265112169442295     
  4.522402635079112E-002
  0.569845314919646     
 -0.124614879873730     
 -3.841972404135097E-002
  0.326651756083232     
  0.396140956268040     
 -0.263886382932243     
 -0.443792719097474     
  0.368559365404985     
  0.686558653535157     
  1.366336813743861E-002
  0.278412823435929     
 -0.410496373101365     
 -0.122522515480013     
  0.347396838036079     
 -0.304136821475736     
  0.397297966715551     
 -6.448824789662297E-002
 -3.659922039803663E-002
 -0.450673438878645     
  0.361094201808736     
 -0.421535177159626     
  4.398606924973838E-002
 -4.716571921662135E-002
 -0.475937255216099     
 -0.144348413388542     
  0.339210961544254     
  0.108621060615684     
  0.108151398395496     
 -0.377912377173360     
  0.311705654099481     
 -0.753897282116925     
 -8.632445488712764E-002
 -0.250260708633872     
   1.27869253710182     
  -1.33245213124740     
  0.305408856835960     
  0.139504221994262     
 -8.385542024973359E-002
 -0.392554354752912     
  0.442764566211567     
  0.355002808686180     
 -0.589409580358954     
  0.238706506685325     
 -5.098785558190189E-002
  0.238745985882317     
 -0.406629716606662     
  0.412633629313346     
 -0.144262481016363     
 -0.225865823769419     
  0.411130421527613     
 -0.440039054150246     
  0.457933918186718     
 -0.298466804400615     
 -0.175569679006922     
  5.313765606788105E-002
  0.590685709820182     
 -0.622931643558116     
  0.358433157855176     
  0.304666249467523     
 -0.436093008020004     
  0.361653011286504     
 -0.284811481129732     
 -4.189137145921701E-002
  0.338513169994935     
  0.295134383476288     
 -0.363293702564593     
  0.400301769372355     
 -0.178274698473199     
  0.450549011209872     
 -0.849485463518981     
  0.884759722941080     
  0.188792977152032     
 -0.393128254829349     
 -0.177435714599375     
  0.394466425352225     
  7.901213808370580E-004
 -0.212791914892718     
  0.173193914485950     
  0.172518328539125     
 -0.470320577954119     
  0.386202175766132     
 -8.897565708757617E-002
 -0.204119766578160     
  0.254311970563687     
 -0.270651029752218     
  0.225289202380066     
  0.220649293890866     
 -0.548201483304066     
  0.466860682541849     
 -0.159712162339084     
  2.545666564514340E-002
 -0.229120408591536     
  0.103509955806277     
 -7.877887058134016E-002
  0.248333008288278     
 -0.157592481006996     
 -9.778100735062621E-002
  8.371201008582747E-002
 -0.193932510905037     
  0.137259304090923     
  6.275874815660878E-002
  0.491706125394741     
 -0.335620729728392     
  0.275829832271492     
 -9.825567590100287E-002
 -0.427071464284722     
  0.282355265162596     
  0.107636158798259     
  0.424282219904977     
 -0.735065398959573     
  0.392891987520585     
 -0.236399261104435     
 -6.243044454192400E-002
  0.494373345221326     
 -0.588027687122179     
  0.242753463613793     
 -0.148102019666034     
 -4.569473097784442E-002
  0.336855773481650     
  0.222904810088887     
 -7.178511321963403E-002
 -0.245038544218508     
 -0.245066221501587     
  0.503133613155783     
 -0.439463755209967     
 -2.916141401269922E-002
  0.574336883630453     
 -0.294923644686090     
  1.561119006889884E-002
  1.059315782803492E-002
  0.182888646437024     
  2.705305712132387E-002
 -0.297599786137529     
  0.194500664044015     
  0.364250880701000     
 -0.535502432774377     
  4.406079929837055E-002
  0.272646858545861     
  0.197720621382653     
  0.112488312421734     
 -0.385922879520904     
  0.106279435351804     
 -0.160152153696148     
  0.199490044382525     
 -0.372349679163141     
  0.215804253929599     
 -4.997371249874438E-002
  8.631539021483074E-002
 -0.143938191036689     
 -2.410896587109125E-002
  7.008715707552160E-002
  1.471677493897321E-002
 -0.183005459187361     
 -2.226411492094498E-002
  0.201031024368953     
 -0.147231261403156     
 -0.329188587118215     
  0.590196949524331     
 -0.375900320348978     
  0.152809427527075     
 -0.253715355318457     
  0.100804145633352     
  0.299185980357217     
 -0.212679424665648     
   1.00583492051172     
  0.211985015306190     
 -0.420249510193009     
 -0.369564584700436     
 -0.317536268052327     
  7.539004539505628E-002
  0.254330044164451     
 -0.206583895371376     
  0.181933665042365     
 -0.213680736059481     
 -0.466488578955379     
 -7.435238443840594E-002
 -0.141173641373194     
  0.333010350981180     
 -0.491170964963612     
  0.250558741754095     
  6.648638930170780E-002
 -0.261035736222015     
  0.143948720346105     
  0.104331185776638     
  8.505358182499997E-002
 -0.186300868342769     
  0.579656217733584     
 -0.387976829079272     
  0.309785433726676     
  0.193640180094763     
  6.120425949405906E-002
 -7.147859331603525E-002
  4.873830042462480E-002
  0.339959964448984     
  0.186174269258223     
  0.388525880168210     
 -3.728092223571958E-002
  0.244863210150850     
 -0.687116694859803     
  0.653241501115514     
 -0.501266032853016     
  0.322232448136331     
  0.116875083859713     
 -0.109027484399746     
 -0.267182362158506     
  0.396908840966551     
  0.118457976141222     
 -0.190862923560075     
 -0.342303163603286     
  0.493649035122581     
 -0.212385252680914     
  0.233988408502193     
 -0.220615029605502     
 -7.399760052521111E-002
  0.318704350700915     
 -0.149069011969018     
  0.157088533142532     
 -0.322626658790126     
 -4.099455334792780E-002
  0.455652520995157     
 -0.638680053881773     
  0.561181926057565     
 -0.363649652281470     
  0.177301972307178     
 -0.391987104766844     
  0.581805596398119     
 -0.474858071447906     
  0.169614167010881     
 -9.895891104392808E-002
  0.203394063680325     
 -0.458331890560795     
  0.161933143270096     
  0.370486847969341     
 -0.613264695031661     
  0.185876249393939     
  0.145407343001076     
  6.351838023583883E-002
  6.452932544656018E-002
  9.942168240281257E-002
 -0.158187629976366     
  8.267361454319992E-002
 -3.751624059342318E-002
  0.216070998327439     
 -0.287262488251019     
  0.209173978461283     
 -0.204599588934277     
  0.133407216993311     
 -6.098851540809912E-002
 -9.795120882372192E-003
 -0.102946335723095     
  0.256735845355913     
  0.279285088533451     
 -9.040898849398840E-002
 -0.397613402804364     
  0.653104885773210     
 -0.112943494007666     
 -0.222163742372312     
 -1.476079795768126E-002
  7.948902723271029E-003
 -1.989901711555813E-002
 -5.793621970157906E-002
  6.567370292667654E-002
  9.629696674572871E-002
 -6.066727295799321E-002
 -0.136820880845047     
  0.627358393226906     
  -1.14027426468826     
  0.831639014901613     
 -0.990145551087311     
  0.997335833641754     
 -0.337075980192214     
 -0.103896347373210     
  0.198756140221692     
 -0.154039666623085     
  0.106551425970883     
 -5.422080954224343E-002
  0.263417642476317     
 -0.438745770489715     
  0.356549488593186     
 -0.184852628211064     
  1.651294532559517E-002
  7.543871401102477E-002
 -0.154903004048911     
  0.106787006232307     
 -0.287873596702279     
  0.373601240847688     
 -0.358719475100598     
  0.604831898368161     
 -0.628840698754023     
  0.512666430985990     
 -0.220820251705416     
 -3.094014098620745E-002
  0.115159089551706     
 -7.871996831184384E-002
 -5.478444899120291E-002
  -1.07062517467603     
  0.757354863042066     
  0.581774171527449     
 -0.268516419699551     
 -0.411520598450654     
 -0.104128582647823     
  0.596373460337557     
  0.761962538010039     
 -0.216602261699213     
 -0.197125490571847     
 -0.647980138451105     
  0.271528571650282     
 -0.196320042828547     
  2.606034808682319E-002
 -0.100964659936331     
 -6.891445418427940E-002
 -0.162169229235773     
  0.307972373660992     
  0.260935861238279     
 -0.366716830543315     
 -4.684911533386387E-003
  9.594669513076361E-002
 -0.499813798484185     
  0.196330172470856     
 -0.542127155008990     
  0.359316813702531     
  0.175835543306350     
 -0.129294146734839     
 -0.269837623524950     
 -0.322363958811594     
  0.100284474270952     
  0.338215809442663     
  0.119447511521123     
  0.764521414394966     
 -0.838912332121325     
  0.373287841481568     
 -2.474932408071702E-002
 -0.203377483854310     
  0.448912359117421     
  4.773095673841460E-002
 -0.653729922355100     
  0.403229292995923     
 -7.194373681136390E-002
  8.048241841623387E-002
  2.640155090858435E-002
 -0.540558809389624     
  0.817275024686113     
 -0.589412080953213     
  0.413099772968818     
 -0.264175381005425     
 -3.869776479661513E-002
  0.167178263177609     
 -0.257741228676179     
  0.277168598854435     
 -0.106721730278803     
  0.253119354188366     
 -0.163445222390451     
  0.240106785855842     
 -0.218266310276805     
 -8.229004334639385E-002
  0.216115412507596     
 -0.251670265387645     
  0.308651846446565     
 -0.103122855599727     
 -0.170770705216689     
  0.113683441784353     
 -0.407873735041844     
  0.567145286085673     
 -0.374139829088829     
  0.206043538752210     
 -0.151726554723900     
  0.101808658701652     
 -0.400623996723800     
  0.539121487251102     
 -0.474676156681589     
  0.124741282023456     
  0.193376622230139     
  8.134283252321860E-002
 -1.722943425857873E-002
  1.145749336008383E-002
 -0.212952821847261     
  0.162273930012069     
  5.093728714321390E-002
 -1.498264053642606E-002
 -5.105932863291800E-002
  0.130939369576127     
 -0.100378023211642     
 -6.195856558519631E-002
 -0.163008763577443     
  0.196665088945033     
 -0.194130988965119     
  0.317253571464674     
 -0.669165058031563     
  0.708376670162876     
 -0.325171732098159     
  8.409819900506792E-002
  0.158610777481587     
 -0.130162892679491     
 -5.339475128349216E-002
  0.313024067751569     
 -0.463619139114317     
  0.752902842357617     
 -0.209663502104527     
 -0.456979915906944     
  0.156051235811101     
  0.153976038357412     
  3.832856206101241E-002
 -0.275513284575367     
  7.667874243154088E-002
  0.419744406005649     
 -0.315276351360644     
  0.261384476920662     
  0.149268042821485     
 -0.548350635974211     
  0.291912485695125     
  0.199870344039486     
 -0.331021296049484     
  5.774612292301039E-002
  0.144716320357670     
 -0.262967706281298     
  0.356682059354768     
  4.429216378271075E-002
 -0.278481759649062     
  0.263003805078347     
 -0.165770015252531     
  4.890423385860389E-002
  0.342836851888066     
 -0.280032096631980     
  2.479261238233430E-002
  0.252313929411466     
 -0.270818313888822     
 -0.199508614858253     
  0.335418831881699     
 -0.790037541604488     
  0.892727323499540     
 -0.703572097856066     
   1.14116017746146     
 -0.730783901778922     
  0.238228563428473     
 -0.333613959982065     
 -0.293187315058235     
  0.508377064974462     
  0.111803784147207     
  0.236303443745552     
  0.331277772014192     
 -0.424645403678394     
 -8.694766734866063E-002
  0.371935182606554     
 -0.262681840632036     
  0.192357476104957     
 -0.102250596862228     
 -0.175904305991382     
  0.186211167639694     
  0.104841042441946     
  0.158094992899184     
  0.267567173539420     
 -0.332041173727858     
  0.111273442125633     
 -5.241682870511850E-002
 -1.785301193923667E-003
  0.194299735722337     
  0.128877596331069     
  3.216487503677035E-002
 -0.275034280060512     
 -0.136330853649385     
  0.224616470149196     
 -0.276018576712178     
  0.295154433626788     
 -7.665580508519559E-002
 -0.227620932642908     
  0.389194445618491     
 -0.296949749444161     
  0.453907280067251     
 -0.500750891679488     
  0.375480483669902     
 -0.540477034453744     
  5.536589309567426E-002
  9.354679102814475E-002
 -0.589972784272450     
  0.969059059051836     
 -0.848067352724263     
  0.569452355827526     
 -0.503308029895176     
  0.351067512427728     
 -0.203966751507502     
  0.166519923705369     
  4.037592608593835E-003
  0.166405694657322     
 -0.396715341509432     
  0.380930538543647     
 -0.312728442498984     
 -7.923835986488700E-002
  0.698041468921711     
  -1.00565395634853     
  0.898620125331670     
 -0.497832065866566     
  0.330419629561705     
  0.129271640572203     
  0.562437594136668     
  -1.00967495766615     
   1.69077008819381     
  -1.02209369894536     
  0.483260245682029     
 -4.348314442575223E-002
 -0.321269738493011     
 -2.792271748935296E-002
  0.416014153707298     
 -0.478352949318043     
  0.273479705396466     
  0.169380318567002     
  0.124291522162494     
 -0.311934040210138     
  0.345314856642400     
 -0.178705316747020     
 -0.127736705229514     
  0.415783561646931     
 -0.491121719157002     
  0.398611085352221     
 -0.281203211902704     
  0.129825431630175     
  0.147252842702013     
  0.175751564976197     
 -0.602586911741924     
   1.03383445449034     
 -0.917163810109572     
  0.470761904879850     
  4.606263426319544E-002
 -0.266248256314777     
  0.165922099383341     
 -4.390217520739327E-002
 -7.916849710493827E-002
  0.522560123177415     
  -1.02369432947967     
  0.744697067801809     
  8.190731749540668E-002
 -0.257256713258821     
  0.356207692604360     
  0.149905229183631     
 -0.969356352884331     
  0.382583667651835     
  0.139829539193434     
  0.259827587734076     
 -9.033797147771513E-002
  5.535374487371830E-002
 -2.245454836524778E-002
 -0.148268871125589     
  0.981440955001667     
 -0.761178448474040     
 -0.119505492457978     
  0.119442650556693     
  0.135714187632633     
 -0.260515842282389     
  0.293236403204089     
 -3.659684020530216E-002
 -0.247502124848886     
  0.459836288371351     
 -0.731970387109583     
  0.226288172510573     
  0.139905101985117     
  0.244341144420311     
  4.024952632284679E-003
 -0.103698878241515     
 -0.183264000697428     
 -0.354831874944783     
 -5.770995754496765E-002
 -0.103893831501221     
  0.152924780064361     
 -2.249165293095929E-002
  0.109282046983317     
 -0.133292874914065     
 -0.415345392773668     
  0.473192879568363     
  0.195331176922867     
  2.653646890603727E-002
  7.587202359216114E-002
  0.439422596637118     
  0.150368399567070     
 -4.091321695962370E-002
 -0.451501544523959     
  0.439936804310267     
 -0.158769180506447     
 -0.313893397585408     
  0.554537099471204     
 -0.535807818904263     
  0.142318969560854     
  9.207467847869948E-002
  0.179622850888148     
 -0.213169796370316     
  0.313202213548316     
 -0.279795383397493     
  8.917577267681605E-002
 -7.529222542414923E-002
  0.344929034749670     
 -0.608667379805620     
  0.433081130352223     
 -0.486966750802338     
  4.774616082155805E-002
  0.269346695032976     
  3.231403999192103E-003
  0.198190736118675     
 -0.351859279640746     
  0.526563611882464     
 -0.640741526465478     
  0.440776654685224     
  9.439910799762537E-002
  0.124324467596703     
  0.193465401208878     
 -0.689705419070662     
 -0.479882574607886     
  0.353468137902561     
 -0.211454384470725     
  6.300299605270331E-002
  0.191372504141496     
 -0.346095493363904     
  7.853519235178114E-002
  0.225733429524323     
 -0.119115519918877     
  3.618010832902468E-002
 -0.139791552208210     
 -2.250034560997280E-003
 -6.525293748935437E-002
  4.341890764504600E-002
 -0.189130656160744     
  0.178713293796088     
  8.290248696085284E-002
 -0.100739998622481     
 -0.488784435753098     
  0.407683227900444     
 -0.226039441004548     
  0.585419036783118     
  0.365919122779857     
 -0.249026056652177     
 -0.192397426537381     
  0.460485370581740     
 -0.601985797769784     
  0.365362963951130     
 -0.503711902202429     
  0.508550715632730     
  0.530457217707744     
 -0.405769166562195     
 -5.773460445597497E-002
  0.395267855783315     
 -0.506613441989605     
  0.305825748218539     
 -3.593405365694011E-002
 -7.295252070121486E-002
 -0.140535390456026     
  0.423919552248500     
 -0.712536144341768     
  0.660522347345100     
 -0.423815506788106     
  0.295993294841158     
  0.170113551601333     
 -6.411076558706583E-002
 -9.154094082671009E-002
  0.259450496294698     
 -0.155637804566226     
  0.217758591971180     
 -0.109513725495880     
 -0.488221727463895     
  0.457426263964065     
 -0.400668617015308     
  0.526940046758918     
 -9.129634636042863E-002
  0.294490792117765     
 -0.722520313727771     
  0.230555063234012     
  0.290702956739333     
 -0.182779281054485     
  0.296798011734944     
 -0.222584074826997     
 -0.342714916001590     
 -0.682242419534789     
  0.246343184268014     
  3.462120550374385E-002
 -9.421217758852510E-002
 -0.296962090748902     
  0.537825262569118     
  2.421577410201083E-002
 -0.579300837215664     
  0.700107058136379     
 -0.524587902642481     
  0.359391855913719     
 -0.266431604553426     
  0.307864391814075     
  7.771537818573070E-002
  5.505784706791406E-002
 -0.322180939343195     
  0.262917857959879     
 -1.632731394831340E-002
 -0.117666826014857     
  0.109209808951416     
 -3.569642400373970E-002
  0.384580201824802     
  6.345002818793541E-002
 -0.247775447669147     
 -0.401837999384929     
  0.658424578780885     
 -0.614662933218990     
 -9.081500088356387E-002
  0.599000656747963     
 -0.524539582081480     
 -0.160030582494087     
  0.719308663193944     
 -0.789961184199560     
 -8.484861917501675E-002
 -3.025811920895855E-002
 -0.102615505030127     
 -0.295473263246740     
 -0.152266798135559     
  0.520137861179620     
  0.190317595806346     
 -0.323894544642444     
 -0.205508836282930     
  0.469967265855511     
 -8.602377689860151E-002
  0.111930876626201     
 -0.307051591545432     
 -0.338677988061062     
  0.296057579353973     
 -6.467714516618356E-003
  2.306316374008015E-002
 -6.886504876024338E-002
  6.817570764552471E-002
  0.118154403513335     
 -0.199340856149462     
 -0.126039882696162     
  0.801076142533554     
 -0.253351924586272     
 -0.141759321342817     
  0.212468163950470     
 -0.192375134229304     
 -9.016177029844052E-002
  0.511543487957866     
  -1.05594474805564     
  0.499086055140713     
  0.412066888830334     
  0.380666221790591     
  0.148418039543937     
 -0.270874050329161     
 -7.373039738411924E-002
 -0.187821158042623     
  0.461373483107020     
  1.401243009242009E-002
 -0.528093267718085     
  0.465998258410075     
 -0.434649032059135     
  0.263453378049095     
  0.166025525754097     
 -0.306371865254897     
  4.365108630086145E-002
  1.619414798229686E-002
 -0.267250345967429     
  0.287524144523246     
 -0.249476704558811     
  0.596707667614376     
 -0.106186053067361     
 -0.346045453448642     
 -0.120924467157382     
 -0.226271719366997     
  0.160644208147775     
  0.149801377686898     
  9.271131232246715E-002
  1.491038788493428E-002
  0.734152742980783     
 -0.907726615531400     
  0.700621364839895     
 -0.603073976179178     
  0.635883017380664     
  0.343225902690244     
 -8.375286876524966E-002
 -0.269696276237682     
  6.874013665502952E-002
 -0.317517408815227     
 -0.307288029365210     
  0.392208273663775     
  0.240287694231632     
 -0.644579822834102     
  0.467233219149624     
 -0.215317050444653     
 -2.923363633239343E-002
  0.351953213976433     
 -0.388199212708323     
  4.810316911606288E-002
 -0.166642220150287     
 -2.422263255205484E-003
 -0.223394955839375     
  0.551509591328984     
 -0.323695168366921     
  6.146949796291739E-002
 -0.197466290375201     
 -0.274115855555618     
  0.310122449422077     
 -7.721579502913535E-002
  0.194519728002193     
  0.769226520041338     
 -0.336064534370535     
  0.347965850567260     
  0.271223538844613     
 -0.223864088211345     
 -0.267708105731053     
  0.342208278391825     
  0.119875864277136     
 -0.393061162696696     
 -0.614039927651157     
  0.504842185373756     
 -8.347121319482809E-002
 -8.472872527373074E-002
  0.161749439632309     
 -0.515266400439948     
  0.269689978351189     
  0.383977859216445     
 -0.416155730510670     
  0.188285521961272     
  6.831109088253254E-002
 -0.160257210790727     
  6.329405966128261E-002
 -0.602007330537782     
  0.238869001558408     
  2.021871591079775E-002
 -0.150503373209804     
 -1.991671647609751E-002
 -1.173727451306961E-002
  0.170973190609999     
 -6.857437570680304E-003
 -1.100151190543241E-002
  0.500242112258163     
 -0.585888050123461     
 -0.832274689840440     
  0.837754712145445     
 -0.363246023404321     
  7.660941893366971E-002
  0.359810065518269     
 -0.371951362642334     
 -0.283098912500025     
  0.205977230986877     
 -0.614779563192386     
  0.422021213720745     
 -0.475802900057203     
 -0.104762790329508     
  0.688497797814861     
 -0.925830786250294     
  0.222363176745054     
  0.154726804980241     
  9.465893268555375E-002
 -1.515687722952860E-002
  0.324688531593442     
 -0.429764363151910     
  0.319153020584856     
 -0.195803052387920     
 -0.233904667207606     
  0.481834461165356     
 -0.572597079050051     
 -5.919421440735228E-002
  0.269798929487170     
 -6.380529464860722E-002
  0.444966864590852     
 -0.162709802152183     
  8.093124935055972E-002
  0.160779176637135     
 -5.344139310742978E-002
  0.185124653460234     
 -0.580924785293867     
  0.927128381823152     
  7.145905875650697E-002
 -2.140870404327259E-002
 -1.948121318422990E-002
 -0.332846849339724     
 -0.188527578485460     
  0.250460535627740     
 -0.414425689580177     
 -0.125536068010681     
  0.319400593974234     
 -0.570596758035673     
  0.433056121075090     
  3.719423029985310E-002
 -0.459016494984940     
  0.211996030024060     
  0.196899838561902     
  0.107359439672109     
 -7.870816861390618E-003
 -0.228445319246151     
  6.464226755566826E-002
  0.280778237159808     
 -0.336640982047567     
 -1.598755945789502E-003
 -0.736301190814192     
  0.837615386611248     
  0.361948998626456     
 -0.515109341074708     
 -0.292443259428123     
  0.927872534457093     
 -0.667598513049167     
  0.394064019479054     
  0.228800900520350     
 -5.829445549338590E-002
 -0.131134205082817     
  2.237437332471484E-002
  0.146009775618668     
  3.058377802374155E-002
  0.353225035923078     
 -0.258982181119094     
 -0.888922652225819     
  0.424757273263897     
  0.487159007490463     
 -0.455701691712278     
  0.346496933668161     
 -0.520850534342728     
  0.555962922872920     
 -0.145663565566145     
 -1.984574441919990E-002
  0.110133891692994     
 -0.140712010269530     
  0.122077909104784     
  7.210565740492808E-002
 -0.197260636224328     
 -0.256236140721541     
  0.735980782322329     
 -0.634892323839190     
  0.209423125740224     
  0.193584287764591     
 -0.783924885310899     
  0.897175714012741     
 -0.518644945769924     
  0.625595265623691     
 -0.429746159953507     
 -0.126567969550495     
 -0.152119614105603     
  0.403633674173567     
 -0.108402291545925     
 -0.890770638823008     
  0.907366744906996     
  0.251424547696249     
 -0.538169444373979     
  0.432228807103415     
  0.349682463045320     
 -0.443131640282323     
  3.627658835510249E-002
 -0.577837502433453     
  0.160957548445641     
 -4.773482087319821E-002
  0.511213639456355     
 -0.432152722483839     
 -0.291221227131434     
  0.552389048787109     
 -0.370230950466514     
  0.324518291228393     
 -0.284031024064098     
  7.095533259980147E-002
 -0.198795043373549     
  0.403632549930959     
 -0.467033939483381     
  0.358076308099201     
 -2.122336431402827E-002
 -1.260781451228499E-002
 -0.293155073099207     
 -0.178598321679822     
  0.373527907884909     
 -0.376778568708615     
  0.323902332744459     
 -0.108881415389051     
 -2.534994416411707E-002
 -0.241801263012865     
  0.660390843974503     
 -0.619282792174054     
  3.154836527777906E-002
  0.201720268052799     
 -9.506246561770688E-002
  9.096256174040875E-002
  0.538322111084466     
  2.728544921550452E-002
  0.335397987460051     
  0.201386497157263     
 -0.126905086639047     
 -0.122482595638534     
 -0.232065745195291     
  0.315263706075849     
 -0.244130944094938     
  0.185303470504134     
 -0.169578748875376     
 -0.194118914499530     
  0.301782421827795     
  0.730109616294984     
 -0.740150422231965     
  0.142020173468690     
  0.155503173914583     
 -0.120322379765625     
  0.162598888743718     
 -0.313873842420307     
  7.251495756726269E-002
  0.102316108673993     
 -0.470081194962083     
  4.957034691969559E-002
 
  -1.05003475909629     
  0.416070254951459     
 -0.716266373358373     
 -0.629172248419529     
  4.350614721447457E-002
  0.222572727597730     
 -0.393902038435726     
  1.665945157709506E-002
 -0.403016504796888     
 -0.296239789564710     
 -6.824757264506603E-002
 -0.336565117631009     
  8.251246990057887E-003
  0.500315994602037     
  0.350641505394272     
 -0.182855332139231     
 -0.271847870210332     
 -0.109109046252304     
   1.03892545007097     
  -1.51826370206723     
   1.17694013300267     
  0.370001883719559     
 -0.592799005089376     
  -1.23382469986272     
 -0.498169431914864     
  0.962307745582595     
  0.377896035192421     
 -0.102908809131019     
 -0.788303465225967     
 -0.322682893539042     
 
  0.125675064947244     
 -5.479512863423192E-002
 -0.276592945403600     
  0.468248856390258     
 -6.809155539987867E-002
  0.207208895191871     
 -0.377254516790602     
 -0.379251050946800     
  8.272725423909994E-003
  0.521824647300686     
  0.237321630527359     
 -6.762166991646816E-002
  0.353786208677022     
  0.184827848783617     
  0.270657795226582     
  0.217868726868308     
  0.149578139732544     
  0.391584132095128     
 -0.265446753829599     
  0.670446851923424     
  0.339138786561570     
 -0.284186756064394     
  0.349892906779826     
 -0.161194003868177     
  0.593584437590631     
  0.480475995579076     
  0.438815819146802     
 -0.183394337156932     
  0.128409422417974     
 -0.173974985094236     
  0.272830510284791     
 -9.571801085307521E-002
  0.225716833274712     
 -0.307793763236256     
 -7.044891967465208E-002
  0.294600869000285     
  5.118085636606882E-002
  0.482007312348770     
  2.343748781370997E-002
  0.336086614346624     
  6.073901636047151E-002
  0.557499961464688     
 -0.141293055876576     
  -1.04559140023142     
  -1.01384381308360     
 -0.654440185843908     
  0.247388965004835     
 -0.466207337805712     
 -0.538438022631568     
   1.03601506578823     
  0.331356009143894     
 -3.828100748022611E-002
 -8.100196947593311E-002
 -0.661171715356678     
  0.233012846050583     
 -0.452419803819405     
  0.386083137219570     
 -4.823288577109245E-002
 -0.286246088696913     
 -0.102157710289417     
 -0.287851175920141     
 -0.665104778148169     
  0.369175717423726     
 -0.396880578590120     
 -0.401554042348397     
  3.941918497912991E-002
 -0.427497852045866     
  0.156992207105732     
  0.389715016981204     
  0.415718352655103     
 -0.109904026778452     
 -0.207612542921704     
  0.637554990770894     
 -0.277378185309310     
  -1.12350459262571     
  0.893888031951836     
 -0.330059562013412     
 -0.225407810734989     
  0.287051607882533     
  0.473716442111931     
  4.614327959461657E-002
  0.229713429903766     
  5.965467466508892E-002
 -0.131695786298154     
 -0.201316796765676     
 -0.181723271615794     
  -1.22410949771310     
  8.152418788835239E-002
 -0.408428887708795     
  0.493028644569863     
 -0.332063471499468     
 -0.207829811242756     
  0.389251536276184     
  0.354708003326805     
 -0.327034908937348     
  0.212979919655582     
  0.194101321440948     
  0.123249227424985     
  0.261115154216245     
 -3.588379927754238E-002
 -0.141229088478106     
  8.834107091395928E-003
  7.898179847456813E-002
 -1.588940319651153E-002
 -3.917847762856307E-002
 -0.867637264387596     
 -0.242149530360134     
 -9.987678659179895E-002
  0.291145767743128     
 -8.870122950029158E-002
  0.447035675007063     
  2.138825408299430E-002
  0.687061216934821     
 -0.353432647434252     
 -0.402683138515010     
  0.326133545282896     
 -0.211629979033257     
  -1.05363761264410     
 -1.782567656475236E-002
  4.855418575481992E-002
  0.161791420265695     
 -0.293161657751819     
 -0.712801424098024     
 -0.872918841063073     
  0.210117351730061     
 -5.455908674357667E-003
 -0.105847224703547     
  0.269596569545287     
  0.559619860753004     
  0.277550204606983     
 -1.496475131971134E-002
 -0.143620773539242     
 -4.487473178355728E-002
  0.108732147165410     
 -0.859692375540283     
 -8.093313973521997E-002
 -6.707544845217056E-002
  7.575809701388776E-002
   1.14159108598590     
 -0.233210796893859     
  0.507845209127854     
  0.571798874628988     
 -0.586115030282799     
 -0.246191211098101     
 -9.804792959559029E-003
 -2.241351856753360E-004
  2.492017570604031E-002
  0.145220980732196     
 -0.135379566192800     
  0.618463567881300     
 -0.102097786711508     
  0.126445094621870     
  0.810451208593881     
 -0.128333573928194     
 -0.429430423590737     
 -0.242511834257684     
 -7.246718434315773E-002
 -0.222797583265463     
  2.886532557901011E-002
  0.413916064405124     
  4.146073471112062E-002
  0.175910857866060     
  0.974755239299834     
  0.125591765485299     
 -0.326230547613503     
  0.551148972561193     
  0.355921954157098     
 -0.373865176404054     
 -0.295207103289424     
  0.841032389863569     
 -0.556410701006202     
 -0.144853664454335     
  0.110621504580772     
  0.240556052324067     
  0.378130717346907     
 -0.718998874125392     
  0.239775348229867     
  0.243445955618197     
 -0.362278124789701     
 -2.476163658825474E-002
  0.352831984891055     
  0.479287341080311     
 -8.294415956866907E-002
  0.284849826015471     
  0.250061838785723     
 -0.330309023683081     
 -0.153543344290165     
  0.325549181529982     
  0.431255639234428     
  0.478363133190147     
 -9.051012190808967E-002
  8.677503180687718E-002
 -0.184678928512227     
 -0.296781161265891     
 -0.338048475190868     
  0.105108072776028     
  0.197167463330860     
  7.476705216884123E-002
 -0.560758077680966     
  0.335634115757252     
 -0.128687211172074     
  0.388986076172102     
  0.464017600260872     
 -0.263986420529495     
  3.330055339430795E-002
 -0.328993257806266     
  0.222738102047990     
 -0.173084962990133     
  4.059472068127292E-002
 -0.576183145913315     
  0.616428682125291     
 -0.220419980126067     
  0.378906935815265     
 -0.622580863771596     
  0.100941255810265     
  0.148661984099985     
 -0.716492096360704     
  7.634834931979133E-002
 -0.711000348654286     
  2.065455752992747E-002
  0.120961326812392     
  0.543173920552702     
 -0.121415711936379     
  0.592782614561543     
 -0.617835887485161     
 -0.689630499180219     
 -0.246342871271956     
  3.210118930672368E-002
  0.235577402068399     
  0.458047244001977     
  6.824210347544429E-002
  6.312408797907859E-002
 -0.154053003054877     
  0.207574697717314     
  0.360241395422658     
 -0.898627959518887     
 -0.241566902468881     
 -7.069406920002372E-002
 -0.395242042799625     
 -0.363035990195855     
  0.143714556517756     
  0.341540713520745     
  0.934150169199094     
  0.833931273121524     
 -0.180593332187099     
  3.039755668863566E-002
 -0.439636416684265     
  9.686706148636831E-002
 -0.867765880611198     
  2.665112670991691E-002
 -9.531054248835083E-002
 -0.480646351280064     
 -0.347774943811809     
  0.292548353084232     
  0.105864392325250     
 -0.489812742560754     
 -5.897010821828265E-002
  0.162498811691150     
 -0.579019392016839     
 -0.196626314181623     
 -8.444871590854001E-002
  0.252187553039948     
   1.11961620790228     
  0.403934103631407     
 -7.486902839025661E-002
 -9.960372503668932E-002
 -0.166441228673124     
  0.284057602720845     
 -0.223654256845373     
  2.765905073329740E-002
 -0.114844254717623     
 -8.398299973944498E-002
 -0.144319536638155     
  0.174516575529779     
  0.355872729335334     
  0.289202203398733     
  0.693674013387130     
 -0.763518160803213     
  4.176979049388492E-002
  0.294492199476415     
 -0.262469321117483     
  0.173849269746453     
  0.590481051785137     
   1.05439109482579     
 -0.589796446648428     
  0.325810576034626     
  0.119688626322164     
  1.203133908299375E-002
 -0.127281960018115     
 -0.832770331405214     
  4.306279188500395E-002
  0.118894367105765     
 -0.491073556256575     
 -0.209622283506482     
 -0.748989575668343     
 -0.337563744254812     
  0.100388537188097     
 -0.585483721280299     
 -4.380720278592786E-002
 -0.413145074878153     
 -0.447335562266886     
 -0.317414247353251     
  0.252347952791245     
  0.348308134304759     
  0.466151496005122     
 -0.280791671966873     
  0.129700828775844     
  0.305529022654839     
 -0.146867093872261     
  0.750578858817568     
 -3.859506609607402E-002
 -0.168123114644817     
  0.790835983012881     
  0.128451555409333     
  0.326858279244505     
  1.219184724921592E-002
  0.298385105833132     
 -4.677328102463577E-002
 -0.353979365814357     
  0.206374025936105     
  0.239083119855120     
 -0.199798068235355     
  0.298635308268307     
 -7.843648714448519E-003
  0.742576477937007     
  4.490980712617383E-002
 -0.146418523326984     
  6.758070747792821E-002
 -0.435094333288098     
 -0.142835518415543     
  0.352062934223546     
  0.248332363974909     
 -8.075458496957658E-002
 -0.797907033316012     
  0.261228217512671     
 -0.301212622586788     
  0.462295972814798     
 -0.217174851163730     
 -0.384614325758688     
 -5.841600577239805E-002
 -0.318717995426404     
 -0.279802856503852     
 -4.652083729151064E-002
 -0.570723749477814     
 -0.259385397007739     
 -0.159505234649338     
  4.530246664318052E-002
 -0.229268168041350     
  0.364464754691747     
 -0.205671169578126     
  0.174137198068373     
 -8.304108634613362E-002
  6.124184279705230E-003
  0.488932010238298     
  0.135488286453962     
 -0.520372626131691     
 -9.929588340949003E-002
 -0.370228893300908     
 -0.326639868666574     
 -0.141854891139609     
 -0.285928259148033     
  0.221957116223896     
  0.302670712339306     
 -8.197920827707594E-002
 -6.927279086477264E-002
 -7.132513278555727E-002
 -0.284353273966097     
 -0.584515845825896     
 -0.616829691858253     
 -7.354003419503936E-003
  0.259700258542622     
  0.359360846336782     
  0.268043542393543     
 -0.141011503638246     
 -2.848383342101017E-002
  0.611565744324439     
 -0.123222284831236     
  0.304357702092992     
  0.285372405251361     
 -0.460442282376834     
 -6.878544458208967E-002
 -6.234487230822609E-002
 -0.244844008826280     
 -2.491453473977290E-002
 -0.248376533209315     
  1.514523946654698E-004
  7.978506205467105E-002
 -0.415376105634641     
  0.369621476560468     
 -0.179387403071680     
 -5.891400990210894E-003
  0.819073331242344     
   1.11738969067153     
  0.425346749639753     
  0.204255260003527     
 -0.506803543407631     
  0.321924047566725     
  0.198806905236644     
  -1.34002053446772     
 -8.061126072834161E-002
  4.913827872576452E-002
  9.856269966355312E-002
  0.180829447168512     
  0.226207867132792     
 -0.274094827973504     
  0.195978280389973     
  0.356834524581917     
 -0.273979457012577     
  0.325872273316272     
 -0.266203482755233     
 -2.008525210311365E-002
  5.558055240485769E-002
  0.351880986924891     
  0.186247791454621     
  0.178783995446253     
 -0.326168278651105     
  0.289106408645106     
 -3.776337437623700E-002
  0.309980700799121     
 -5.805956293537368E-002
 -0.107847777286712     
 -0.108306808575041     
  6.151771271341311E-002
  0.206536600413527     
 -0.135639172173487     
 -0.106678178213492     
  0.331688384062133     
 -0.337154459816116     
 -0.390679680997478     
 -0.322532315040662     
 -0.446804608053071     
 -0.653181502569058     
  0.118246630049102     
 -0.283659002252864     
 -0.384323150442088     
 -0.340443905518190     
 -1.933019091496096E-002
  0.568502424649361     
 -0.431646469435725     
 -0.132853235266300     
  0.662896352118374     
  0.441049176439857     
  0.784473368089978     
 -0.637829104067833     
 -0.531819640745109     
  0.848139648557838     
 -0.325303581299131     
  0.199367989143514     
 -0.102227709838756     
  0.694310519719650     
  0.100221207481087     
 -0.259714686133761     
  0.236219636082599     
  0.207074414182953     
 -6.292184831125770E-002
 -5.088582088456404E-002
 -1.290700615539320E-002
  0.879883576745987     
 -0.392493976906390     
 -0.335761545045561     
 -0.124645969105577     
 -0.400699634938176     
 -0.159172654457857     
 -0.224250875137237     
 -0.120439942643734     
 -0.209573654434459     
 -0.335808612399251     
 -5.428842336113696E-002
 -0.416314589883020     
  0.107754941952362     
  0.391628576388685     
 -7.895862835365275E-002
  0.389866270380563     
  0.678740438491426     
 -0.209084415431631     
  0.882843500591280     
 -0.216578593190690     
 -0.168705382558962     
  6.392157848089092E-002
 -5.440709681255196E-002
 -0.175965341510900     
 -0.444334671365710     
  0.617020736269772     
  0.144704959571885     
  0.375971259912926     
  9.200740648459495E-002
 -8.126408468834457E-003
  0.208721923345562     
  0.364545236578862     
 -0.232565977756519     
 -0.411619995146510     
 -5.189219455890477E-002
  0.196126905633350     
  0.114400773670977     
 -0.667406073156018     
 -0.340723414099083     
  5.925855046313741E-002
  0.659211078769044     
  0.226770553554160     
  1.680711922977502E-002
 -7.470506130478906E-002
  0.185811971658468     
 -0.119905649683121     
 -0.119197261882662     
  2.570639107165383E-002
  0.670062055051172     
  3.249816961304285E-002
 -4.581813608637671E-002
  0.409043820653805     
 -4.799759102392809E-002
  0.588968115777235     
 -7.874637209472753E-002
 -0.416597730702474     
  0.485168667614283     
  0.422505567691895     
 -0.262085340450710     
 -0.469806673306259     
  0.256205808378476     
  0.194869405264039     
 -0.219151224771571     
  0.607067938573936     
 -6.498944150956096E-002
  0.365141203388576     
 -0.478553132128963     
  1.719665319886446E-002
  0.304189125188667     
  0.535718058083493     
  0.262104770384233     
  0.727013528532913     
 -7.166030715467944E-002
 -8.589701496137250E-002
  0.578162663375656     
  0.616127576388428     
  0.332980946962855     
  9.522042644134655E-003
  0.579672315560006     
  7.349786663410032E-002
 -0.348601352690751     
 -0.422186870324072     
  0.212460230770637     
 -0.136892958681930     
  0.698690934573740     
 -0.499312526484640     
  0.357251883597208     
  2.591716059255077E-002
 -0.166962116186479     
  0.301178329200337     
  0.368887868297220     
  0.139031393003607     
 -0.354989856226190     
 -0.136403080357708     
 -0.169246310208935     
 -0.248458281141472     
 -0.759066157030853     
  4.784465619598929E-002
  0.276588791032722     
  0.260378422815289     
 -8.282066931794095E-002
  1.107118793590684E-002
  2.730560681036458E-002
  0.137804314554438     
 -0.761349035966377     
  0.184709900772827     
 -0.150821550269842     
  3.019921816336279E-002
 -0.200347313867120     
  0.382097856498632     
 -0.121397394536458     
  0.271524707041014     
 -6.691369621533678E-002
 -0.364371708622814     
  0.434651208851115     
 -0.196782351962431     
  9.556466782851637E-002
  0.239561447666389     
 -0.503720039964861     
  0.157533578195081     
  0.328281855178797     
  9.511981307304708E-002
 -0.206516166150706     
 -0.274704284107672     
  0.112901426886998     
 -2.587627974415787E-002
  0.480283432410576     
 -0.220242042332455     
 -0.394239469640757     
  0.152521051084603     
  0.221652383536931     
  0.735528430741490     
 -0.375859157342530     
  0.406337345918478     
 -0.152477557136954     
  0.179574257883361     
 -5.853432412632048E-002
  3.983927893762005E-003
  0.249338136444714     
 -6.087639089651987E-002
  0.591652825558204     
 -0.271793281480981     
  7.488191535031077E-002
  0.330524440689955     
  0.229521465301852     
  0.188554195398281     
  1.485231841450300E-002
  0.589903689442056     
 -0.106504713130323     
  0.945809612571909     
  0.320785528479168     
 -0.150018439416515     
  0.171342668198757     
  5.439477386804799E-002
 -0.272029051952707     
  0.287664345587056     
 -8.847545024185498E-002
 -0.141682511504637     
  0.875510601804403     
 -8.378388242522911E-002
 -0.194488254809086     
  0.181165943731065     
 -0.168661718031343     
 -0.174409794037245     
 -5.639945059030149E-002
 -0.156497371961091     
 -0.572179315241930     
  0.590585972442163     
 -0.385844309752373     
  9.955608519135120E-002
 -0.143712787229860     
  0.261141159437935     
 -0.296156123905701     
  0.290510279942219     
 -0.341074672447367     
  0.110238061179633     
 -0.641088146073040     
  0.365396532264536     
  0.130308011436756     
 -0.236138564489259     
  0.105963720589750     
  0.707527290978378     
  0.230665694968180     
 -0.195688540762436     
  0.657081963624635     
 -0.237514606848547     
 -0.401370392352850     
  4.764807862733489E-002
  0.964187498233586     
 -0.194009073861051     
 -0.108645747773473     
  0.340827493597490     
  0.246367618077531     
  0.441951438041987     
 -0.738718598353142     
  0.251799433508938     
  0.233914115665885     
 -0.367242010386379     
  0.135888473359174     
 -0.278830753315652     
  0.977771395584600     
  0.860071490723440     
  0.160865060224915     
  9.982838258866999E-002
  7.048356789876078E-002
 -0.609832500131909     
 -0.595781876121738     
  4.645993200756589E-002
 -7.142614256142875E-002
  0.697656679020832     
 -0.122051976494797     
  0.106240769934403     
  0.237767717230584     
 -2.981017895942521E-002
 -0.265657001427140     
 -0.126120997021338     
  0.275893284654381     
  -1.42629912272929     
 -0.157280534916312     
 -0.377946345613333     
  0.348415170296607     
 -8.344487438149265E-002
  0.512170047076579     
  0.812542614437847     
 -0.304080640031500     
 -0.429661401108113     
 -0.144404374359752     
  0.370926437780639     
 -2.758236452129815E-002
 -0.148749047051585     
 -0.407662665431485     
 -0.433056310888589     
 -0.325964623207391     
 -0.169222330022384     
  6.749959459270835E-002
  0.753279358858767     
 -2.320838014412295E-002
  0.141739898323375     
  0.405096591299388     
 -5.952422120969637E-002
 -0.423510839395182     
  0.292489819088028     
  5.625496826340234E-002
 -9.138129432866358E-002
 -7.199074605446347E-002
  1.954287237742765E-002
  0.223143394423197     
 -0.214462033206080     
  0.581250080033712     
 -0.282884493762646     
  0.272324787363976     
 -0.523935755318147     
  0.433450753339442     
  0.547531912089687     
  1.813914441917319E-002
 -0.158297034021520     
  2.040304233101396E-002
 -0.175776079658984     
  0.154209750878858     
  0.932162132974266     
 -0.172145271210903     
  0.392537375116276     
  2.214638758845251E-002
 -1.404388072596096E-002
 -0.282871838932177     
 -0.434634881328022     
 -0.492309453294045     
  0.754529825921998     
  0.100687889213346     
 -0.478590194888441     
  0.479020011686385     
  0.450343034308298     
 -0.703272932761131     
 -0.115697602019701     
 -0.525779958589531     
  0.382382685190542     
 -0.502521360945196     
  0.106871928158432     
 -0.295386855874193     
  2.496154441291019E-003
  7.747200489053034E-002
 -0.641555531446745     
 -0.223527399699462     
  0.560453613378500     
  0.361963715981424     
 -0.168810833784191     
 -0.245391299826565     
  0.279495482414270     
  0.349844217754228     
 -9.631421703488957E-002
  1.416790986721316E-002
  0.563076889309813     
 -1.592502323600654E-002
 -8.525290644754452E-002
 -0.300781037113611     
  0.473263041503391     
 -0.114358974921797     
  0.229844414294136     
  0.138668226899632     
 -0.923165660792400     
  8.169429334940223E-002
 -9.120984382183488E-002
  2.690377785243274E-002
 -0.383408171587100     
 -0.165945981308475     
  8.255263302293912E-002
  0.126852653535502     
 -0.197395471895527     
 -0.156631544412428     
 -0.215820641641252     
  0.227653156232680     
  0.353416395834337     
 -0.203796479411723     
 -0.281645918894108     
  0.409594395626360     
  0.307061463840331     
 -3.992047997521947E-002
 -0.127522668883200     
 -0.498658734943038     
 -0.702054497203750     
 -2.192008687543218E-002
 -0.248064350954958     
  0.204760231463616     
  0.490870652894987     
 -0.176541671950894     
  9.503135527707790E-002
 -0.812547614334858     
  0.660851147283710     
  0.407773195601821     
  0.132648803628234     
 -2.796321360754300E-002
  0.551415822015732     
  0.373068737104139     
 -0.313733435965449     
 -0.340265974729636     
 -2.965037282993779E-002
  0.372141698373499     
 -0.451420928103139     
   1.61327945697299     
 -0.154863811059391     
 -0.109803270215081     
  0.551044649455656     
  0.367953209013326     
  0.394272848883740     
 -0.761025435444529     
 -0.111317382100148     
  0.447122970811426     
  0.500414792359179     
 -5.987975760756833E-002
 -6.655406105863403E-002
  0.137456811686492     
  0.824311187240021     
 -0.509233791163902     
  0.274026562332232     
 -4.491396528420654E-003
 -0.561251031351075     
 -0.430173684620072     
 -0.286356542687787     
 -0.213331784787912     
 -0.449264826850579     
  2.022929239006260E-002
 -0.232936045079337     
  5.045959589017852E-002
 -0.197612908569428     
 -0.505182539764431     
  0.125882723525538     
 -0.644266671957926     
 -0.766474925207905     
 -0.269606947746065     
  1.687295730203769E-002
  0.146633266245656     
  0.245038796935965     
  0.480327280567369     
 -0.334735947139885     
  6.232382288012580E-002
 -0.271673641903568     
  0.112187722047263     
  0.338503266724281     
 -3.166652601220460E-002
 -0.141540296251720     
 -0.407742188358304     
  0.195326635558887     
 -0.496050749852515     
 -0.559208464832352     
  0.786925462060062     
  0.563368293798440     
 -0.126007779654495     
  0.247045650161416     
  0.405038344701759     
  0.306032472046528     
  0.289247642882039     
 -0.587797263602009     
 -0.191465033284125     
 -0.343754515667394     
  0.279177845816586     
  0.461007873166932     
 -0.535046197435572     
 -0.554755075131621     
 -0.781417636434848     
  7.422689042838281E-002
  0.469665825272780     
  0.843197765121052     
 -0.246157100063028     
  0.135584651056003     
 -0.336227926872481     
 -0.520513591724887     
 -0.767275088191358     
  0.314199464380598     
 -0.607029828869654     
  0.686225481622183     
 -8.091325749973764E-002
  8.881680705136348E-002
 -0.389047372780032     
 -8.866257664547976E-002
  9.902389226614265E-002
  2.435872037073961E-002
 -0.100981369365385     
 -5.371841011711580E-002
 -0.134763904198395     
 -0.114546865201190     
 -0.188882276703328     
  0.226604210761171     
 -8.468006258049152E-002
 -0.207240326375463     
 -5.932733365278866E-002
 -5.967750491322019E-002
 -9.777623838313873E-002
 -0.156867260154000     
  0.144216678146334     
  9.078320366333922E-002
 -0.222442559205402     
 -4.497610193960542E-002
 -0.219478972624236     
 -8.659216155741331E-002
  0.171051810822169     
  0.191527268496588     
  0.117984948791203     
 -2.395666252805970E-003
  0.224875447598784     
  0.300570467801190     
  0.149469470516214     
  8.884693152764006E-002
  2.679272295004186E-002
 
  0.128661789388343     
  2.192989913632241E-002
 -0.292103779855729     
  0.268745997178270     
 -3.013212235849766E-002
  2.494622183180112E-002
 -9.200815078855082E-002
  7.092280906074644E-002
  0.166321676675981     
  0.412221622936274     
  7.842613845502647E-002
 -0.399088285834047     
 -0.275546969292757     
 -0.315795091608153     
  0.212708293148387     
  0.428275534864865     
 -0.231735531539420     
 -0.442989887180913     
 -2.349985737879819E-002
 -0.652064672622796     
 -0.236381974567431     
  0.207442481182571     
 -0.215856374443773     
  0.567373425764802     
  0.166757427104326     
  0.218288233430188     
  9.239453131180722E-002
 -0.424838353212247     
  0.530647710986531     
 -0.108080472092876     
 
  -22.2431328717984     
   478.769439904258     
   42.4646347464510     
  -92.9695679968695     
  -19.2858245349720     
  -50.9730401287780     
   78.5952795026384     
   83.5345074763368     
   170.862236628326     
  -77.3686636051153     
   13.0527404950548     
  -95.1840518814516     
   682.632666390493     
  -355.843677613381     
   121.948769519422     
   149.903920502803     
  -39.7108554070479     
   16.5293749029813     
   53.7419952394797     
   445.985365650796     
   465.165744425078     
   177.112783762956     
  -227.596837534815     
  -74.2332997424889     
   23.4199091704599     
  -76.5683168500353     
  -174.531871829025     
  -84.9912082102993     
   200.611882368255     
 -3.637735597231417E-002
 
  -9.27610391468750     
 
  tansig  tansig 
